{"learner":{"attributes":{"scikit_learn":"{\"_estimator_type\": \"classifier\"}"},"feature_names":[],"feature_types":[],"gradient_booster":{"model":{"cats":{"enc":[],"feature_segments":[],"sorted_idx":[]},"gbtree_model_param":{"num_parallel_tree":"1","num_trees":"400"},"iteration_indptr":[0,4,8,12,16,20,24,28,32,36,40,44,48,52,56,60,64,68,72,76,80,84,88,92,96,100,104,108,112,116,120,124,128,132,136,140,144,148,152,156,160,164,168,172,176,180,184,188,192,196,200,204,208,212,216,220,224,228,232,236,240,244,248,252,256,260,264,268,272,276,280,284,288,292,296,300,304,308,312,316,320,324,328,332,336,340,344,348,352,356,360,364,368,372,376,380,384,388,392,396,400],"tree_info":[0,1,2,3,0,1,2,3,0,1,2,3,0,1,2,3,0,1,2,3,0,1,2,3,0,1,2,3,0,1,2,3,0,1,2,3,0,1,2,3,0,1,2,3,0,1,2,3,0,1,2,3,0,1,2,3,0,1,2,3,0,1,2,3,0,1,2,3,0,1,2,3,0,1,2,3,0,1,2,3,0,1,2,3,0,1,2,3,0,1,2,3,0,1,2,3,0,1,2,3,0,1,2,3,0,1,2,3,0,1,2,3,0,1,2,3,0,1,2,3,0,1,2,3,0,1,2,3,0,1,2,3,0,1,2,3,0,1,2,3,0,1,2,3,0,1,2,3,0,1,2,3,0,1,2,3,0,1,2,3,0,1,2,3,0,1,2,3,0,1,2,3,0,1,2,3,0,1,2,3,0,1,2,3,0,1,2,3,0,1,2,3,0,1,2,3,0,1,2,3,0,1,2,3,0,1,2,3,0,1,2,3,0,1,2,3,0,1,2,3,0,1,2,3,0,1,2,3,0,1,2,3,0,1,2,3,0,1,2,3,0,1,2,3,0,1,2,3,0,1,2,3,0,1,2,3,0,1,2,3,0,1,2,3,0,1,2,3,0,1,2,3,0,1,2,3,0,1,2,3,0,1,2,3,0,1,2,3,0,1,2,3,0,1,2,3,0,1,2,3,0,1,2,3,0,1,2,3,0,1,2,3,0,1,2,3,0,1,2,3,0,1,2,3,0,1,2,3,0,1,2,3,0,1,2,3,0,1,2,3,0,1,2,3,0,1,2,3,0,1,2,3,0,1,2,3,0,1,2,3,0,1,2,3,0,1,2,3,0,1,2,3,0,1,2,3,0,1,2,3,0,1,2,3,0,1,2,3,0,1,2,3,0,1,2,3,0,1,2,3],"trees":[{"base_weights":[-1.8018745E-6,1.6395071E-1,-2.870944E-2],"categories":[],"categories_nodes":[],"categories_segments":[],"categories_sizes":[],"default_left":[0,0,0],"id":0,"left_children":[1,-1,-1],"loss_changes":[1.655249E2,0E0,0E0],"parents":[2147483647,0,0],"right_children":[2,-1,-1],"split_conditions":[6.0708774E-3,1.6395071E-1,-2.870944E-2],"split_indices":[881,0,0],"split_type":[0,0,0],"sum_hessian":[8.591571E1,1.2100804E1,7.381491E1],"tree_param":{"num_deleted":"0","num_feature":"1286","num_nodes":"3","size_leaf_vector":"1"}},{"base_weights":[6.47492E-7,1.2934728E0,-4.730243E-1,-2.7884556E-2,1.452869E0,6.4155865E-1,-6.335695E-1,6.0867704E-4,7.5131945E-2,-2.4559058E-1,6.803679E-2,5.131087E-1,-6.9068295E-1,-3.1068254E-2,4.3823432E-2,5.59025E-2,-2.354212E-2,2.2216056E-2,-7.109292E-1,-3.6579564E-2,-3.2907021E-3],"categories":[],"categories_nodes":[],"categories_segments":[],"categories_sizes":[],"default_left":[0,0,0,0,0,0,0,0,0,0,0,0,0,0,0,0,0,0,0,0,0],"id":1,"left_children":[1,3,5,-1,7,9,11,-1,-1,13,-1,15,17,-1,-1,-1,-1,-1,19,-1,-1],"loss_changes":[9.6361176E1,1.3254112E1,2.104196E1,0E0,2.7857895E0,9.914821E0,6.9888573E0,0E0,0E0,3.7364824E0,0E0,3.7288246E0,2.5431595E0,0E0,0E0,0E0,0E0,0E0,1.2262688E0,0E0,0E0],"parents":[2147483647,0,0,1,1,2,2,4,4,5,5,6,6,9,9,11,11,12,12,18,18],"right_children":[2,4,6,-1,8,10,12,-1,-1,14,-1,16,18,-1,-1,-1,-1,-1,20,-1,-1],"split_conditions":[6.12398E-4,1.3335592E-2,-1.9436186E-3,-2.7884556E-2,2.7401468E-3,7.4734185E-6,-3.163959E-3,6.0867704E-4,7.5131945E-2,-2.3001235E-2,6.803679E-2,3.451211E-2,1.8879664E-3,-3.1068254E-2,4.3823432E-2,5.59025E-2,-2.354212E-2,2.2216056E-2,-2.7833696E-4,-3.6579564E-2,-3.2907021E-3],"split_indices":[814,768,700,0,621,1113,612,0,0,331,0,130,9,0,0,0,0,0,826,0,0],"split_type":[0,0,0,0,0,0,0,0,0,0,0,0,0,0,0,0,0,0,0,0,0],"sum_hessian":[1.5549289E2,4.1172764E1,1.1432012E2,3.066057E0,3.810671E1,1.401626E1,1.0030386E2,1.3140244E0,3.6792683E1,6.570122E0,7.4461384E0,4.380081E0,9.592378E1,5.256098E0,1.3140244E0,2.628049E0,1.7520325E0,1.3140244E0,9.460976E1,9.15437E1,3.066057E0],"tree_param":{"num_deleted":"0","num_feature":"1286","num_nodes":"21","size_leaf_vector":"1"}},{"base_weights":[7.256786E-8,-3.3286713E-2,9.47952E-2],"categories":[],"categories_nodes":[],"categories_segments":[],"categories_sizes":[],"default_left":[0,0,0],"id":2,"left_children":[1,-1,-1],"loss_changes":[1.7335434E2,0E0,0E0],"parents":[2147483647,0,0],"right_children":[2,-1,-1],"split_conditions":[1E0,-3.3286713E-2,9.47952E-2],"split_indices":[514,0,0],"split_type":[0,0,0],"sum_hessian":[1.3534647E2,1.0065202E2,3.4694447E1],"tree_param":{"num_deleted":"0","num_feature":"1286","num_nodes":"3","size_leaf_vector":"1"}},{"base_weights":[3.2583287E-7,-4.6457598E-1,1.1672007E0,6.7226574E-2,-5.744443E-1,-2.9738694E-2,1.4862038E0,5.3900903E-1,-6.2269E-1,1.7033138E0,-1.5705335E-1,-2.1379227E-2,5.987379E-2,3.8871083E-1,-6.533448E-1,8.665418E-2,2.6361177E-2,2.6361177E-2,-2.5581732E-2,4.9020294E-2,-1.8957054E-2,-3.3738505E-2,2.6361177E-2],"categories":[],"categories_nodes":[],"categories_segments":[],"categories_sizes":[],"default_left":[0,0,0,0,0,0,0,0,0,0,0,0,0,0,0,0,0,0,0,0,0,0,0],"id":3,"left_children":[1,3,5,-1,7,-1,9,11,13,15,17,-1,-1,19,21,-1,-1,-1,-1,-1,-1,-1,-1],"loss_changes":[7.850914E1,2.1356804E1,2.4053024E1,0E0,5.618065E0,0E0,1.2821266E1,3.4524188E0,3.1905022E0,1.7744446E-1,1.488257E0,0E0,0E0,1.9224615E0,2.6904144E0,0E0,0E0,0E0,0E0,0E0,0E0,0E0,0E0],"parents":[2147483647,0,0,1,1,2,2,4,4,6,6,7,7,8,8,9,9,10,10,13,13,14,14],"right_children":[2,4,6,-1,8,-1,10,12,14,16,18,-1,-1,20,22,-1,-1,-1,-1,-1,-1,-1,-1],"split_conditions":[4.6038697E-3,-1.33701E-2,4.736622E-3,6.7226574E-2,-1.3756439E-2,-2.9738694E-2,-7.5915377E-3,-4.6006512E-4,-5.56749E-3,7.7310435E-2,2.2206541E-2,-2.1379227E-2,5.987379E-2,3.4964517E-2,7.888797E-3,8.665418E-2,2.6361177E-2,2.6361177E-2,-2.5581732E-2,4.9020294E-2,-1.8957054E-2,-3.3738505E-2,2.6361177E-2],"split_indices":[1016,737,760,0,681,0,737,96,610,0,0,0,0,14,866,0,0,0,0,0,0,0,0],"split_type":[0,0,0,0,0,0,0,0,0,0,0,0,0,0,0,0,0,0,0,0,0,0,0],"sum_hessian":[1.4278307E2,1.02562485E2,4.022058E1,5.228676E0,9.733381E1,6.0330873E0,3.4187496E1,3.6198525E0,9.371396E1,3.0165438E1,4.0220585E0,1.6088233E0,2.0110292E0,2.413235E0,9.130072E1,2.895882E1,1.2066175E0,1.2066175E0,2.8154407E0,1.2066175E0,1.2066175E0,9.00941E1,1.2066175E0],"tree_param":{"num_deleted":"0","num_feature":"1286","num_nodes":"23","size_leaf_vector":"1"}},{"base_weights":[-2.737334E-4,1.4000343E-1,-2.8562237E-2],"categories":[],"categories_nodes":[],"categories_segments":[],"categories_sizes":[],"default_left":[0,0,0],"id":4,"left_children":[1,-1,-1],"loss_changes":[1.405015E2,0E0,0E0],"parents":[2147483647,0,0],"right_children":[2,-1,-1],"split_conditions":[6.0708774E-3,1.4000343E-1,-2.8562237E-2],"split_indices":[881,0,0],"split_type":[0,0,0],"sum_hessian":[8.5872696E1,1.3882341E1,7.199036E1],"tree_param":{"num_deleted":"0","num_feature":"1286","num_nodes":"3","size_leaf_vector":"1"}},{"base_weights":[1.5054733E-4,1.2109786E0,-4.6185312E-1,-2.7420213E-2,1.3560272E0,6.1111146E-1,-6.212056E-1,7.009711E-2,1.3340324E-4,-2.4086651E-1,6.39674E-2,4.9494803E-1,-6.783147E-1,4.192834E-2,-3.0620813E-2,5.3347122E-2,-2.3128262E-2,2.2141712E-2,-6.9874156E-1,1.1855123E-3,-3.5981346E-2],"categories":[],"categories_nodes":[],"categories_segments":[],"categories_sizes":[],"default_left":[0,0,0,0,0,0,0,0,0,0,0,0,0,0,0,0,0,0,0,0,0],"id":5,"left_children":[1,3,5,-1,7,9,11,-1,-1,13,-1,15,17,-1,-1,-1,-1,-1,19,-1,-1],"loss_changes":[8.799437E1,1.1830128E1,1.9846779E1,0E0,2.5080795E0,8.97725E0,6.686367E0,0E0,0E0,3.5355084E0,0E0,3.4662125E0,2.4896927E0,0E0,0E0,0E0,0E0,0E0,1.4336777E0,0E0,0E0],"parents":[2147483647,0,0,1,1,2,2,4,4,5,5,6,6,9,9,11,11,12,12,18,18],"right_children":[2,4,6,-1,8,10,12,-1,-1,14,-1,16,18,-1,-1,-1,-1,-1,20,-1,-1],"split_conditions":[6.12398E-4,1.3335592E-2,-1.9436186E-3,-2.7420213E-2,4.604876E-3,1.27108265E-2,-3.163959E-3,7.009711E-2,1.3340324E-4,3.0947397E-2,6.39674E-2,3.451211E-2,4.976821E-3,4.192834E-2,-3.0620813E-2,5.3347122E-2,-2.3128262E-2,2.2141712E-2,-2.0096383E-4,1.1855123E-3,-3.5981346E-2],"split_indices":[814,768,700,0,687,1240,612,0,0,196,0,130,1155,0,0,0,0,0,969,0,0],"split_type":[0,0,0,0,0,0,0,0,0,0,0,0,0,0,0,0,0,0,0,0,0],"sum_hessian":[1.5529958E2,4.2443E1,1.12856575E2,3.0208182E0,3.9422184E1,1.4227037E1,9.862954E1,3.8093884E1,1.3283002E0,6.534864E0,7.6921735E0,4.4276514E0,9.420188E1,1.3515046E0,5.1833596E0,2.7002845E0,1.7273669E0,1.3155856E0,9.28863E1,2.606001E0,9.02803E1],"tree_param":{"num_deleted":"0","num_feature":"1286","num_nodes":"21","size_leaf_vector":"1"}},{"base_weights":[-4.5045352E-4,-3.2908153E-2,8.649867E-2],"categories":[],"categories_nodes":[],"categories_segments":[],"categories_sizes":[],"default_left":[0,0,0],"id":6,"left_children":[1,-1,-1],"loss_changes":[1.5621187E2,0E0,0E0],"parents":[2147483647,0,0],"right_children":[2,-1,-1],"split_conditions":[1E0,-3.2908153E-2,8.649867E-2],"split_indices":[514,0,0],"split_type":[0,0,0],"sum_hessian":[1.3525371E2,9.845271E1,3.6800995E1],"tree_param":{"num_deleted":"0","num_feature":"1286","num_nodes":"3","size_leaf_vector":"1"}},{"base_weights":[4.2915245E-4,-4.5504832E-1,1.09177E0,6.291117E-2,-5.647577E-1,-2.928642E-2,1.3782241E0,5.191472E-1,-6.1320436E-1,1.569546E0,-1.5093762E-1,-2.101553E-2,5.678452E-2,3.7690398E-1,-6.44065E-1,2.4712523E-2,7.982906E-2,-2.524582E-2,2.5992045E-2,4.694543E-2,-1.8653857E-2,2.63044E-2,-3.3289894E-2],"categories":[],"categories_nodes":[],"categories_segments":[],"categories_sizes":[],"default_left":[0,0,0,0,0,0,0,0,0,0,0,0,0,0,0,0,0,0,0,0,0,0,0],"id":7,"left_children":[1,3,5,-1,7,-1,9,11,13,15,17,-1,-1,19,21,-1,-1,-1,-1,-1,-1,-1,-1],"loss_changes":[7.1867516E1,1.9883991E1,2.1264591E1,0E0,5.3887653E0,0E0,1.0962662E1,3.1838393E0,3.080902E0,1.6069794E-1,1.4470984E0,0E0,0E0,1.7995751E0,2.6503983E0,0E0,0E0,0E0,0E0,0E0,0E0,0E0,0E0],"parents":[2147483647,0,0,1,1,2,2,4,4,6,6,7,7,8,8,9,9,10,10,13,13,14,14],"right_children":[2,4,6,-1,8,-1,10,12,14,16,18,-1,-1,20,22,-1,-1,-1,-1,-1,-1,-1,-1],"split_conditions":[4.6038697E-3,-1.33701E-2,4.736622E-3,6.291117E-2,-1.3756439E-2,-2.928642E-2,-7.5915377E-3,-4.6006512E-4,-5.56749E-3,-3.645677E-2,-2.1385474E-2,-2.101553E-2,5.678452E-2,3.4964517E-2,-9.952492E-3,2.4712523E-2,7.982906E-2,-2.524582E-2,2.5992045E-2,4.694543E-2,-1.8653857E-2,2.63044E-2,-3.3289894E-2],"split_indices":[1016,737,760,0,681,0,737,96,610,45,15,0,0,14,996,0,0,0,0,0,0,0,0],"split_type":[0,0,0,0,0,0,0,0,0,0,0,0,0,0,0,0,0,0,0,0,0,0,0],"sum_hessian":[1.4257957E2,1.0100682E2,4.1572746E1,5.448702E0,9.555812E1,5.9112477E0,3.56615E1,3.6726866E0,9.188543E1,3.1672384E1,3.9891155E0,1.5813632E0,2.0913234E0,2.4384687E0,8.944696E1,1.2496712E0,3.0422714E1,2.7730227E0,1.2160927E0,1.2499206E0,1.1885481E0,1.2078197E0,8.823914E1],"tree_param":{"num_deleted":"0","num_feature":"1286","num_nodes":"23","size_leaf_vector":"1"}},{"base_weights":[-4.8608222E-4,1.22263685E-1,-2.8416494E-2],"categories":[],"categories_nodes":[],"categories_segments":[],"categories_sizes":[],"default_left":[0,0,0],"id":8,"left_children":[1,-1,-1],"loss_changes":[1.2175864E2,0E0,0E0],"parents":[2147483647,0,0],"right_children":[2,-1,-1],"split_conditions":[6.0708774E-3,1.22263685E-1,-2.8416494E-2],"split_indices":[881,0,0],"split_type":[0,0,0],"sum_hessian":[8.567057E1,1.55196495E1,7.0150925E1],"tree_param":{"num_deleted":"0","num_feature":"1286","num_nodes":"3","size_leaf_vector":"1"}},{"base_weights":[2.678729E-4,1.1392887E0,-4.512531E-1,-2.6968012E-2,1.2724849E0,5.834155E-1,-6.0939276E-1,-3.168442E-4,6.576345E-2,-2.3584828E-1,6.0346175E-2,4.791097E-1,-6.665216E-1,4.033476E-2,-3.0187422E-2,5.1024456E-2,-2.2673527E-2,2.182338E-2,-6.8709403E-1,-3.5410423E-2,1.2846333E-2],"categories":[],"categories_nodes":[],"categories_segments":[],"categories_sizes":[],"default_left":[0,0,0,0,0,0,0,0,0,0,0,0,0,0,0,0,0,0,0,0,0],"id":9,"left_children":[1,3,5,-1,7,9,11,-1,-1,13,-1,15,17,-1,-1,-1,-1,-1,19,-1,-1],"loss_changes":[8.062568E1,1.0636898E1,1.8724897E1,0E0,2.2805557E0,8.148676E0,6.405491E0,0E0,0E0,3.3597002E0,0E0,3.2205887E0,2.419468E0,0E0,0E0,0E0,0E0,0E0,2.017498E0,0E0,0E0],"parents":[2147483647,0,0,1,1,2,2,4,4,5,5,6,6,9,9,11,11,12,12,18,18],"right_children":[2,4,6,-1,8,10,12,-1,-1,14,-1,16,18,-1,-1,-1,-1,-1,20,-1,-1],"split_conditions":[6.12398E-4,1.3335592E-2,-1.9436186E-3,-2.6968012E-2,7.933257E-3,1.27108265E-2,-3.163959E-3,-3.168442E-4,6.576345E-2,3.0947397E-2,6.0346175E-2,3.451211E-2,-4.0658403E-2,4.033476E-2,-3.0187422E-2,5.1024456E-2,-2.2673527E-2,2.182338E-2,1.7698804E-2,-3.5410423E-2,1.2846333E-2],"split_indices":[814,768,700,0,727,1240,612,0,0,196,0,130,463,0,0,0,0,0,755,0,0],"split_type":[0,0,0,0,0,0,0,0,0,0,0,0,0,0,0,0,0,0,0,0,0],"sum_hessian":[1.5477066E2,4.3503685E1,1.11266975E2,2.9739633E0,4.052972E1,1.4394979E1,9.6871994E1,1.3396403E0,3.919008E1,6.489622E0,7.9053564E0,4.462343E0,9.240965E1,1.381649E0,5.107973E0,2.7637012E0,1.698642E0,1.321864E0,9.108778E1,8.933937E1,1.7484126E0],"tree_param":{"num_deleted":"0","num_feature":"1286","num_nodes":"21","size_leaf_vector":"1"}},{"base_weights":[-8.663666E-4,-3.254464E-2,7.9663135E-2],"categories":[],"categories_nodes":[],"categories_segments":[],"categories_sizes":[],"default_left":[0,0,0],"id":10,"left_children":[1,-1,-1],"loss_changes":[1.418226E2,0E0,0E0],"parents":[2147483647,0,0],"right_children":[2,-1,-1],"split_conditions":[1E0,-3.254464E-2,7.9663135E-2],"split_indices":[514,0,0],"split_type":[0,0,0],"sum_hessian":[1.3486377E2,9.6220375E1,3.864339E1],"tree_param":{"num_deleted":"0","num_feature":"1286","num_nodes":"3","size_leaf_vector":"1"}},{"base_weights":[8.254154E-4,-5.956985E-1,7.7531123E-1,-6.5491647E-1,6.1646235E-1,-4.7064927E-1,1.2264006E0,-3.336906E-2,4.0970948E-3,-1.8471986E-2,5.5260118E-2,-3.1784113E-2,4.422369E-2,1.4113518E0,1.4749599E-1,-2.057405E-2,7.48338E-2,-2.7069828E-2,4.7702026E-2],"categories":[],"categories_nodes":[],"categories_segments":[],"categories_sizes":[],"default_left":[0,0,0,0,0,0,0,0,0,0,0,0,0,0,0,0,0,0,0],"id":11,"left_children":[1,3,5,7,9,11,13,-1,-1,-1,-1,-1,-1,15,17,-1,-1,-1,-1],"loss_changes":[6.657189E1,6.2467957E0,3.5814346E1,7.719574E-1,2.483428E0,4.4507923E0,9.032257E0,0E0,0E0,0E0,0E0,0E0,0E0,6.746025E0,4.9022083E0,0E0,0E0,0E0,0E0],"parents":[2147483647,0,0,1,1,2,2,3,3,4,4,5,5,6,6,13,13,14,14],"right_children":[2,4,6,8,10,12,14,-1,-1,-1,-1,-1,-1,16,18,-1,-1,-1,-1],"split_conditions":[1E0,1.8008808E-2,3.3064764E-3,4.7556404E-3,3.0637184E-2,1.3600903E-2,-8.7905506E-4,-3.336906E-2,4.0970948E-3,-1.8471986E-2,5.5260118E-2,-3.1784113E-2,4.422369E-2,4.083987E-3,1.6400907E-2,-2.057405E-2,7.48338E-2,-2.7069828E-2,4.7702026E-2],"split_indices":[516,755,1003,735,1,656,1000,0,0,0,0,0,0,760,1041,0,0,0,0],"split_type":[0,0,0,0,0,0,0,0,0,0,0,0,0,0,0,0,0,0,0],"sum_hessian":[1.4209555E2,8.040044E1,6.1695118E1,7.7093864E1,3.3065753E0,1.638753E1,4.5307587E1,7.590415E1,1.1897144E0,1.176798E0,2.1297772E0,1.5081714E1,1.305815E0,3.841429E1,6.8932977E0,1.5467868E0,3.6867504E1,3.895115E0,2.9981828E0],"tree_param":{"num_deleted":"0","num_feature":"1286","num_nodes":"19","size_leaf_vector":"1"}},{"base_weights":[-5.465283E-4,1.085973E-1,-2.8271008E-2],"categories":[],"categories_nodes":[],"categories_segments":[],"categories_sizes":[],"default_left":[0,0,0],"id":12,"left_children":[1,-1,-1],"loss_changes":[1.07135574E2,0E0,0E0],"parents":[2147483647,0,0],"right_children":[2,-1,-1],"split_conditions":[6.0708774E-3,1.085973E-1,-2.8271008E-2],"split_indices":[881,0,0],"split_type":[0,0,0],"sum_hessian":[8.530127E1,1.7015394E1,6.828587E1],"tree_param":{"num_deleted":"0","num_feature":"1286","num_nodes":"3","size_leaf_vector":"1"}},{"base_weights":[5.2702724E-4,1.0770025E0,-4.4113013E-1,-2.647849E-2,1.2000561E0,5.5923915E-1,-5.981208E-1,-6.988968E-4,6.2009364E-2,-2.3000638E-1,5.7165712E-2,4.604949E-1,-6.5517545E-1,-2.971122E-2,3.8779777E-2,4.8708595E-2,-2.2307834E-2,-6.759158E-1,2.1506397E-2,-1.9322087E-3,-3.485894E-2],"categories":[],"categories_nodes":[],"categories_segments":[],"categories_sizes":[],"default_left":[0,0,0,0,0,0,0,0,0,0,0,0,0,0,0,0,0,0,0,0,0],"id":13,"left_children":[1,3,5,-1,7,9,11,-1,-1,13,-1,15,17,-1,-1,-1,-1,19,-1,-1,-1],"loss_changes":[7.412111E1,9.601978E0,1.769588E1,0E0,2.084774E0,7.413723E0,6.102165E0,0E0,0E0,3.1821191E0,0E0,2.9954062E0,2.3511925E0,0E0,0E0,0E0,0E0,1.1954231E0,0E0,0E0,0E0],"parents":[2147483647,0,0,1,1,2,2,4,4,5,5,6,6,9,9,11,11,12,12,17,17],"right_children":[2,4,6,-1,8,10,12,-1,-1,14,-1,16,18,-1,-1,-1,-1,20,-1,-1,-1],"split_conditions":[6.12398E-4,1.3335592E-2,-1.9436186E-3,-2.647849E-2,-1.735523E-2,7.4734185E-6,-3.163959E-3,-6.988968E-4,6.2009364E-2,-2.3001235E-2,5.7165712E-2,3.451211E-2,6.449997E-2,-2.971122E-2,3.8779777E-2,4.8708595E-2,-2.2307834E-2,-4.2611784E-3,2.1506397E-2,-1.9322087E-3,-3.485894E-2],"split_indices":[814,768,700,0,1245,1113,612,0,0,331,0,130,490,0,0,0,0,1280,0,0,0],"split_type":[0,0,0,0,0,0,0,0,0,0,0,0,0,0,0,0,0,0,0,0,0],"sum_hessian":[1.5390298E2,4.4355156E1,1.0954784E2,2.9205997E0,4.143456E1,1.4512115E1,9.503572E1,1.3466889E0,4.0087868E1,6.4298415E0,8.0822735E0,4.498453E0,9.053727E1,5.0205417E0,1.4092996E0,2.824001E0,1.6744521E0,8.920966E1,1.3275995E0,2.9714017E0,8.6238266E1],"tree_param":{"num_deleted":"0","num_feature":"1286","num_nodes":"21","size_leaf_vector":"1"}},{"base_weights":[-1.1435077E-3,-3.219038E-2,7.3904715E-2],"categories":[],"categories_nodes":[],"categories_segments":[],"categories_sizes":[],"default_left":[0,0,0],"id":14,"left_children":[1,-1,-1],"loss_changes":[1.2945662E2,0E0,0E0],"parents":[2147483647,0,0],"right_children":[2,-1,-1],"split_conditions":[1E0,-3.219038E-2,7.3904715E-2],"split_indices":[514,0,0],"split_type":[0,0,0],"sum_hessian":[1.3417554E2,9.393128E1,4.0244255E1],"tree_param":{"num_deleted":"0","num_feature":"1286","num_nodes":"3","size_leaf_vector":"1"}},{"base_weights":[8.435945E-4,-5.8682734E-1,7.363542E-1,-6.4644146E-1,5.9196657E-1,-4.610934E-1,1.1502469E0,-3.2955047E-2,4.3684966E-3,-1.8265866E-2,5.2750785E-2,-3.1340763E-2,4.2470615E-2,1.2862436E0,-5.6164186E-2,-2.0238994E-2,1.3582618E0,4.30361E-2,-2.61589E-2,6.982046E-2,2.9514644E-3],"categories":[],"categories_nodes":[],"categories_segments":[],"categories_sizes":[],"default_left":[0,0,0,0,0,0,0,0,0,0,0,0,0,0,0,0,0,0,0,0,0],"id":15,"left_children":[1,3,5,7,9,11,13,-1,-1,-1,-1,-1,-1,15,17,-1,19,-1,-1,-1,-1],"loss_changes":[6.1969288E1,5.9830055E0,3.2088333E1,7.667217E-1,2.3173127E0,4.239547E0,7.8826866E0,0E0,0E0,0E0,0E0,0E0,0E0,5.765106E0,2.9256957E0,0E0,1.964714E0,0E0,0E0,0E0,0E0],"parents":[2147483647,0,0,1,1,2,2,3,3,4,4,5,5,6,6,13,13,14,14,16,16],"right_children":[2,4,6,8,10,12,14,-1,-1,-1,-1,-1,-1,16,18,-1,20,-1,-1,-1,-1],"split_conditions":[1E0,1.8008808E-2,3.3064764E-3,9.020301E-3,3.0637184E-2,1.3600903E-2,4.258185E-4,-3.2955047E-2,4.3684966E-3,-1.8265866E-2,5.2750785E-2,-3.1340763E-2,4.2470615E-2,4.083987E-3,-2.5005495E-2,-2.0238994E-2,2.21794E-2,4.30361E-2,-2.61589E-2,6.982046E-2,2.9514644E-3],"split_indices":[516,755,1003,653,1,656,1000,0,0,0,0,0,0,760,429,0,85,0,0,0,0],"split_type":[0,0,0,0,0,0,0,0,0,0,0,0,0,0,0,0,0,0,0,0,0],"sum_hessian":[1.4136867E2,7.869429E1,6.2674374E1,7.5336E1,3.3582919E0,1.6069395E1,4.660498E1,7.415845E1,1.1775472E0,1.1636606E0,2.194631E0,1.4728573E1,1.340823E0,4.182405E1,4.7809286E0,1.5197228E0,4.030433E1,1.3288903E0,3.4520383E0,3.9082024E1,1.222302E0],"tree_param":{"num_deleted":"0","num_feature":"1286","num_nodes":"21","size_leaf_vector":"1"}},{"base_weights":[-5.554103E-4,9.777546E-2,-2.8127292E-2],"categories":[],"categories_nodes":[],"categories_segments":[],"categories_sizes":[],"default_left":[0,0,0],"id":16,"left_children":[1,-1,-1],"loss_changes":[9.539956E1,0E0,0E0],"parents":[2147483647,0,0],"right_children":[2,-1,-1],"split_conditions":[6.0708774E-3,9.777546E-2,-2.8127292E-2],"split_indices":[881,0,0],"split_type":[0,0,0],"sum_hessian":[8.478222E1,1.836865E1,6.641357E1],"tree_param":{"num_deleted":"0","num_feature":"1286","num_nodes":"3","size_leaf_vector":"1"}},{"base_weights":[7.041903E-4,1.0220326E0,-4.3155238E-1,-2.600262E-2,1.1364996E0,5.369015E-1,-5.873655E-1,5.872145E-2,-1.0599258E-3,-4.1044736E-1,9.70464E-1,4.4318035E-1,-6.4433926E-1,-2.7156353E-2,9.520051E-4,5.488813E-2,4.978967E-4,4.6597965E-2,-2.1945551E-2,-6.652855E-1,2.1286998E-2,-3.4338064E-2,1.2574494E-2],"categories":[],"categories_nodes":[],"categories_segments":[],"categories_sizes":[],"default_left":[0,0,0,0,0,0,0,0,0,0,0,0,0,0,0,0,0,0,0,0,0,0,0],"id":17,"left_children":[1,3,5,-1,7,9,11,-1,-1,13,15,17,19,-1,-1,-1,-1,-1,-1,21,-1,-1,-1],"loss_changes":[6.8316696E1,8.713871E0,1.6722475E1,0E0,1.9197006E0,6.802269E0,5.8128204E0,0E0,0E0,3.2933843E-1,1.3332481E0,2.79083E0,2.29187E0,0E0,0E0,0E0,0E0,0E0,0E0,1.9108849E0,0E0,0E0,0E0],"parents":[2147483647,0,0,1,1,2,2,4,4,5,5,6,6,9,9,10,10,11,11,12,12,19,19],"right_children":[2,4,6,-1,8,10,12,-1,-1,14,16,18,20,-1,-1,-1,-1,-1,-1,22,-1,-1,-1],"split_conditions":[6.12398E-4,1.3335592E-2,-1.9436186E-3,-2.600262E-2,-7.517647E-4,-5.8649003E-4,-3.163959E-3,5.872145E-2,-1.0599258E-3,3.57285E-2,1.6779784E-2,3.451211E-2,1.4999127E-2,-2.7156353E-2,9.520051E-4,5.488813E-2,4.978967E-4,4.6597965E-2,-2.1945551E-2,1.7698804E-2,2.1286998E-2,-3.4338064E-2,1.2574494E-2],"split_indices":[814,768,700,0,1222,1113,612,0,0,23,4,130,399,0,0,0,0,0,0,755,0,0,0],"split_type":[0,0,0,0,0,0,0,0,0,0,0,0,0,0,0,0,0,0,0,0,0,0,0],"sum_hessian":[1.5274707E2,4.5017075E1,1.0772999E2,2.8658216E0,4.2151253E1,1.4591427E1,9.3138565E1,4.080008E1,1.3511744E0,4.5979857E0,9.993441E0,4.524285E0,8.861428E1,3.3106482E0,1.2873378E0,8.697797E0,1.295644E0,2.8747904E0,1.6494945E0,8.728402E1,1.3302563E0,8.553132E1,1.7527015E0],"tree_param":{"num_deleted":"0","num_feature":"1286","num_nodes":"23","size_leaf_vector":"1"}},{"base_weights":[-1.4124587E-3,-3.18482E-2,6.8989046E-2],"categories":[],"categories_nodes":[],"categories_segments":[],"categories_sizes":[],"default_left":[0,0,0],"id":18,"left_children":[1,-1,-1],"loss_changes":[1.18698524E2,0E0,0E0],"parents":[2147483647,0,0],"right_children":[2,-1,-1],"split_conditions":[1E0,-3.18482E-2,6.8989046E-2],"split_indices":[514,0,0],"split_type":[0,0,0],"sum_hessian":[1.3321854E2,9.160543E1,4.1613102E1],"tree_param":{"num_deleted":"0","num_feature":"1286","num_nodes":"3","size_leaf_vector":"1"}},{"base_weights":[9.121488E-4,-5.7835793E-1,7.02042E-1,-6.383182E-1,5.6724745E-1,-4.5175555E-1,1.0844886E0,-3.2558948E-2,4.603609E-3,-1.807275E-2,5.0333E-2,-3.0914549E-2,4.094056E-2,-1.5204464E-1,1.1971287E0,2.2463622E-2,-2.4379471E-2,-2.1594739E-2,1.2779087E0,6.565691E-2,2.446398E-3],"categories":[],"categories_nodes":[],"categories_segments":[],"categories_sizes":[],"default_left":[0,0,0,0,0,0,0,0,0,0,0,0,0,0,0,0,0,0,0,0,0],"id":19,"left_children":[1,3,5,7,9,11,13,-1,-1,-1,-1,-1,-1,15,17,-1,-1,-1,19,-1,-1],"loss_changes":[5.782333E1,5.7173347E0,2.8911982E1,7.602787E-1,2.1622846E0,4.0485253E0,6.9608536E0,0E0,0E0,0E0,0E0,0E0,0E0,1.2179431E0,6.4365845E0,0E0,0E0,0E0,1.7913818E0,0E0,0E0],"parents":[2147483647,0,0,1,1,2,2,3,3,4,4,5,5,6,6,13,13,14,14,18,18],"right_children":[2,4,6,8,10,12,14,-1,-1,-1,-1,-1,-1,16,18,-1,-1,-1,20,-1,-1],"split_conditions":[1E0,1.8008808E-2,3.3064764E-3,1.8563926E-2,3.0637184E-2,1.3600903E-2,7.2891236E-4,-3.2558948E-2,4.603609E-3,-1.807275E-2,5.0333E-2,-3.0914549E-2,4.094056E-2,-9.672011E-3,4.083987E-3,2.2463622E-2,-2.4379471E-2,-2.1594739E-2,3.5565615E-2,6.565691E-2,2.446398E-3],"split_indices":[516,755,1003,671,1,656,969,0,0,0,0,0,0,114,760,0,0,0,190,0,0],"split_type":[0,0,0,0,0,0,0,0,0,0,0,0,0,0,0,0,0,0,0,0,0],"sum_hessian":[1.4037195E2,7.696168E1,6.3410263E1,7.355469E1,3.4069955E0,1.5740814E1,4.766945E1,7.238851E1,1.1661721E0,1.151244E0,2.2557516E0,1.4370607E1,1.3702071E0,3.950629E0,4.371882E1,1.2935581E0,2.6570709E0,1.8601502E0,4.185867E1,4.0625633E1,1.233038E0],"tree_param":{"num_deleted":"0","num_feature":"1286","num_nodes":"21","size_leaf_vector":"1"}},{"base_weights":[-4.7674E-4,8.9035146E-2,-2.7985623E-2],"categories":[],"categories_nodes":[],"categories_segments":[],"categories_sizes":[],"default_left":[0,0,0],"id":20,"left_children":[1,-1,-1],"loss_changes":[8.578181E1,0E0,0E0],"parents":[2147483647,0,0],"right_children":[2,-1,-1],"split_conditions":[6.0708774E-3,8.9035146E-2,-2.7985623E-2],"split_indices":[881,0,0],"split_type":[0,0,0],"sum_hessian":[8.411716E1,1.9577658E1,6.45395E1],"tree_param":{"num_deleted":"0","num_feature":"1286","num_nodes":"3","size_leaf_vector":"1"}},{"base_weights":[8.376265E-4,9.732745E-1,-4.2243004E-1,-2.5539571E-2,1.0804138E0,5.156455E-1,-5.77109E-1,-1.3433832E-3,5.5819508E-2,-4.068723E-1,9.3028593E-1,4.270514E-1,-6.3400275E-1,-2.6823819E-2,6.829729E-4,5.263877E-2,1.4552343E-4,4.4668548E-2,-2.1586902E-2,2.1040866E-2,-6.551628E-1,-3.3840116E-2,1.22243725E-2],"categories":[],"categories_nodes":[],"categories_segments":[],"categories_sizes":[],"default_left":[0,0,0,0,0,0,0,0,0,0,0,0,0,0,0,0,0,0,0,0,0,0,0],"id":21,"left_children":[1,3,5,-1,7,9,11,-1,-1,13,15,17,19,-1,-1,-1,-1,-1,-1,-1,21,-1,-1],"loss_changes":[6.3109077E1,7.945122E0,1.5798513E1,0E0,1.7703552E0,6.3647265E0,5.5369987E0,0E0,0E0,3.0973846E-1,1.2579584E0,2.6043787E0,2.2318077E0,0E0,0E0,0E0,0E0,0E0,0E0,0E0,1.8456879E0,0E0,0E0],"parents":[2147483647,0,0,1,1,2,2,4,4,5,5,6,6,9,9,10,10,11,11,12,12,20,20],"right_children":[2,4,6,-1,8,10,12,-1,-1,14,16,18,20,-1,-1,-1,-1,-1,-1,-1,22,-1,-1],"split_conditions":[6.12398E-4,1.3335592E-2,-1.9436186E-3,-2.5539571E-2,6.708997E-3,1.1416245E-2,-3.163959E-3,-1.3433832E-3,5.5819508E-2,-7.5259013E-4,-3.7624585E-3,3.451211E-2,-1.8654881E-2,-2.6823819E-2,6.829729E-4,5.263877E-2,1.4552343E-4,4.4668548E-2,-2.1586902E-2,2.1040866E-2,1.7698804E-2,-3.3840116E-2,1.22243725E-2],"split_indices":[814,768,700,0,650,1240,612,0,0,29,19,130,468,0,0,0,0,0,0,0,755,0,0],"split_type":[0,0,0,0,0,0,0,0,0,0,0,0,0,0,0,0,0,0,0,0,0,0,0],"sum_hessian":[1.5132693E2,4.5498016E1,1.0582891E2,2.8098023E0,4.2688217E1,1.4649708E1,9.11792E1,1.3512906E0,4.1336926E1,4.5485487E0,1.010116E1,4.5401773E0,8.663902E1,3.2662196E0,1.2823288E0,8.803197E0,1.2979627E0,2.916345E0,1.6238325E0,1.3323911E0,8.530663E1,8.354481E1,1.7618239E0],"tree_param":{"num_deleted":"0","num_feature":"1286","num_nodes":"23","size_leaf_vector":"1"}},{"base_weights":[-1.589821E-3,-3.1519704E-2,6.479405E-2],"categories":[],"categories_nodes":[],"categories_segments":[],"categories_sizes":[],"default_left":[0,0,0],"id":22,"left_children":[1,-1,-1],"loss_changes":[1.09333206E2,0E0,0E0],"parents":[2147483647,0,0],"right_children":[2,-1,-1],"split_conditions":[1E0,-3.1519704E-2,6.479405E-2],"split_indices":[514,0,0],"split_type":[0,0,0],"sum_hessian":[1.3200926E2,8.926308E1,4.274618E1],"tree_param":{"num_deleted":"0","num_feature":"1286","num_nodes":"3","size_leaf_vector":"1"}},{"base_weights":[8.880958E-4,-5.7009584E-1,6.705954E-1,-6.304612E-1,5.46296E-1,-4.430918E-1,1.0260708E0,-3.2177288E-2,4.876408E-3,-1.786291E-2,4.825742E-2,-3.0511579E-2,3.9405964E-2,1.1415302E0,-5.5218328E-2,-1.9561997E-2,1.2022948E0,3.9828114E-2,-2.5556196E-2,6.1777264E-2,2.0095268E-3],"categories":[],"categories_nodes":[],"categories_segments":[],"categories_sizes":[],"default_left":[0,0,0,0,0,0,0,0,0,0,0,0,0,0,0,0,0,0,0,0,0],"id":23,"left_children":[1,3,5,7,9,11,13,-1,-1,-1,-1,-1,-1,15,17,-1,19,-1,-1,-1,-1],"loss_changes":[5.39675E1,5.4783897E0,2.6167622E1,7.5562286E-1,2.0265598E0,3.8585923E0,6.247406E0,0E0,0E0,0E0,0E0,0E0,0E0,4.643303E0,2.633451E0,0E0,1.6250381E0,0E0,0E0,0E0,0E0],"parents":[2147483647,0,0,1,1,2,2,3,3,4,4,5,5,6,6,13,13,14,14,16,16],"right_children":[2,4,6,8,10,12,14,-1,-1,-1,-1,-1,-1,16,18,-1,20,-1,-1,-1,-1],"split_conditions":[1E0,1.8008808E-2,3.3064764E-3,9.981665E-3,3.0637184E-2,1.3600903E-2,4.258185E-4,-3.2177288E-2,4.876408E-3,-1.786291E-2,4.825742E-2,-3.0511579E-2,3.9405964E-2,4.083987E-3,-2.5005495E-2,-1.9561997E-2,3.5375256E-2,3.9828114E-2,-2.5556196E-2,6.1777264E-2,2.0095268E-3],"split_indices":[516,755,1003,1177,1,656,1000,0,0,0,0,0,0,760,429,0,139,0,0,0,0],"split_type":[0,0,0,0,0,0,0,0,0,0,0,0,0,0,0,0,0,0,0,0,0],"sum_hessian":[1.3913155E2,7.518149E1,6.3950047E1,7.173777E1,3.443722E0,1.5413581E1,4.853647E1,7.05851E1,1.152667E0,1.1373246E0,2.3063974E0,1.4015332E1,1.3982488E0,4.3803455E1,4.733012E0,1.4629285E0,4.2340527E1,1.3895917E0,3.3434205E0,4.1101326E1,1.2392019E0],"tree_param":{"num_deleted":"0","num_feature":"1286","num_nodes":"21","size_leaf_vector":"1"}},{"base_weights":[-3.9292805E-4,8.1817925E-2,-2.7846431E-2],"categories":[],"categories_nodes":[],"categories_segments":[],"categories_sizes":[],"default_left":[0,0,0],"id":24,"left_children":[1,-1,-1],"loss_changes":[7.772124E1,0E0,0E0],"parents":[2147483647,0,0],"right_children":[2,-1,-1],"split_conditions":[6.0708774E-3,8.1817925E-2,-2.7846431E-2],"split_indices":[881,0,0],"split_type":[0,0,0],"sum_hessian":[8.332211E1,2.065024E1,6.267187E1],"tree_param":{"num_deleted":"0","num_feature":"1286","num_nodes":"3","size_leaf_vector":"1"}},{"base_weights":[9.2801487E-4,9.298008E-1,-4.1378686E-1,-2.508903E-2,1.0306362E0,-6.233022E-1,2.6304534E-1,-1.5047033E-3,5.324306E-2,-3.3365306E-2,3.5273665E-1,6.484632E-1,-2.9965742E-2,3.7412357E-2,-1.7980063E-2,9.230935E-1,-3.405064E-1,-1.8326165E-2,5.3213485E-2,2.4980607E-3,-2.4747033E-2],"categories":[],"categories_nodes":[],"categories_segments":[],"categories_sizes":[],"default_left":[0,0,0,0,0,0,0,0,0,0,0,0,0,0,0,0,0,0,0,0,0],"id":25,"left_children":[1,3,5,-1,7,9,11,-1,-1,-1,13,15,-1,-1,-1,17,19,-1,-1,-1,-1],"loss_changes":[5.8421112E1,7.27446E0,1.5032125E1,0E0,1.6314964E0,3.6868382E0,8.859817E0,0E0,0E0,0E0,1.4300814E0,5.2289376E0,0E0,0E0,0E0,3.017561E0,3.0593115E-1,0E0,0E0,0E0,0E0],"parents":[2147483647,0,0,1,1,2,2,4,4,5,5,6,6,10,10,11,11,15,15,16,16],"right_children":[2,4,6,-1,8,10,12,-1,-1,-1,14,16,-1,-1,-1,18,20,-1,-1,-1,-1],"split_conditions":[6.12398E-4,1.3335592E-2,1E0,-2.508903E-2,-3.9127837E-3,1.1238522E-2,6.9419327E-3,-1.5047033E-3,5.324306E-2,-3.3365306E-2,-2.132037E-2,1.14052E-2,-2.9965742E-2,3.7412357E-2,-1.7980063E-2,4.8098397E-3,-1.0423544E-2,-1.8326165E-2,5.3213485E-2,2.4980607E-3,-2.4747033E-2],"split_indices":[814,768,513,0,818,647,1166,0,0,0,19,1278,0,0,0,761,444,0,0,0,0],"split_type":[0,0,0,0,0,0,0,0,0,0,0,0,0,0,0,0,0,0,0,0,0],"sum_hessian":[1.4965877E2,4.5810654E1,1.03848114E2,2.7527697E0,4.3057884E1,7.9360825E1,2.4487284E1,1.3496289E0,4.1708256E1,7.623993E1,3.1209016E0,1.7094992E1,7.392292E0,1.974302E0,1.1465995E0,1.3431706E1,3.6632843E0,1.1678067E0,1.22639E1,1.2299637E0,2.4333208E0],"tree_param":{"num_deleted":"0","num_feature":"1286","num_nodes":"21","size_leaf_vector":"1"}},{"base_weights":[-1.7909054E-3,-3.120403E-2,6.1147746E-2],"categories":[],"categories_nodes":[],"categories_segments":[],"categories_sizes":[],"default_left":[0,0,0],"id":26,"left_children":[1,-1,-1],"loss_changes":[1.01042046E2,0E0,0E0],"parents":[2147483647,0,0],"right_children":[2,-1,-1],"split_conditions":[1E0,-3.120403E-2,6.1147746E-2],"split_indices":[514,0,0],"split_type":[0,0,0],"sum_hessian":[1.3057417E2,8.690729E1,4.366689E1],"tree_param":{"num_deleted":"0","num_feature":"1286","num_nodes":"3","size_leaf_vector":"1"}},{"base_weights":[9.3006453E-4,-5.6211877E-1,6.426149E-1,-6.2294626E-1,5.2829653E-1,-4.3456534E-1,9.7477794E-1,-3.1813126E-2,5.1182886E-3,-1.7653253E-2,4.6470135E-2,-3.011694E-2,3.7970994E-2,-1.4766303E-1,1.0721089E0,2.1253018E-2,-2.3806447E-2,-2.0892262E-2,1.1412692E0,5.862069E-2,1.5824931E-3],"categories":[],"categories_nodes":[],"categories_segments":[],"categories_sizes":[],"default_left":[0,0,0,0,0,0,0,0,0,0,0,0,0,0,0,0,0,0,0,0,0],"id":27,"left_children":[1,3,5,7,9,11,13,-1,-1,-1,-1,-1,-1,15,17,-1,-1,-1,19,-1,-1],"loss_changes":[5.0455143E1,5.26272E0,2.3775803E1,7.500248E-1,1.9088092E0,3.6773555E0,5.641716E0,0E0,0E0,0E0,0E0,0E0,0E0,1.1211615E0,5.2487335E0,0E0,0E0,0E0,1.5015106E0,0E0,0E0],"parents":[2147483647,0,0,1,1,2,2,3,3,4,4,5,5,6,6,13,13,14,14,18,18],"right_children":[2,4,6,8,10,12,14,-1,-1,-1,-1,-1,-1,16,18,-1,-1,-1,20,-1,-1],"split_conditions":[1E0,1.8008808E-2,3.3064764E-3,1.3089326E-2,3.0637184E-2,1.3600903E-2,7.2891236E-4,-3.1813126E-2,5.1182886E-3,-1.7653253E-2,4.6470135E-2,-3.011694E-2,3.7970994E-2,2.3160167E-2,4.083987E-3,2.1253018E-2,-2.3806447E-2,-2.0892262E-2,3.7973493E-2,5.862069E-2,1.5824931E-3],"split_indices":[516,755,1003,895,1,656,969,0,0,0,0,0,0,14,760,0,0,0,348,0,0],"split_type":[0,0,0,0,0,0,0,0,0,0,0,0,0,0,0,0,0,0,0,0,0],"sum_hessian":[1.3764914E2,7.3382965E1,6.426617E1,6.991173E1,3.471236E0,1.5074001E1,4.9192165E1,6.8771904E1,1.1398244E0,1.1231278E0,2.3481083E0,1.3651304E1,1.4226977E0,3.883996E0,4.530817E1,1.3084551E0,2.5755408E0,1.7861687E0,4.3522E1,4.2278736E1,1.2432659E0],"tree_param":{"num_deleted":"0","num_feature":"1286","num_nodes":"21","size_leaf_vector":"1"}},{"base_weights":[-2.2858218E-4,7.572871E-2,-2.7708024E-2],"categories":[],"categories_nodes":[],"categories_segments":[],"categories_sizes":[],"default_left":[0,0,0],"id":28,"left_children":[1,-1,-1],"loss_changes":[7.081062E1,0E0,0E0],"parents":[2147483647,0,0],"right_children":[2,-1,-1],"split_conditions":[6.0708774E-3,7.572871E-2,-2.7708024E-2],"split_indices":[881,0,0],"split_type":[0,0,0],"sum_hessian":[8.238876E1,2.1596352E1,6.079241E1],"tree_param":{"num_deleted":"0","num_feature":"1286","num_nodes":"3","size_leaf_vector":"1"}},{"base_weights":[7.538777E-4,8.9102256E-1,-4.0599555E-1,-2.4649993E-2,9.864121E-1,-6.141533E-1,2.5349647E-1,-1.6377856E-3,5.0956037E-2,-3.2912247E-2,3.4268725E-1,6.218116E-1,-2.9509393E-2,3.614843E-2,-1.7651182E-2,8.834418E-1,-3.34574E-1,-1.8051436E-2,5.0873596E-2,2.623513E-3,-2.4449036E-2],"categories":[],"categories_nodes":[],"categories_segments":[],"categories_sizes":[],"default_left":[0,0,0,0,0,0,0,0,0,0,0,0,0,0,0,0,0,0,0,0,0],"id":29,"left_children":[1,3,5,-1,7,9,11,-1,-1,-1,13,15,-1,-1,-1,17,19,-1,-1,-1,-1],"loss_changes":[5.4228634E1,6.686466E0,1.4266863E1,0E0,1.5090942E0,3.5341587E0,8.250115E0,0E0,0E0,0E0,1.3431821E0,4.836154E0,0E0,0E0,0E0,2.7897596E0,3.019473E-1,0E0,0E0,0E0,0E0],"parents":[2147483647,0,0,1,1,2,2,4,4,5,5,6,6,10,10,11,11,15,15,16,16],"right_children":[2,4,6,-1,8,10,12,-1,-1,-1,14,16,-1,-1,-1,18,20,-1,-1,-1,-1],"split_conditions":[6.12398E-4,1.3335592E-2,1E0,-2.4649993E-2,6.708997E-3,1.1238522E-2,6.9419327E-3,-1.6377856E-3,5.0956037E-2,-3.2912247E-2,-2.132037E-2,1.14052E-2,-2.9509393E-2,3.614843E-2,-1.7651182E-2,4.8098397E-3,1.6151294E-2,-1.8051436E-2,5.0873596E-2,2.623513E-3,-2.4449036E-2],"split_indices":[814,768,513,0,650,647,1166,0,0,0,19,1278,0,0,0,761,5,0,0,0,0],"split_type":[0,0,0,0,0,0,0,0,0,0,0,0,0,0,0,0,0,0,0,0,0],"sum_hessian":[1.4775577E2,4.5963352E1,1.0179241E2,2.6948633E0,4.326849E1,7.742366E1,2.4368753E1,1.3454106E0,4.192308E1,7.4311424E1,3.112235E0,1.7146383E1,7.2223697E0,1.9869641E0,1.1252708E0,1.3523222E1,3.6231616E0,1.1501774E0,1.2373045E1,1.2214898E0,2.401672E0],"tree_param":{"num_deleted":"0","num_feature":"1286","num_nodes":"21","size_leaf_vector":"1"}},{"base_weights":[-1.7981508E-3,-3.0898495E-2,5.7975452E-2],"categories":[],"categories_nodes":[],"categories_segments":[],"categories_sizes":[],"default_left":[0,0,0],"id":30,"left_children":[1,-1,-1],"loss_changes":[9.367634E1,0E0,0E0],"parents":[2147483647,0,0],"right_children":[2,-1,-1],"split_conditions":[1E0,-3.0898495E-2,5.7975452E-2],"split_indices":[514,0,0],"split_type":[0,0,0],"sum_hessian":[1.289111E2,8.452912E1,4.438199E1],"tree_param":{"num_deleted":"0","num_feature":"1286","num_nodes":"3","size_leaf_vector":"1"}},{"base_weights":[1.0260622E-3,-5.544823E-1,6.1746967E-1,-6.156685E-1,5.078211E-1,-4.26238E-1,9.2927176E-1,-3.146181E-2,5.378834E-3,-1.7486779E-2,4.461877E-2,-2.9732717E-2,3.6627553E-2,-1.4402306E-1,1.0204896E0,2.0658305E-2,-2.3469863E-2,-2.0525243E-2,1.0850445E0,1.325957E-3,5.5722702E-2],"categories":[],"categories_nodes":[],"categories_segments":[],"categories_sizes":[],"default_left":[0,0,0,0,0,0,0,0,0,0,0,0,0,0,0,0,0,0,0,0,0],"id":31,"left_children":[1,3,5,7,9,11,13,-1,-1,-1,-1,-1,-1,15,17,-1,-1,-1,19,-1,-1],"loss_changes":[4.7237854E1,5.0289097E0,2.1674526E1,7.453556E-1,1.7959805E0,3.5046668E0,5.106735E0,0E0,0E0,0E0,0E0,0E0,0E0,1.0722331E0,4.770088E0,0E0,0E0,0E0,1.3734665E0,0E0,0E0],"parents":[2147483647,0,0,1,1,2,2,3,3,4,4,5,5,6,6,13,13,14,14,18,18],"right_children":[2,4,6,8,10,12,14,-1,-1,-1,-1,-1,-1,16,18,-1,-1,-1,20,-1,-1],"split_conditions":[1E0,1.8008808E-2,3.3064764E-3,1.2543808E-2,3.0637184E-2,1.3600903E-2,7.2891236E-4,-3.146181E-2,5.378834E-3,-1.7486779E-2,4.461877E-2,-2.9732717E-2,3.6627553E-2,2.3160167E-2,4.083987E-3,2.0658305E-2,-2.3469863E-2,-2.0525243E-2,-6.6730855E-3,1.325957E-3,5.5722702E-2],"split_indices":[516,755,1003,1283,1,656,969,0,0,0,0,0,0,14,760,0,0,0,1184,0,0],"split_type":[0,0,0,0,0,0,0,0,0,0,0,0,0,0,0,0,0,0,0,0,0],"sum_hessian":[1.3594527E2,7.155972E1,6.438555E1,6.806006E1,3.4996605E0,1.4725908E1,4.965964E1,6.6934395E1,1.1256688E0,1.1115179E0,2.3881428E0,1.3282312E1,1.4435958E0,3.844558E0,4.5815083E1,1.3178977E0,2.5266604E0,1.7462735E0,4.406881E1,1.2426951E0,4.2826115E1],"tree_param":{"num_deleted":"0","num_feature":"1286","num_nodes":"21","size_leaf_vector":"1"}},{"base_weights":[-6.384767E-5,7.056097E-2,-2.757234E-2],"categories":[],"categories_nodes":[],"categories_segments":[],"categories_sizes":[],"default_left":[0,0,0],"id":32,"left_children":[1,-1,-1],"loss_changes":[6.485145E1,0E0,0E0],"parents":[2147483647,0,0],"right_children":[2,-1,-1],"split_conditions":[6.0708774E-3,7.056097E-2,-2.757234E-2],"split_indices":[881,0,0],"split_type":[0,0,0],"sum_hessian":[8.1339676E1,2.241312E1,5.8926556E1],"tree_param":{"num_deleted":"0","num_feature":"1286","num_nodes":"3","size_leaf_vector":"1"}},{"base_weights":[5.737952E-4,8.5613716E-1,-3.9863926E-1,-2.4221992E-2,9.4677967E-1,-6.0542804E-1,2.4428797E-1,-1.8773277E-3,4.891704E-2,-3.2481015E-2,3.3316544E-1,5.9686613E-1,-2.9069532E-2,3.4967255E-2,-1.7327083E-2,8.4684694E-1,-3.287036E-1,-1.7873665E-2,4.877341E-2,-2.4144446E-2,2.7143287E-3],"categories":[],"categories_nodes":[],"categories_segments":[],"categories_sizes":[],"default_left":[0,0,0,0,0,0,0,0,0,0,0,0,0,0,0,0,0,0,0,0,0],"id":33,"left_children":[1,3,5,-1,7,9,11,-1,-1,-1,13,15,-1,-1,-1,17,19,-1,-1,-1,-1],"loss_changes":[5.0425106E1,6.166214E0,1.3531368E1,0E0,1.4140434E0,3.3876667E0,7.686242E0,0E0,0E0,0E0,1.2625446E0,4.4801517E0,0E0,0E0,0E0,2.6068525E0,2.967959E-1,0E0,0E0,0E0,0E0],"parents":[2147483647,0,0,1,1,2,2,4,4,5,5,6,6,10,10,11,11,15,15,16,16],"right_children":[2,4,6,-1,8,10,12,-1,-1,-1,14,16,-1,-1,-1,18,20,-1,-1,-1,-1],"split_conditions":[6.12398E-4,1.3335592E-2,1E0,-2.4221992E-2,-1.735523E-2,1.1238522E-2,6.9419327E-3,-1.8773277E-3,4.891704E-2,-3.2481015E-2,-2.132037E-2,1.14052E-2,-2.9069532E-2,3.4967255E-2,-1.7327083E-2,4.8098397E-3,-4.592104E-2,-1.7873665E-2,4.877341E-2,-2.4144446E-2,2.7143287E-3],"split_indices":[814,768,513,0,1245,647,1166,0,0,0,19,1278,0,0,0,761,64,0,0,0,0],"split_type":[0,0,0,0,0,0,0,0,0,0,0,0,0,0,0,0,0,0,0,0,0],"sum_hessian":[1.4563597E2,4.5970623E1,9.9665344E1,2.6362789E0,4.3334343E1,7.54547E1,2.4210648E1,1.3404012E0,4.1993942E1,7.2355804E1,3.0988889E0,1.7160118E1,7.050529E0,1.9951481E0,1.1037408E0,1.3577987E1,3.5821319E0,1.1385093E0,1.2439477E1,2.3679833E0,1.2141485E0],"tree_param":{"num_deleted":"0","num_feature":"1286","num_nodes":"21","size_leaf_vector":"1"}},{"base_weights":[-1.808523E-3,-3.0605158E-2,5.517788E-2],"categories":[],"categories_nodes":[],"categories_segments":[],"categories_sizes":[],"default_left":[0,0,0],"id":34,"left_children":[1,-1,-1],"loss_changes":[8.706313E1,0E0,0E0],"parents":[2147483647,0,0],"right_children":[2,-1,-1],"split_conditions":[1E0,-3.0605158E-2,5.517788E-2],"split_indices":[514,0,0],"split_type":[0,0,0],"sum_hessian":[1.2705777E2,8.21483E1,4.4909473E1],"tree_param":{"num_deleted":"0","num_feature":"1286","num_nodes":"3","size_leaf_vector":"1"}},{"base_weights":[1.1308367E-3,-5.471685E-1,5.948472E-1,-6.0870576E-1,4.8862383E-1,-4.1821223E-1,8.888948E-1,5.635801E-3,-3.1126902E-2,-1.7319411E-2,4.291134E-2,-2.936264E-2,3.5368208E-2,-1.3948594E-1,9.74682E-1,2.0301927E-2,-2.3147583E-2,-2.016521E-2,1.0353038E0,5.315823E-2,1.16665E-3],"categories":[],"categories_nodes":[],"categories_segments":[],"categories_sizes":[],"default_left":[0,0,0,0,0,0,0,0,0,0,0,0,0,0,0,0,0,0,0,0,0],"id":35,"left_children":[1,3,5,7,9,11,13,-1,-1,-1,-1,-1,-1,15,17,-1,-1,-1,19,-1,-1],"loss_changes":[4.4288067E1,4.8057423E0,1.9829023E1,7.408409E-1,1.6926225E0,3.3405652E0,4.630295E0,0E0,0E0,0E0,0E0,0E0,0E0,1.0344993E0,4.355953E0,0E0,0E0,0E0,1.2563438E0,0E0,0E0],"parents":[2147483647,0,0,1,1,2,2,3,3,4,4,5,5,6,6,13,13,14,14,18,18],"right_children":[2,4,6,8,10,12,14,-1,-1,-1,-1,-1,-1,16,18,-1,-1,-1,20,-1,-1],"split_conditions":[1E0,1.8008808E-2,3.3064764E-3,-3.69669E-3,3.0637184E-2,1.3600903E-2,7.2891236E-4,5.635801E-3,-3.1126902E-2,-1.7319411E-2,4.291134E-2,-2.936264E-2,3.5368208E-2,-9.672011E-3,4.083987E-3,2.0301927E-2,-2.3147583E-2,-2.016521E-2,3.7973493E-2,5.315823E-2,1.16665E-3],"split_indices":[516,755,1003,1080,1,656,969,0,0,0,0,0,0,114,760,0,0,0,348,0,0],"split_type":[0,0,0,0,0,0,0,0,0,0,0,0,0,0,0,0,0,0,0,0,0],"sum_hessian":[1.3404749E2,6.972998E1,6.43175E1,6.620879E1,3.5211904E0,1.437391E1,4.994359E1,1.1110909E0,6.50977E1,1.0996518E0,2.4215386E0,1.2912899E1,1.4610115E0,3.7972934E0,4.6146294E1,1.3184516E0,2.4788418E0,1.7063637E0,4.443993E1,4.3199993E1,1.2399371E0],"tree_param":{"num_deleted":"0","num_feature":"1286","num_nodes":"21","size_leaf_vector":"1"}},{"base_weights":[9.7203476E-5,6.612669E-2,-2.743946E-2],"categories":[],"categories_nodes":[],"categories_segments":[],"categories_sizes":[],"default_left":[0,0,0],"id":36,"left_children":[1,-1,-1],"loss_changes":[5.965454E1,0E0,0E0],"parents":[2147483647,0,0],"right_children":[2,-1,-1],"split_conditions":[6.0708774E-3,6.612669E-2,-2.743946E-2],"split_indices":[881,0,0],"split_type":[0,0,0],"sum_hessian":[8.01839E1,2.3105688E1,5.707821E1],"tree_param":{"num_deleted":"0","num_feature":"1286","num_nodes":"3","size_leaf_vector":"1"}},{"base_weights":[4.057314E-4,8.2458603E-1,-3.9164522E-1,-2.3804462E-2,9.1106415E-1,-5.97166E-1,2.3615041E-1,4.7082607E-2,-2.1064912E-3,-3.2073334E-2,3.241329E-1,5.7470155E-1,-2.8645108E-2,3.3861287E-2,-1.7007763E-2,8.146873E-1,-3.2290438E-1,-1.760718E-2,4.689736E-2,2.7872191E-3,-2.3839E-2],"categories":[],"categories_nodes":[],"categories_segments":[],"categories_sizes":[],"default_left":[0,0,0,0,0,0,0,0,0,0,0,0,0,0,0,0,0,0,0,0,0],"id":37,"left_children":[1,3,5,-1,7,9,11,-1,-1,-1,13,15,-1,-1,-1,17,19,-1,-1,-1,-1],"loss_changes":[4.6957077E1,5.7028465E0,1.2847334E1,0E0,1.330349E0,3.2475471E0,7.1781454E0,0E0,0E0,0E0,1.187616E0,4.1679096E0,0E0,0E0,0E0,2.4282436E0,2.9111588E-1,0E0,0E0,0E0,0E0],"parents":[2147483647,0,0,1,1,2,2,4,4,5,5,6,6,10,10,11,11,15,15,16,16],"right_children":[2,4,6,-1,8,10,12,-1,-1,-1,14,16,-1,-1,-1,18,20,-1,-1,-1,-1],"split_conditions":[6.12398E-4,1.3335592E-2,1E0,-2.3804462E-2,-7.517647E-4,1.1238522E-2,6.9419327E-3,4.7082607E-2,-2.1064912E-3,-3.2073334E-2,-2.132037E-2,1.14052E-2,-2.8645108E-2,3.3861287E-2,-1.7007763E-2,4.8098397E-3,1.6151294E-2,-1.760718E-2,4.689736E-2,2.7872191E-3,-2.3839E-2],"split_indices":[814,768,513,0,1222,647,1166,0,0,0,19,1278,0,0,0,761,5,0,0,0,0],"split_type":[0,0,0,0,0,0,0,0,0,0,0,0,0,0,0,0,0,0,0,0,0],"sum_hessian":[1.4332419E2,4.5844776E1,9.747941E1,2.5771906E0,4.3267586E1,7.347482E1,2.4004587E1,4.1934032E1,1.3335527E0,7.039368E1,3.0811443E0,1.7127274E1,6.8773127E0,1.9990842E0,1.0820601E0,1.3587003E1,3.5402715E0,1.1207331E0,1.24662695E1,1.2072551E0,2.3330164E0],"tree_param":{"num_deleted":"0","num_feature":"1286","num_nodes":"21","size_leaf_vector":"1"}},{"base_weights":[-1.828959E-3,-3.0323643E-2,5.2694615E-2],"categories":[],"categories_nodes":[],"categories_segments":[],"categories_sizes":[],"default_left":[0,0,0],"id":38,"left_children":[1,-1,-1],"loss_changes":[8.109011E1,0E0,0E0],"parents":[2147483647,0,0],"right_children":[2,-1,-1],"split_conditions":[1E0,-3.0323643E-2,5.2694615E-2],"split_indices":[514,0,0],"split_type":[0,0,0],"sum_hessian":[1.2503242E2,7.977078E1,4.5261635E1],"tree_param":{"num_deleted":"0","num_feature":"1286","num_nodes":"3","size_leaf_vector":"1"}},{"base_weights":[1.2337458E-3,-5.401195E-1,5.742198E-1,-6.020068E-1,4.7059578E-1,-4.1047165E-1,8.525875E-1,5.8379164E-3,-3.0805513E-2,-1.715151E-2,4.1333076E-2,-2.9005898E-2,3.4186076E-2,-1.350488E-1,9.3368423E-1,-2.2831913E-2,1.9969013E-2,-1.9825544E-2,9.909785E-1,5.0885934E-2,8.5878087E-4],"categories":[],"categories_nodes":[],"categories_segments":[],"categories_sizes":[],"default_left":[0,0,0,0,0,0,0,0,0,0,0,0,0,0,0,0,0,0,0,0,0],"id":39,"left_children":[1,3,5,7,9,11,13,-1,-1,-1,-1,-1,-1,15,17,-1,-1,-1,19,-1,-1],"loss_changes":[4.1557114E1,4.5923805E0,1.8190002E1,7.344341E-1,1.5976896E0,3.1845665E0,4.2161217E0,0E0,0E0,0E0,0E0,0E0,0E0,9.9848723E-1,3.9990616E0,0E0,0E0,0E0,1.171196E0,0E0,0E0],"parents":[2147483647,0,0,1,1,2,2,3,3,4,4,5,5,6,6,13,13,14,14,18,18],"right_children":[2,4,6,8,10,12,14,-1,-1,-1,-1,-1,-1,16,18,-1,-1,-1,20,-1,-1],"split_conditions":[1E0,1.8008808E-2,3.3064764E-3,-1.6036365E-2,3.0637184E-2,1.3600903E-2,7.2891236E-4,5.8379164E-3,-3.0805513E-2,-1.715151E-2,4.1333076E-2,-2.9005898E-2,3.4186076E-2,8.7830305E-2,4.083987E-3,-2.2831913E-2,1.9969013E-2,-1.9825544E-2,5.3374533E-2,5.0885934E-2,8.5878087E-4],"split_indices":[516,755,1003,662,1,656,969,0,0,0,0,0,0,31,760,0,0,0,491,0,0],"split_type":[0,0,0,0,0,0,0,0,0,0,0,0,0,0,0,0,0,0,0,0,0],"sum_hessian":[1.3197412E2,6.788973E1,6.408439E1,6.435366E1,3.536071E0,1.40190735E1,5.0065315E1,1.0983639E0,6.32553E1,1.0875595E0,2.4485116E0,1.2544038E1,1.4750359E0,3.7485328E0,4.6316784E1,2.431157E0,1.3173754E0,1.6680977E0,4.4648685E1,4.341153E1,1.2371588E0],"tree_param":{"num_deleted":"0","num_feature":"1286","num_nodes":"21","size_leaf_vector":"1"}},{"base_weights":[2.533411E-4,6.2285442E-2,-2.7309392E-2],"categories":[],"categories_nodes":[],"categories_segments":[],"categories_sizes":[],"default_left":[0,0,0],"id":40,"left_children":[1,-1,-1],"loss_changes":[5.5078503E1,0E0,0E0],"parents":[2147483647,0,0],"right_children":[2,-1,-1],"split_conditions":[6.0708774E-3,6.2285442E-2,-2.7309392E-2],"split_indices":[881,0,0],"split_type":[0,0,0],"sum_hessian":[7.8930435E1,2.3679699E1,5.525074E1],"tree_param":{"num_deleted":"0","num_feature":"1286","num_nodes":"3","size_leaf_vector":"1"}},{"base_weights":[2.5194397E-4,7.9597956E-1,-3.8499904E-1,-2.339683E-2,8.7878895E-1,-5.893119E-1,2.2863805E-1,-2.3257365E-3,4.5427624E-2,-3.1686552E-2,3.1555414E-1,5.5440056E-1,-2.8235162E-2,3.2823768E-2,-1.66932E-2,7.8555286E-1,-3.171804E-1,-1.734413E-2,4.5206364E-2,2.9173726E-3,-2.355664E-2],"categories":[],"categories_nodes":[],"categories_segments":[],"categories_sizes":[],"default_left":[0,0,0,0,0,0,0,0,0,0,0,0,0,0,0,0,0,0,0,0,0],"id":41,"left_children":[1,3,5,-1,7,9,11,-1,-1,-1,13,15,-1,-1,-1,17,19,-1,-1,-1,-1],"loss_changes":[4.3789104E1,5.2882633E0,1.2201468E1,0E0,1.256218E0,3.113367E0,6.71243E0,0E0,0E0,0E0,1.1179024E0,3.8873005E0,0E0,0E0,0E0,2.268776E0,2.8751543E-1,0E0,0E0,0E0,0E0],"parents":[2147483647,0,0,1,1,2,2,4,4,5,5,6,6,10,10,11,11,15,15,16,16],"right_children":[2,4,6,-1,8,10,12,-1,-1,-1,14,16,-1,-1,-1,18,20,-1,-1,-1,-1],"split_conditions":[6.12398E-4,1.3335592E-2,1E0,-2.339683E-2,7.933257E-3,1.1238522E-2,6.9419327E-3,-2.3257365E-3,4.5427624E-2,-3.1686552E-2,-2.132037E-2,1.14052E-2,-2.8235162E-2,3.2823768E-2,-1.66932E-2,4.8098397E-3,-1.0423544E-2,-1.734413E-2,4.5206364E-2,2.9173726E-3,-2.355664E-2],"split_indices":[814,768,513,0,727,647,1166,0,0,0,19,1278,0,0,0,761,444,0,0,0,0],"split_type":[0,0,0,0,0,0,0,0,0,0,0,0,0,0,0,0,0,0,0,0,0],"sum_hessian":[1.4084299E2,4.5597076E1,9.524591E1,2.5177653E0,4.3079308E1,7.1484505E1,2.3761408E1,1.3249754E0,4.1754333E1,6.842522E1,3.0592918E0,1.7058155E1,6.703252E0,1.9990141E0,1.0602777E0,1.3560479E1,3.4976766E0,1.1028032E0,1.2457676E1,1.197553E0,2.3001235E0],"tree_param":{"num_deleted":"0","num_feature":"1286","num_nodes":"21","size_leaf_vector":"1"}},{"base_weights":[-1.8613103E-3,-3.005344E-2,5.0478186E-2],"categories":[],"categories_nodes":[],"categories_segments":[],"categories_sizes":[],"default_left":[0,0,0],"id":42,"left_children":[1,-1,-1],"loss_changes":[7.566817E1,0E0,0E0],"parents":[2147483647,0,0],"right_children":[2,-1,-1],"split_conditions":[1E0,-3.005344E-2,5.0478186E-2],"split_indices":[514,0,0],"split_type":[0,0,0],"sum_hessian":[1.2285268E2,7.7402275E1,4.5450397E1],"tree_param":{"num_deleted":"0","num_feature":"1286","num_nodes":"3","size_leaf_vector":"1"}},{"base_weights":[1.3349798E-3,-5.3331167E-1,5.5528045E-1,-5.9555054E-1,4.5363706E-1,-4.0317744E-1,8.198834E-1,-3.0496988E-2,6.0268026E-3,-1.6983384E-2,3.9870907E-2,-2.8667588E-2,3.3074826E-2,-1.3070689E-1,8.969145E-1,1.9621305E-2,-2.2514164E-2,-1.947783E-2,9.512683E-1,4.8852555E-2,5.768373E-4],"categories":[],"categories_nodes":[],"categories_segments":[],"categories_sizes":[],"default_left":[0,0,0,0,0,0,0,0,0,0,0,0,0,0,0,0,0,0,0,0,0],"id":43,"left_children":[1,3,5,7,9,11,13,-1,-1,-1,-1,-1,-1,15,17,-1,-1,-1,19,-1,-1],"loss_changes":[3.9018032E1,4.3882713E0,1.6739965E1,7.277813E-1,1.5102696E0,3.036918E0,3.8542366E0,0E0,0E0,0E0,0E0,0E0,0E0,9.621842E-1,3.680542E0,0E0,0E0,0E0,1.0961723E0,0E0,0E0],"parents":[2147483647,0,0,1,1,2,2,3,3,4,4,5,5,6,6,13,13,14,14,18,18],"right_children":[2,4,6,8,10,12,14,-1,-1,-1,-1,-1,-1,16,18,-1,-1,-1,20,-1,-1],"split_conditions":[1E0,1.8008808E-2,3.3064764E-3,9.020301E-3,3.0637184E-2,1.3600903E-2,7.2891236E-4,-3.0496988E-2,6.0268026E-3,-1.6983384E-2,3.9870907E-2,-2.8667588E-2,3.3074826E-2,-1.3821267E-2,4.083987E-3,1.9621305E-2,-2.2514164E-2,-1.947783E-2,3.5565615E-2,4.8852555E-2,5.768373E-4],"split_indices":[516,755,1003,653,1,656,969,0,0,0,0,0,0,7,760,0,0,0,190,0,0],"split_type":[0,0,0,0,0,0,0,0,0,0,0,0,0,0,0,0,0,0,0,0,0],"sum_hessian":[1.297443E2,6.604117E1,6.3703117E1,6.249659E1,3.544581E0,1.366854E1,5.0034576E1,6.141082E1,1.0857716E0,1.075269E0,2.469312E0,1.2182761E1,1.4857793E0,3.6983895E0,4.633619E1,1.3160745E0,2.382315E0,1.6283603E0,4.470783E1,4.3475315E1,1.2325137E0],"tree_param":{"num_deleted":"0","num_feature":"1286","num_nodes":"21","size_leaf_vector":"1"}},{"base_weights":[4.004273E-4,5.8930278E-2,-2.71822E-2],"categories":[],"categories_nodes":[],"categories_segments":[],"categories_sizes":[],"default_left":[0,0,0],"id":44,"left_children":[1,-1,-1],"loss_changes":[5.1015785E1,0E0,0E0],"parents":[2147483647,0,0],"right_children":[2,-1,-1],"split_conditions":[6.0708774E-3,5.8930278E-2,-2.71822E-2],"split_indices":[881,0,0],"split_type":[0,0,0],"sum_hessian":[7.758871E1,2.4141182E1,5.344752E1],"tree_param":{"num_deleted":"0","num_feature":"1286","num_nodes":"3","size_leaf_vector":"1"}},{"base_weights":[8.571772E-5,5.7443243E-1,-5.092328E-1,-2.8304178E-2,7.249136E-1,2.308365E-1,-5.7794935E-1,8.193877E-1,-2.545917E-2,3.184058E-2,-2.2694884E-2,3.2631215E-2,-6.1496896E-1,-1.0581089E-1,8.7584835E-1,-3.1347286E-2,1.7087924E-3,-2.0402541E-2,1.4737454E-2,4.4418618E-2,1.2348282E-2],"categories":[],"categories_nodes":[],"categories_segments":[],"categories_sizes":[],"default_left":[0,0,0,0,0,0,0,0,0,0,0,0,0,0,0,0,0,0,0,0,0],"id":45,"left_children":[1,3,5,-1,7,9,11,13,-1,-1,-1,-1,15,17,19,-1,-1,-1,-1,-1,-1],"loss_changes":[4.101477E1,1.172014E1,3.9125233E0,0E0,7.2558193E0,2.2428055E0,3.5120106E0,2.9587975E0,0E0,0E0,0E0,0E0,5.408039E-1,6.1033714E-1,1.8873978E-1,0E0,0E0,0E0,0E0,0E0,0E0],"parents":[2147483647,0,0,1,1,2,2,4,4,5,5,6,6,7,7,12,12,13,13,14,14],"right_children":[2,4,6,-1,8,10,12,14,-1,-1,-1,-1,16,18,20,-1,-1,-1,-1,-1,-1],"split_conditions":[3.5834338E-3,1.4699138E-3,1.02481674E-4,-2.8304178E-2,1E0,4.8365486E-3,4.7300938E-3,-1.3682574E-2,-2.545917E-2,3.184058E-2,-2.2694884E-2,3.2631215E-2,4.96896E-2,3.58646E-2,4.438524E-3,-3.1347286E-2,1.7087924E-3,-2.0402541E-2,1.4737454E-2,4.4418618E-2,1.2348282E-2],"split_indices":[814,997,969,0,514,690,1155,536,0,0,0,0,257,10,624,0,0,0,0,0,0],"split_type":[0,0,0,0,0,0,0,0,0,0,0,0,0,0,0,0,0,0,0,0,0],"sum_hessian":[1.3820926E2,6.4897736E1,7.331152E1,7.2426844E0,5.7655052E1,6.0282855E0,6.728323E1,5.386738E1,3.7876763E0,3.828422E0,2.1998634E0,1.4793345E0,6.58039E1,3.0479386E0,5.081944E1,6.4645386E1,1.1585112E0,1.7265104E0,1.3214282E0,4.9422585E1,1.3968557E0],"tree_param":{"num_deleted":"0","num_feature":"1286","num_nodes":"21","size_leaf_vector":"1"}},{"base_weights":[-1.8566971E-3,-2.9794717E-2,4.8500787E-2],"categories":[],"categories_nodes":[],"categories_segments":[],"categories_sizes":[],"default_left":[0,0,0],"id":46,"left_children":[1,-1,-1],"loss_changes":[7.074685E1,0E0,0E0],"parents":[2147483647,0,0],"right_children":[2,-1,-1],"split_conditions":[1E0,-2.9794717E-2,4.8500787E-2],"split_indices":[514,0,0],"split_type":[0,0,0],"sum_hessian":[1.2054049E2,7.505281E1,4.548768E1],"tree_param":{"num_deleted":"0","num_feature":"1286","num_nodes":"3","size_leaf_vector":"1"}},{"base_weights":[1.4197788E-3,-5.267721E-1,5.379991E-1,-5.893582E-1,4.3765706E-1,-3.959628E-1,7.901969E-1,-3.0202493E-2,6.230237E-3,-1.6815169E-2,3.851311E-2,-2.83351E-2,3.2028686E-2,8.722405E-1,-5.0048456E-2,-1.750757E-2,9.145852E-1,3.2526653E-2,-2.371974E-2,3.9342834E-4,4.696871E-2],"categories":[],"categories_nodes":[],"categories_segments":[],"categories_sizes":[],"default_left":[0,0,0,0,0,0,0,0,0,0,0,0,0,0,0,0,0,0,0,0,0],"id":47,"left_children":[1,3,5,7,9,11,13,-1,-1,-1,-1,-1,-1,15,17,-1,19,-1,-1,-1,-1],"loss_changes":[3.666693E1,4.193289E0,1.5429207E1,7.219448E-1,1.4295499E0,2.895771E0,3.5501385E0,0E0,0E0,0E0,0E0,0E0,0E0,2.7217178E0,1.9349377E0,0E0,1.0067139E0,0E0,0E0,0E0,0E0],"parents":[2147483647,0,0,1,1,2,2,3,3,4,4,5,5,6,6,13,13,14,14,16,16],"right_children":[2,4,6,8,10,12,14,-1,-1,-1,-1,-1,-1,16,18,-1,20,-1,-1,-1,-1],"split_conditions":[1E0,1.8008808E-2,3.3064764E-3,4.7556404E-3,3.0637184E-2,1.3600903E-2,4.258185E-4,-3.0202493E-2,6.230237E-3,-1.6815169E-2,3.851311E-2,-2.83351E-2,3.2028686E-2,4.083987E-3,-2.5005495E-2,-1.750757E-2,-3.9813677E-3,3.2526653E-2,-2.371974E-2,3.9342834E-4,4.696871E-2],"split_indices":[516,755,1003,735,1,656,1000,0,0,0,0,0,0,760,429,0,1023,0,0,0,0],"split_type":[0,0,0,0,0,0,0,0,0,0,0,0,0,0,0,0,0,0,0,0,0],"sum_hessian":[1.2737462E2,6.41982E1,6.3176422E1,6.065118E1,3.547019E0,1.3311185E1,4.986524E1,5.9579132E1,1.0720489E0,1.0628006E0,2.4842186E0,1.1817818E1,1.4933679E0,4.539471E1,4.470527E0,1.2764852E0,4.4118225E1,1.4853086E0,2.9852185E0,1.2091236E0,4.29091E1],"tree_param":{"num_deleted":"0","num_feature":"1286","num_nodes":"21","size_leaf_vector":"1"}},{"base_weights":[4.966392E-4,5.5980194E-2,-2.7058065E-2],"categories":[],"categories_nodes":[],"categories_segments":[],"categories_sizes":[],"default_left":[0,0,0],"id":48,"left_children":[1,-1,-1],"loss_changes":[4.7386913E1,0E0,0E0],"parents":[2147483647,0,0],"right_children":[2,-1,-1],"split_conditions":[6.0708774E-3,5.5980194E-2,-2.7058065E-2],"split_indices":[881,0,0],"split_type":[0,0,0],"sum_hessian":[7.617435E1,2.4496237E1,5.1678112E1],"tree_param":{"num_deleted":"0","num_feature":"1286","num_nodes":"3","size_leaf_vector":"1"}},{"base_weights":[-4.7981393E-6,5.5751944E-1,-5.018255E-1,-2.79136E-2,7.0252526E-1,2.235604E-1,-5.7044065E-1,7.933893E-1,-2.5059149E-2,3.0821672E-2,-2.2341363E-2,3.1744774E-2,-6.0779256E-1,8.3155787E-1,-1.9041117E-2,1.9840288E-3,-3.0998403E-2,4.3026064E-2,3.376018E-3],"categories":[],"categories_nodes":[],"categories_segments":[],"categories_sizes":[],"default_left":[0,0,0,0,0,0,0,0,0,0,0,0,0,0,0,0,0,0,0],"id":49,"left_children":[1,3,5,-1,7,9,11,13,-1,-1,-1,-1,15,17,-1,-1,-1,-1,-1],"loss_changes":[3.8459213E1,1.0928007E1,3.728365E0,0E0,6.7491055E0,2.111272E0,3.3742218E0,2.7539864E0,0E0,0E0,0E0,0E0,5.361614E-1,1.114399E0,0E0,0E0,0E0,0E0,0E0],"parents":[2147483647,0,0,1,1,2,2,4,4,5,5,6,6,7,7,12,12,13,13],"right_children":[2,4,6,-1,8,10,12,14,-1,-1,-1,-1,16,18,-1,-1,-1,-1,-1],"split_conditions":[3.5834338E-3,1.4699138E-3,1.02481674E-4,-2.79136E-2,1E0,4.8365486E-3,4.7300938E-3,2.9313358E-2,-2.5059149E-2,3.0821672E-2,-2.2341363E-2,3.1744774E-2,-1.43484995E-2,4.9075015E-2,-1.9041117E-2,1.9840288E-3,-3.0998403E-2,4.3026064E-2,3.376018E-3],"split_indices":[814,997,969,0,514,690,1155,533,0,0,0,0,657,327,0,0,0,0,0],"split_type":[0,0,0,0,0,0,0,0,0,0,0,0,0,0,0,0,0,0,0],"sum_hessian":[1.3546371E2,6.411774E1,7.134598E1,7.0464773E0,5.707126E1,5.970355E0,6.537562E1,5.3382465E1,3.6887915E0,3.815063E0,2.1552923E0,1.4841704E0,6.389145E1,5.198449E1,1.3979752E0,1.1375827E0,6.275387E1,4.996415E1,2.0203402E0],"tree_param":{"num_deleted":"0","num_feature":"1286","num_nodes":"19","size_leaf_vector":"1"}},{"base_weights":[-1.9611358E-3,-2.9546594E-2,4.6710413E-2],"categories":[],"categories_nodes":[],"categories_segments":[],"categories_sizes":[],"default_left":[0,0,0],"id":50,"left_children":[1,-1,-1],"loss_changes":[6.623046E1,0E0,0E0],"parents":[2147483647,0,0],"right_children":[2,-1,-1],"split_conditions":[1E0,-2.9546594E-2,4.6710413E-2],"split_indices":[514,0,0],"split_type":[0,0,0],"sum_hessian":[1.1811721E2,7.2729675E1,4.538753E1],"tree_param":{"num_deleted":"0","num_feature":"1286","num_nodes":"3","size_leaf_vector":"1"}},{"base_weights":[1.5563248E-3,-5.20457E-1,5.222108E-1,-5.833711E-1,4.222815E-1,-3.8900587E-1,7.6330626E-1,-2.9921442E-2,6.559094E-3,-1.663996E-2,3.7232544E-2,-2.8014451E-2,3.1042164E-2,-1.2397249E-1,8.337933E-1,1.8738078E-2,-2.1873193E-2,-1.88524E-2,8.835602E-1,2.3162496E-4,4.5381065E-2],"categories":[],"categories_nodes":[],"categories_segments":[],"categories_sizes":[],"default_left":[0,0,0,0,0,0,0,0,0,0,0,0,0,0,0,0,0,0,0,0,0],"id":51,"left_children":[1,3,5,7,9,11,13,-1,-1,-1,-1,-1,-1,15,17,-1,-1,-1,19,-1,-1],"loss_changes":[3.4488018E1,4.004633E0,1.42533245E1,7.221508E-1,1.3539565E0,2.7615013E0,3.2663116E0,0E0,0E0,0E0,0E0,0E0,0E0,8.81981E-1,3.1642075E0,0E0,0E0,0E0,9.564476E-1,0E0,0E0],"parents":[2147483647,0,0,1,1,2,2,3,3,4,4,5,5,6,6,13,13,14,14,18,18],"right_children":[2,4,6,8,10,12,14,-1,-1,-1,-1,-1,-1,16,18,-1,-1,-1,20,-1,-1],"split_conditions":[1E0,1.8008808E-2,3.3064764E-3,7.192978E-3,3.0637184E-2,1.3600903E-2,7.2891236E-4,-2.9921442E-2,6.559094E-3,-1.663996E-2,3.7232544E-2,-2.8014451E-2,3.1042164E-2,1.0069553E-2,4.083987E-3,1.8738078E-2,-2.1873193E-2,-1.88524E-2,-6.6730855E-3,2.3162496E-4,4.5381065E-2],"split_indices":[516,755,1003,866,1,656,969,0,0,0,0,0,0,75,760,0,0,0,1184,0,0],"split_type":[0,0,0,0,0,0,0,0,0,0,0,0,0,0,0,0,0,0,0,0,0],"sum_hessian":[1.24892815E2,6.236521E1,6.2527603E1,5.8820965E1,3.5442472E0,1.295414E1,4.9573463E1,5.7766174E1,1.0547893E0,1.0507463E0,2.4935007E0,1.14562E1,1.4979404E0,3.5925283E0,4.5980938E1,1.3111587E0,2.2813697E0,1.5556346E0,4.44253E1,1.215537E0,4.3209766E1],"tree_param":{"num_deleted":"0","num_feature":"1286","num_nodes":"21","size_leaf_vector":"1"}},{"base_weights":[6.1650947E-4,5.336768E-2,-2.6936559E-2],"categories":[],"categories_nodes":[],"categories_segments":[],"categories_sizes":[],"default_left":[0,0,0],"id":52,"left_children":[1,-1,-1],"loss_changes":[4.4120014E1,0E0,0E0],"parents":[2147483647,0,0],"right_children":[2,-1,-1],"split_conditions":[6.0708774E-3,5.336768E-2,-2.6936559E-2],"split_indices":[881,0,0],"split_type":[0,0,0],"sum_hessian":[7.4685394E1,2.4751738E1,4.993366E1],"tree_param":{"num_deleted":"0","num_feature":"1286","num_nodes":"3","size_leaf_vector":"1"}},{"base_weights":[-1.4769952E-4,5.417455E-1,-4.9465203E-1,-2.7529439E-2,6.8173665E-1,-5.9834385E-1,-5.702598E-3,7.693488E-1,-2.466923E-2,2.3169757E-3,-3.0588105E-2,-4.7133103E-1,6.240113E-1,-1.0672148E-1,8.225485E-1,7.5149426E-4,-2.7488178E-2,3.8214624E-2,3.32177E-4,-1.9931007E-2,1.400426E-2,4.1749235E-2,1.0893135E-2],"categories":[],"categories_nodes":[],"categories_segments":[],"categories_sizes":[],"default_left":[0,0,0,0,0,0,0,0,0,0,0,0,0,0,0,0,0,0,0,0,0,0,0],"id":53,"left_children":[1,3,5,-1,7,9,11,13,-1,-1,-1,15,17,19,21,-1,-1,-1,-1,-1,-1,-1,-1],"loss_changes":[3.60703E1,1.0196604E1,3.5648804E0,0E0,6.2868023E0,5.30571E-1,4.2008176E0,2.5945911E0,0E0,0E0,0E0,3.221916E-1,5.227132E-1,5.592584E-1,2.0026779E-1,0E0,0E0,0E0,0E0,0E0,0E0,0E0,0E0],"parents":[2147483647,0,0,1,1,2,2,4,4,5,5,6,6,7,7,11,11,12,12,13,13,14,14],"right_children":[2,4,6,-1,8,10,12,14,-1,-1,-1,16,18,20,22,-1,-1,-1,-1,-1,-1,-1,-1],"split_conditions":[3.5834338E-3,1.4699138E-3,1E0,-2.7529439E-2,1E0,-1.2444614E-2,-2.3001235E-2,-1.3682574E-2,-2.466923E-2,2.3169757E-3,-3.0588105E-2,-1.09835885E-1,2.9707363E-2,-1.4318426E-2,3.3557514E-4,7.5149426E-4,-2.7488178E-2,3.8214624E-2,3.32177E-4,-1.9931007E-2,1.400426E-2,4.1749235E-2,1.0893135E-2],"split_indices":[814,997,513,0,514,970,331,536,0,0,0,38,48,24,679,0,0,0,0,0,0,0,0],"split_type":[0,0,0,0,0,0,0,0,0,0,0,0,0,0,0,0,0,0,0,0,0,0,0],"sum_hessian":[1.3260645E2,6.3225952E1,6.938049E1,6.8492265E0,5.6376728E1,5.7056713E1,1.2323781E1,5.2786488E1,3.5902383E0,1.1133239E0,5.5943386E1,7.229556E0,5.094225E0,2.9643726E0,4.9822117E1,1.116222E0,6.113334E0,3.9570906E0,1.1371346E0,1.6720448E0,1.2923279E0,4.8444923E1,1.3771936E0],"tree_param":{"num_deleted":"0","num_feature":"1286","num_nodes":"23","size_leaf_vector":"1"}},{"base_weights":[-2.011708E-3,-2.9308423E-2,4.5095682E-2],"categories":[],"categories_nodes":[],"categories_segments":[],"categories_sizes":[],"default_left":[0,0,0],"id":54,"left_children":[1,-1,-1],"loss_changes":[6.2090446E1,0E0,0E0],"parents":[2147483647,0,0],"right_children":[2,-1,-1],"split_conditions":[1E0,-2.9308423E-2,4.5095682E-2],"split_indices":[514,0,0],"split_type":[0,0,0],"sum_hessian":[1.1558675E2,7.042592E1,4.5160828E1],"tree_param":{"num_deleted":"0","num_feature":"1286","num_nodes":"3","size_leaf_vector":"1"}},{"base_weights":[1.6836236E-3,-5.144006E-1,5.076414E-1,-5.776427E-1,4.0777436E-1,-3.822753E-1,7.387154E-1,6.630884E-3,-2.9651089E-2,-1.6464371E-2,3.6039528E-2,-2.7704105E-2,3.0110648E-2,8.1437033E-1,-4.757309E-2,-1.6939811E-2,8.535701E-1,3.0625803E-2,-2.3099346E-2,4.3847274E-2,1.2300118E-5],"categories":[],"categories_nodes":[],"categories_segments":[],"categories_sizes":[],"default_left":[0,0,0,0,0,0,0,0,0,0,0,0,0,0,0,0,0,0,0,0,0],"id":55,"left_children":[1,3,5,7,9,11,13,-1,-1,-1,-1,-1,-1,15,17,-1,19,-1,-1,-1,-1],"loss_changes":[3.2460083E1,3.8246956E0,1.3190285E1,7.122574E-1,1.2838197E0,2.6336796E0,3.0233269E0,0E0,0E0,0E0,0E0,0E0,0E0,2.3606014E0,1.7460729E0,0E0,8.894348E-1,0E0,0E0,0E0,0E0],"parents":[2147483647,0,0,1,1,2,2,3,3,4,4,5,5,6,6,13,13,14,14,16,16],"right_children":[2,4,6,8,10,12,14,-1,-1,-1,-1,-1,-1,16,18,-1,20,-1,-1,-1,-1],"split_conditions":[1E0,1.8008808E-2,3.3064764E-3,-3.69669E-3,3.0637184E-2,1.3600903E-2,4.258185E-4,6.630884E-3,-2.9651089E-2,-1.6464371E-2,3.6039528E-2,-2.7704105E-2,3.0110648E-2,4.083987E-3,-2.5005495E-2,-1.6939811E-2,3.5375256E-2,3.0625803E-2,-2.3099346E-2,4.3847274E-2,1.2300118E-5],"split_indices":[516,755,1003,1080,1,656,1000,0,0,0,0,0,0,760,429,0,139,0,0,0,0],"split_type":[0,0,0,0,0,0,0,0,0,0,0,0,0,0,0,0,0,0,0,0,0],"sum_hessian":[1.2231243E2,6.0542015E1,6.1770416E1,5.700618E1,3.5358346E0,1.25980835E1,4.9172333E1,1.0466131E0,5.5959568E1,1.0384963E0,2.4973383E0,1.109844E1,1.4996436E0,4.4823772E1,4.3485575E0,1.2223489E0,4.3601425E1,1.4927834E0,2.8557742E0,4.2411945E1,1.1894804E0],"tree_param":{"num_deleted":"0","num_feature":"1286","num_nodes":"21","size_leaf_vector":"1"}},{"base_weights":[7.138393E-4,5.104152E-2,-2.6817828E-2],"categories":[],"categories_nodes":[],"categories_segments":[],"categories_sizes":[],"default_left":[0,0,0],"id":56,"left_children":[1,-1,-1],"loss_changes":[4.1165546E1,0E0,0E0],"parents":[2147483647,0,0],"right_children":[2,-1,-1],"split_conditions":[6.0708774E-3,5.104152E-2,-2.6817828E-2],"split_indices":[881,0,0],"split_type":[0,0,0],"sum_hessian":[7.313745E1,2.4914286E1,4.8223167E1],"tree_param":{"num_deleted":"0","num_feature":"1286","num_nodes":"3","size_leaf_vector":"1"}},{"base_weights":[-3.3121934E-4,5.271681E-1,-4.8785165E-1,-2.717346E-2,6.627954E-1,-5.9178716E-1,-4.6816585E-3,7.4749357E-1,-2.4288733E-2,-3.0271783E-2,2.5129085E-3,-4.639773E-1,6.062427E-1,7.8415114E-1,-1.8676475E-2,-2.7132377E-2,9.36459E-4,3.708319E-2,3.3000726E-4,2.9511407E-3,4.0588852E-2],"categories":[],"categories_nodes":[],"categories_segments":[],"categories_sizes":[],"default_left":[0,0,0,0,0,0,0,0,0,0,0,0,0,0,0,0,0,0,0,0,0],"id":57,"left_children":[1,3,5,-1,7,9,11,13,-1,-1,-1,15,17,19,-1,-1,-1,-1,-1,-1,-1],"loss_changes":[3.3862858E1,9.543932E0,3.4337425E0,0E0,5.867794E0,5.23859E-1,3.9633536E0,2.474699E0,0E0,0E0,0E0,3.1613398E-1,4.8761916E-1,9.884453E-1,0E0,0E0,0E0,0E0,0E0,0E0,0E0],"parents":[2147483647,0,0,1,1,2,2,4,4,5,5,6,6,7,7,11,11,12,12,13,13],"right_children":[2,4,6,-1,8,10,12,14,-1,-1,-1,16,18,20,-1,-1,-1,-1,-1,-1,-1],"split_conditions":[3.5834338E-3,1.4699138E-3,1E0,-2.717346E-2,1E0,1.661485E-2,-2.3001235E-2,2.9313358E-2,-2.4288733E-2,-3.0271783E-2,2.5129085E-3,-4.7785304E-3,-1.0852938E-2,-1.3823733E-2,-1.8676475E-2,-2.7132377E-2,9.36459E-4,3.708319E-2,3.3000726E-4,2.9511407E-3,4.0588852E-2],"split_indices":[814,997,513,0,514,755,331,533,0,0,0,178,309,536,0,0,0,0,0,0,0],"split_type":[0,0,0,0,0,0,0,0,0,0,0,0,0,0,0,0,0,0,0,0,0],"sum_hessian":[1.2967664E2,6.224545E1,6.743118E1,6.6605124E0,5.5584938E1,5.530881E1,1.2122372E1,5.20927E1,3.492237E0,5.421337E1,1.0954399E0,7.05724E0,5.0651317E0,5.0734188E1,1.3585113E0,5.961477E0,1.0957631E0,3.9387712E0,1.1263602E0,1.9770386E0,4.875715E1],"tree_param":{"num_deleted":"0","num_feature":"1286","num_nodes":"21","size_leaf_vector":"1"}},{"base_weights":[-2.0601084E-3,-2.9080108E-2,4.3633483E-2],"categories":[],"categories_nodes":[],"categories_segments":[],"categories_sizes":[],"default_left":[0,0,0],"id":58,"left_children":[1,-1,-1],"loss_changes":[5.8287163E1,0E0,0E0],"parents":[2147483647,0,0],"right_children":[2,-1,-1],"split_conditions":[1E0,-2.9080108E-2,4.3633483E-2],"split_indices":[514,0,0],"split_type":[0,0,0],"sum_hessian":[1.1297662E2,6.815586E1,4.4820766E1],"tree_param":{"num_deleted":"0","num_feature":"1286","num_nodes":"3","size_leaf_vector":"1"}},{"base_weights":[1.8664491E-3,-5.085516E-1,4.94399E-1,-5.72101E-1,3.9406344E-1,-3.7568003E-1,7.164362E-1,-2.939376E-2,6.894422E-3,-1.6274467E-2,3.4908626E-2,-2.740088E-2,2.9230231E-2,-1.1715677E-1,7.818079E-1,1.7956851E-2,-2.1246754E-2,-1.8243995E-2,8.2803905E-1,4.2549405E-2,-2.2882475E-4],"categories":[],"categories_nodes":[],"categories_segments":[],"categories_sizes":[],"default_left":[0,0,0,0,0,0,0,0,0,0,0,0,0,0,0,0,0,0,0,0,0],"id":59,"left_children":[1,3,5,7,9,11,13,-1,-1,-1,-1,-1,-1,15,17,-1,-1,-1,19,-1,-1],"loss_changes":[3.0580038E1,3.6520157E0,1.2228142E1,7.106514E-1,1.216622E0,2.5117345E0,2.7978077E0,0E0,0E0,0E0,0E0,0E0,0E0,8.0949134E-1,2.7502823E0,0E0,0E0,0E0,8.579426E-1,0E0,0E0],"parents":[2147483647,0,0,1,1,2,2,3,3,4,4,5,5,6,6,13,13,14,14,18,18],"right_children":[2,4,6,8,10,12,14,-1,-1,-1,-1,-1,-1,16,18,-1,-1,-1,20,-1,-1],"split_conditions":[1E0,1.8008808E-2,3.3064764E-3,1.2543808E-2,3.0637184E-2,1.3600903E-2,7.2891236E-4,-2.939376E-2,6.894422E-3,-1.6274467E-2,3.4908626E-2,-2.740088E-2,2.9230231E-2,2.3160167E-2,4.083987E-3,1.7956851E-2,-2.1246754E-2,-1.8243995E-2,3.7973493E-2,4.2549405E-2,-2.2882475E-4],"split_indices":[516,755,1003,1283,1,656,969,0,0,0,0,0,0,14,760,0,0,0,348,0,0],"split_type":[0,0,0,0,0,0,0,0,0,0,0,0,0,0,0,0,0,0,0,0,0],"sum_hessian":[1.1964007E2,5.87373E1,6.0902767E1,5.5215942E1,3.5213547E0,1.2241406E1,4.866136E1,5.4184105E1,1.0318379E0,1.0252367E0,2.496118E0,1.0742772E1,1.4986341E0,3.4809914E0,4.518037E1,1.3009199E0,2.1800714E0,1.4838334E0,4.3696537E1,4.250298E1,1.1935582E0],"tree_param":{"num_deleted":"0","num_feature":"1286","num_nodes":"21","size_leaf_vector":"1"}},{"base_weights":[8.284954E-4,4.895886E-2,-2.670171E-2],"categories":[],"categories_nodes":[],"categories_segments":[],"categories_sizes":[],"default_left":[0,0,0],"id":60,"left_children":[1,-1,-1],"loss_changes":[3.8478256E1,0E0,0E0],"parents":[2147483647,0,0],"right_children":[2,-1,-1],"split_conditions":[6.0708774E-3,4.895886E-2,-2.670171E-2],"split_indices":[881,0,0],"split_type":[0,0,0],"sum_hessian":[7.153322E1,2.499065E1,4.654257E1],"tree_param":{"num_deleted":"0","num_feature":"1286","num_nodes":"3","size_leaf_vector":"1"}},{"base_weights":[-5.7964533E-4,5.13621E-1,-4.8133615E-1,-2.6812155E-2,6.451079E-1,-5.85522E-1,-3.8795676E-3,7.2716516E-1,-2.3917004E-2,2.75447E-3,-2.9971123E-2,-4.5697755E-1,5.8963263E-1,7.630524E-1,-1.8425751E-2,-2.6785994E-2,1.0258543E-3,3.609542E-2,1.2549704E-4,3.9523005E-2,2.5378536E-3],"categories":[],"categories_nodes":[],"categories_segments":[],"categories_sizes":[],"default_left":[0,0,0,0,0,0,0,0,0,0,0,0,0,0,0,0,0,0,0,0,0],"id":61,"left_children":[1,3,5,-1,7,9,11,13,-1,-1,-1,15,17,19,-1,-1,-1,-1,-1,-1,-1],"loss_changes":[3.180692E1,8.928244E0,3.3054628E0,0E0,5.483137E0,5.190239E-1,3.7432024E0,2.3380852E0,0E0,0E0,0E0,3.0759573E-1,4.6640134E-1,9.550667E-1,0E0,0E0,0E0,0E0,0E0,0E0,0E0],"parents":[2147483647,0,0,1,1,2,2,4,4,5,5,6,6,7,7,11,11,12,12,13,13],"right_children":[2,4,6,-1,8,10,12,14,-1,-1,-1,16,18,20,-1,-1,-1,-1,-1,-1,-1],"split_conditions":[3.5834338E-3,1.4699138E-3,1E0,-2.6812155E-2,1E0,-1.9293116E-2,-2.3001235E-2,2.9313358E-2,-2.3917004E-2,2.75447E-3,-2.9971123E-2,2.3940213E-1,2.9707363E-2,4.9075015E-2,-1.8425751E-2,-2.6785994E-2,1.0258543E-3,3.609542E-2,1.2549704E-4,3.9523005E-2,2.5378536E-3],"split_indices":[814,997,513,0,514,631,331,533,0,0,0,275,48,327,0,0,0,0,0,0,0],"split_type":[0,0,0,0,0,0,0,0,0,0,0,0,0,0,0,0,0,0,0,0,0],"sum_hessian":[1.2666595E2,6.1171093E1,6.549485E1,6.465855E0,5.470524E1,5.357739E1,1.1917462E1,5.1310246E1,3.394992E0,1.0749431E0,5.2502445E1,6.8886147E0,5.028848E0,4.9976913E1,1.3333302E0,5.808768E0,1.0798469E0,3.9168348E0,1.1120133E0,4.8019485E1,1.9574298E0],"tree_param":{"num_deleted":"0","num_feature":"1286","num_nodes":"21","size_leaf_vector":"1"}},{"base_weights":[-2.0349983E-3,-2.8861139E-2,4.2307537E-2],"categories":[],"categories_nodes":[],"categories_segments":[],"categories_sizes":[],"default_left":[0,0,0],"id":62,"left_children":[1,-1,-1],"loss_changes":[5.4785156E1,0E0,0E0],"parents":[2147483647,0,0],"right_children":[2,-1,-1],"split_conditions":[1E0,-2.8861139E-2,4.2307537E-2],"split_indices":[514,0,0],"split_type":[0,0,0],"sum_hessian":[1.10294365E2,6.591458E1,4.4379784E1],"tree_param":{"num_deleted":"0","num_feature":"1286","num_nodes":"3","size_leaf_vector":"1"}},{"base_weights":[2.0389312E-3,-5.029113E-1,4.8196042E-1,-5.6677413E-1,3.8108754E-1,-3.6932105E-1,6.957297E-1,-2.9146275E-2,7.1063736E-3,-1.6085083E-2,3.3851013E-2,-2.7107736E-2,2.8396351E-2,7.6625365E-1,-4.4669017E-2,-1.6422886E-2,8.0314815E-1,2.893418E-2,-2.2476241E-2,4.1276943E-2,-4.265083E-4],"categories":[],"categories_nodes":[],"categories_segments":[],"categories_sizes":[],"default_left":[0,0,0,0,0,0,0,0,0,0,0,0,0,0,0,0,0,0,0,0,0],"id":63,"left_children":[1,3,5,7,9,11,13,-1,-1,-1,-1,-1,-1,15,17,-1,19,-1,-1,-1,-1],"loss_changes":[2.881421E1,3.4870844E0,1.1350225E1,7.0617294E-1,1.1540816E0,2.395701E0,2.596508E0,0E0,0E0,0E0,0E0,0E0,0E0,2.0755768E0,1.5755988E0,0E0,8.009968E-1,0E0,0E0,0E0,0E0],"parents":[2147483647,0,0,1,1,2,2,3,3,4,4,5,5,6,6,13,13,14,14,16,16],"right_children":[2,4,6,8,10,12,14,-1,-1,-1,-1,-1,-1,16,18,-1,20,-1,-1,-1,-1],"split_conditions":[1E0,1.8008808E-2,3.3064764E-3,1.3089326E-2,3.0637184E-2,1.3600903E-2,4.258185E-4,-2.9146275E-2,7.1063736E-3,-1.6085083E-2,3.3851013E-2,-2.7107736E-2,2.8396351E-2,4.083987E-3,-2.5005495E-2,-1.6422886E-2,2.21794E-2,2.893418E-2,-2.2476241E-2,4.1276943E-2,-4.265083E-4],"split_indices":[516,755,1003,895,1,656,1000,0,0,0,0,0,0,760,429,0,85,0,0,0,0],"split_type":[0,0,0,0,0,0,0,0,0,0,0,0,0,0,0,0,0,0,0,0,0],"sum_hessian":[1.16901474E2,5.694197E1,5.99595E1,5.344014E1,3.5018296E0,1.1888587E1,4.8070915E1,5.242345E1,1.0166903E0,1.0118303E0,2.4899993E0,1.0393512E1,1.4950746E0,4.385842E1,4.212494E0,1.1722908E0,4.268613E1,1.4896054E0,2.7228885E0,4.1523594E1,1.1625339E0],"tree_param":{"num_deleted":"0","num_feature":"1286","num_nodes":"21","size_leaf_vector":"1"}},{"base_weights":[9.2343875E-4,4.7085453E-2,-2.658826E-2],"categories":[],"categories_nodes":[],"categories_segments":[],"categories_sizes":[],"default_left":[0,0,0],"id":64,"left_children":[1,-1,-1],"loss_changes":[3.602493E1,0E0,0E0],"parents":[2147483647,0,0],"right_children":[2,-1,-1],"split_conditions":[6.0708774E-3,4.7085453E-2,-2.658826E-2],"split_indices":[881,0,0],"split_type":[0,0,0],"sum_hessian":[6.988589E1,2.498747E1,4.4898415E1],"tree_param":{"num_deleted":"0","num_feature":"1286","num_nodes":"3","size_leaf_vector":"1"}},{"base_weights":[-8.490441E-4,5.0096977E-1,-4.7506583E-1,-2.6466688E-2,6.2872475E-1,-5.795333E-1,-2.9192904E-3,7.08396E-1,-2.3553422E-2,-2.968493E-2,2.9930745E-3,-4.508211E-1,5.733475E-1,7.436184E-1,-1.817914E-2,-2.6420658E-2,9.265866E-4,3.5270568E-2,-3.7796205E-4,2.1693693E-3,3.8541954E-2],"categories":[],"categories_nodes":[],"categories_segments":[],"categories_sizes":[],"default_left":[0,0,0,0,0,0,0,0,0,0,0,0,0,0,0,0,0,0,0,0,0],"id":65,"left_children":[1,3,5,-1,7,9,11,13,-1,-1,-1,15,17,19,-1,-1,-1,-1,-1,-1,-1],"loss_changes":[2.9887545E1,8.364861E0,3.1832333E0,0E0,5.130726E0,5.143738E-1,3.537455E0,2.2129326E0,0E0,0E0,0E0,2.904961E-1,4.6532178E-1,9.2225647E-1,0E0,0E0,0E0,0E0,0E0,0E0,0E0],"parents":[2147483647,0,0,1,1,2,2,4,4,5,5,6,6,7,7,11,11,12,12,13,13],"right_children":[2,4,6,-1,8,10,12,14,-1,-1,-1,16,18,20,-1,-1,-1,-1,-1,-1,-1],"split_conditions":[3.5834338E-3,1.4699138E-3,1E0,-2.6466688E-2,1E0,-2.7683666E-3,-1.6124103E-2,2.9313358E-2,-2.3553422E-2,-2.968493E-2,2.9930745E-3,9.264516E-3,4.9553934E-2,3.6248323E-3,-1.817914E-2,-2.6420658E-2,9.265866E-4,3.5270568E-2,-3.7796205E-4,2.1693693E-3,3.8541954E-2],"split_indices":[814,997,513,0,514,853,85,533,0,0,0,856,125,647,0,0,0,0,0,0,0],"split_type":[0,0,0,0,0,0,0,0,0,0,0,0,0,0,0,0,0,0,0,0,0],"sum_hessian":[1.2359317E2,6.0021587E1,6.3571587E1,6.2747073E0,5.374688E1,5.1867832E1,1.1703754E1,5.0448193E1,3.298687E0,5.081357E1,1.0542665E0,6.7078123E0,4.9959426E0,4.9139896E1,1.3082972E0,5.648229E0,1.059583E0,3.8959134E0,1.100029E0,1.9358318E0,4.7204063E1],"tree_param":{"num_deleted":"0","num_feature":"1286","num_nodes":"21","size_leaf_vector":"1"}},{"base_weights":[-2.0503555E-3,-2.8650958E-2,4.1092698E-2],"categories":[],"categories_nodes":[],"categories_segments":[],"categories_sizes":[],"default_left":[0,0,0],"id":66,"left_children":[1,-1,-1],"loss_changes":[5.1537827E1,0E0,0E0],"parents":[2147483647,0,0],"right_children":[2,-1,-1],"split_conditions":[1E0,-2.8650958E-2,4.1092698E-2],"split_indices":[514,0,0],"split_type":[0,0,0],"sum_hessian":[1.0755511E2,6.3709023E1,4.3846085E1],"tree_param":{"num_deleted":"0","num_feature":"1286","num_nodes":"3","size_leaf_vector":"1"}},{"base_weights":[2.2841364E-3,-4.974909E-1,4.7071353E-1,-5.6165904E-1,3.687909E-1,-3.6315092E-1,6.77068E-1,-2.8909966E-2,7.2922907E-3,3.100093E-2,-4.043832E-3,-2.6822953E-2,2.7605329E-2,7.430196E-1,-6.698128E-2,-1.6007146E-2,7.7811855E-1,-2.1873659E-2,2.417655E-2,4.1880338E-3,4.0360566E-2],"categories":[],"categories_nodes":[],"categories_segments":[],"categories_sizes":[],"default_left":[0,0,0,0,0,0,0,0,0,0,0,0,0,0,0,0,0,0,0,0,0],"id":67,"left_children":[1,3,5,7,9,11,13,-1,-1,-1,-1,-1,-1,15,17,-1,19,-1,-1,-1,-1],"loss_changes":[2.718036E1,3.3296852E0,1.0557696E1,7.009926E-1,5.5597734E-1,2.2851472E0,2.424244E0,0E0,0E0,0E0,0E0,0E0,0E0,1.9108372E0,1.2022017E0,0E0,8.0909157E-1,0E0,0E0,0E0,0E0],"parents":[2147483647,0,0,1,1,2,2,3,3,4,4,5,5,6,6,13,13,14,14,16,16],"right_children":[2,4,6,8,10,12,14,-1,-1,-1,-1,-1,-1,16,18,-1,20,-1,-1,-1,-1],"split_conditions":[1E0,1.8008808E-2,3.3064764E-3,9.020301E-3,5.785915E-2,1.3600903E-2,1.3094403E-2,-2.8909966E-2,7.2922907E-3,3.100093E-2,-4.043832E-3,-2.6822953E-2,2.7605329E-2,3.3552742E-3,3.8244095E-2,-1.6007146E-2,-1.7172269E-3,-2.1873659E-2,2.417655E-2,4.1880338E-3,4.0360566E-2],"split_indices":[516,755,1003,653,44,656,601,0,0,0,0,0,0,760,13,0,1076,0,0,0,0],"split_type":[0,0,0,0,0,0,0,0,0,0,0,0,0,0,0,0,0,0,0,0,0],"sum_hessian":[1.1410087E2,5.5173412E1,5.892746E1,5.169579E1,3.4776216E0,1.1539059E1,4.73884E1,5.0693424E1,1.0023658E0,1.9880607E0,1.4895607E0,1.0049931E1,1.4891284E0,4.353123E1,3.8571696E0,1.1316606E0,4.239957E1,2.4282825E0,1.4288872E0,1.8610439E0,4.053853E1],"tree_param":{"num_deleted":"0","num_feature":"1286","num_nodes":"21","size_leaf_vector":"1"}},{"base_weights":[9.870701E-4,4.5395132E-2,-2.6477588E-2],"categories":[],"categories_nodes":[],"categories_segments":[],"categories_sizes":[],"default_left":[0,0,0],"id":68,"left_children":[1,-1,-1],"loss_changes":[3.377982E1,0E0,0E0],"parents":[2147483647,0,0],"right_children":[2,-1,-1],"split_conditions":[6.0708774E-3,4.5395132E-2,-2.6477588E-2],"split_indices":[881,0,0],"split_type":[0,0,0],"sum_hessian":[6.820663E1,2.4911331E1,4.32953E1],"tree_param":{"num_deleted":"0","num_feature":"1286","num_nodes":"3","size_leaf_vector":"1"}},{"base_weights":[-1.1109577E-3,4.8924065E-1,-4.690285E-1,-2.6131053E-2,6.1361676E-1,-5.7376987E-1,-2.418489E-3,6.911281E-1,-2.3197442E-2,-2.9411776E-2,3.218714E-3,-4.4531998E-1,5.626401E-1,7.257768E-1,-1.7935568E-2,1.0154851E-3,-2.614802E-2,3.4299567E-2,1.365664E-4,3.7631452E-2,2.0625887E-3],"categories":[],"categories_nodes":[],"categories_segments":[],"categories_sizes":[],"default_left":[0,0,0,0,0,0,0,0,0,0,0,0,0,0,0,0,0,0,0,0,0],"id":69,"left_children":[1,3,5,-1,7,9,11,13,-1,-1,-1,15,17,19,-1,-1,-1,-1,-1,-1,-1],"loss_changes":[2.8104218E1,7.8480473E0,3.0618343E0,0E0,4.807886E0,5.1033974E-1,3.377436E0,2.0980701E0,0E0,0E0,0E0,2.8401577E-1,4.078108E-1,8.739891E-1,0E0,0E0,0E0,0E0,0E0,0E0,0E0],"parents":[2147483647,0,0,1,1,2,2,4,4,5,5,6,6,7,7,11,11,12,12,13,13],"right_children":[2,4,6,-1,8,10,12,14,-1,-1,-1,16,18,20,-1,-1,-1,-1,-1,-1,-1],"split_conditions":[3.5834338E-3,1.4699138E-3,1E0,-2.6131053E-2,1E0,2.3419473E-2,-2.3001235E-2,2.9313358E-2,-2.3197442E-2,-2.9411776E-2,3.218714E-3,-1.09835885E-1,-1.0852938E-2,4.9075015E-2,-1.7935568E-2,1.0154851E-3,-2.614802E-2,3.4299567E-2,1.365664E-4,3.7631452E-2,2.0625887E-3],"split_indices":[814,997,513,0,514,120,331,533,0,0,0,38,309,327,0,0,0,0,0,0,0],"split_type":[0,0,0,0,0,0,0,0,0,0,0,0,0,0,0,0,0,0,0,0,0],"sum_hessian":[1.204882E2,5.881147E1,6.1676723E1,6.0871916E0,5.2724277E1,5.0182457E1,1.14942665E1,4.952078E1,3.2035007E0,4.91466E1,1.0358601E0,6.5624347E0,4.9318314E0,4.8237434E1,1.2833436E0,1.0433869E0,5.5190477E0,3.8569398E0,1.0748916E0,4.632089E1,1.9165459E0],"tree_param":{"num_deleted":"0","num_feature":"1286","num_nodes":"21","size_leaf_vector":"1"}},{"base_weights":[-2.085782E-3,-2.8449684E-2,3.9982196E-2],"categories":[],"categories_nodes":[],"categories_segments":[],"categories_sizes":[],"default_left":[0,0,0],"id":70,"left_children":[1,-1,-1],"loss_changes":[4.853288E1,0E0,0E0],"parents":[2147483647,0,0],"right_children":[2,-1,-1],"split_conditions":[1E0,-2.8449684E-2,3.9982196E-2],"split_indices":[514,0,0],"split_type":[0,0,0],"sum_hessian":[1.0478033E2,6.1548965E1,4.323136E1],"tree_param":{"num_deleted":"0","num_feature":"1286","num_nodes":"3","size_leaf_vector":"1"}},{"base_weights":[2.5588009E-3,-4.9199012E-1,4.600077E-1,-5.5670655E-1,3.5808146E-1,-3.5727286E-1,6.595779E-1,-2.8680934E-2,7.209415E-3,3.018269E-2,-4.05171E-3,-2.6549265E-2,2.685382E-2,7.4393123E-1,7.827943E-2,-1.5841823E-2,3.9054897E-2,-2.293692E-2,2.8433431E-2],"categories":[],"categories_nodes":[],"categories_segments":[],"categories_sizes":[],"default_left":[0,0,0,0,0,0,0,0,0,0,0,0,0,0,0,0,0,0,0],"id":71,"left_children":[1,3,5,7,9,11,13,-1,-1,-1,-1,-1,-1,15,17,-1,-1,-1,-1],"loss_changes":[2.5626825E1,3.1939507E0,9.83323E0,6.8694115E-1,5.298025E-1,2.1801567E0,2.2780457E0,0E0,0E0,0E0,0E0,0E0,0E0,1.8832417E0,2.1452265E0,0E0,0E0,0E0,0E0],"parents":[2147483647,0,0,1,1,2,2,3,3,4,4,5,5,6,6,13,13,14,14],"right_children":[2,4,6,8,10,12,14,-1,-1,-1,-1,-1,-1,16,18,-1,-1,-1,-1],"split_conditions":[1E0,1.8008808E-2,3.3064764E-3,9.020301E-3,5.785915E-2,1.3600903E-2,-8.7905506E-4,-2.8680934E-2,7.209415E-3,3.018269E-2,-4.05171E-3,-2.6549265E-2,2.685382E-2,4.083987E-3,1.6400907E-2,-1.5841823E-2,3.9054897E-2,-2.293692E-2,2.8433431E-2],"split_indices":[516,755,1003,653,44,656,1000,0,0,0,0,0,0,760,1041,0,0,0,0],"split_type":[0,0,0,0,0,0,0,0,0,0,0,0,0,0,0,0,0,0,0],"sum_hessian":[1.11276924E2,5.3433907E1,5.7843014E1,4.9974434E1,3.4594753E0,1.1197357E1,4.6645657E1,4.8974308E1,1.0001258E0,1.9783782E0,1.4810972E0,9.716397E0,1.4809599E0,4.0490265E1,6.155393E0,1.1159303E0,3.9374332E1,2.9688225E0,3.186571E0],"tree_param":{"num_deleted":"0","num_feature":"1286","num_nodes":"19","size_leaf_vector":"1"}},{"base_weights":[1.0454225E-3,4.386213E-2,-2.6369438E-2],"categories":[],"categories_nodes":[],"categories_segments":[],"categories_sizes":[],"default_left":[0,0,0],"id":72,"left_children":[1,-1,-1],"loss_changes":[3.1715033E1,0E0,0E0],"parents":[2147483647,0,0],"right_children":[2,-1,-1],"split_conditions":[6.0708774E-3,4.386213E-2,-2.6369438E-2],"split_indices":[881,0,0],"split_type":[0,0,0],"sum_hessian":[6.6497925E1,2.4768755E1,4.172917E1],"tree_param":{"num_deleted":"0","num_feature":"1286","num_nodes":"3","size_leaf_vector":"1"}},{"base_weights":[-1.3623221E-3,4.7831208E-1,-4.6325257E-1,-2.5800472E-2,5.9952605E-1,-5.682321E-1,-2.149818E-3,6.7506737E-1,-2.2848522E-2,-2.915074E-2,3.44285E-3,-4.3903545E-1,5.4833955E-1,7.0922613E-1,-1.7697243E-2,-2.5837092E-2,1.087765E-3,3.340948E-2,1.4073402E-4,1.7257103E-3,3.6800515E-2],"categories":[],"categories_nodes":[],"categories_segments":[],"categories_sizes":[],"default_left":[0,0,0,0,0,0,0,0,0,0,0,0,0,0,0,0,0,0,0,0,0],"id":73,"left_children":[1,3,5,-1,7,9,11,13,-1,-1,-1,15,17,19,-1,-1,-1,-1,-1,-1,-1],"loss_changes":[2.644215E1,7.3658724E0,2.941842E0,0E0,4.5103207E0,5.065212E-1,3.193838E0,1.9923115E0,0E0,0E0,0E0,2.7625215E-1,3.8241255E-1,8.470993E-1,0E0,0E0,0E0,0E0,0E0,0E0,0E0],"parents":[2147483647,0,0,1,1,2,2,4,4,5,5,6,6,7,7,11,11,12,12,13,13],"right_children":[2,4,6,-1,8,10,12,14,-1,-1,-1,16,18,20,-1,-1,-1,-1,-1,-1,-1],"split_conditions":[3.5834338E-3,1.4699138E-3,1E0,-2.5800472E-2,1E0,1.4591119E-3,-2.3001235E-2,2.9313358E-2,-2.2848522E-2,-2.915074E-2,3.44285E-3,-4.959267E-3,2.9707363E-2,3.6248323E-3,-1.7697243E-2,-2.5837092E-2,1.087765E-3,3.340948E-2,1.4073402E-4,1.7257103E-3,3.6800515E-2],"split_indices":[814,997,513,0,514,1000,331,533,0,0,0,573,48,647,0,0,0,0,0,0,0],"split_type":[0,0,0,0,0,0,0,0,0,0,0,0,0,0,0,0,0,0,0,0,0],"sum_hessian":[1.17346886E2,5.7547787E1,5.97991E1,5.899231E0,5.1648556E1,4.8520153E1,1.1278945E1,4.8538967E1,3.109586E0,4.75028E1,1.0173547E0,6.4012084E0,4.877736E0,4.7280235E1,1.258732E0,5.3735976E0,1.0276109E0,3.8147843E0,1.0629519E0,1.8926132E0,4.5387623E1],"tree_param":{"num_deleted":"0","num_feature":"1286","num_nodes":"21","size_leaf_vector":"1"}},{"base_weights":[-2.1237195E-3,-2.8256595E-2,3.8961153E-2],"categories":[],"categories_nodes":[],"categories_segments":[],"categories_sizes":[],"default_left":[0,0,0],"id":74,"left_children":[1,-1,-1],"loss_changes":[4.5738586E1,0E0,0E0],"parents":[2147483647,0,0],"right_children":[2,-1,-1],"split_conditions":[1E0,-2.8256595E-2,3.8961153E-2],"split_indices":[514,0,0],"split_type":[0,0,0],"sum_hessian":[1.0197283E2,5.942802E1,4.254481E1],"tree_param":{"num_deleted":"0","num_feature":"1286","num_nodes":"3","size_leaf_vector":"1"}},{"base_weights":[2.827438E-3,-4.8673025E-1,4.5027182E-1,-5.5194193E-1,3.4723875E-1,-3.5139415E-1,6.4359474E-1,-2.8461015E-2,6.9841603E-3,-4.114024E-3,2.9402226E-2,-2.6277825E-2,2.6138773E-2,7.0613647E-1,-6.743748E-2,-1.542893E-2,7.394229E-1,-2.1249538E-2,2.2832705E-2,3.8985421E-3,3.8358584E-2],"categories":[],"categories_nodes":[],"categories_segments":[],"categories_sizes":[],"default_left":[0,0,0,0,0,0,0,0,0,0,0,0,0,0,0,0,0,0,0,0,0],"id":75,"left_children":[1,3,5,7,9,11,13,-1,-1,-1,-1,-1,-1,15,17,-1,19,-1,-1,-1,-1],"loss_changes":[2.418527E1,3.059165E0,9.165865E0,6.6851807E-1,5.0738335E-1,2.0795522E0,2.130045E0,0E0,0E0,0E0,0E0,0E0,0E0,1.684927E0,1.0745847E0,0E0,7.1206474E-1,0E0,0E0,0E0,0E0],"parents":[2147483647,0,0,1,1,2,2,3,3,4,4,5,5,6,6,13,13,14,14,16,16],"right_children":[2,4,6,8,10,12,14,-1,-1,-1,-1,-1,-1,16,18,-1,20,-1,-1,-1,-1],"split_conditions":[1E0,1.8008808E-2,3.3064764E-3,7.6426035E-3,-2.2451162E-2,1.3600903E-2,1.3094403E-2,-2.8461015E-2,6.9841603E-3,-4.114024E-3,2.9402226E-2,-2.6277825E-2,2.6138773E-2,3.3552742E-3,3.8244095E-2,-1.542893E-2,-1.7172269E-3,-2.1249538E-2,2.2832705E-2,3.8985421E-3,3.8358584E-2],"split_indices":[516,755,1003,527,7,656,601,0,0,0,0,0,0,760,13,0,1076,0,0,0,0],"split_type":[0,0,0,0,0,0,0,0,0,0,0,0,0,0,0,0,0,0,0,0,0],"sum_hessian":[1.084094E2,5.172656E1,5.6682846E1,4.828882E1,3.4377408E0,1.0854414E1,4.582843E1,4.7284527E1,1.0042917E0,1.471455E0,1.9662857E0,9.38368E0,1.4707338E0,4.212963E1,3.6987991E0,1.0754311E0,4.10542E1,2.3111463E0,1.3876528E0,1.806326E0,3.9247875E1],"tree_param":{"num_deleted":"0","num_feature":"1286","num_nodes":"21","size_leaf_vector":"1"}},{"base_weights":[1.0791642E-3,4.24668E-2,-2.6263688E-2],"categories":[],"categories_nodes":[],"categories_segments":[],"categories_sizes":[],"default_left":[0,0,0],"id":76,"left_children":[1,-1,-1],"loss_changes":[2.9811035E1,0E0,0E0],"parents":[2147483647,0,0],"right_children":[2,-1,-1],"split_conditions":[6.0708774E-3,4.24668E-2,-2.6263688E-2],"split_indices":[881,0,0],"split_type":[0,0,0],"sum_hessian":[6.476944E1,2.4565954E1,4.0203487E1],"tree_param":{"num_deleted":"0","num_feature":"1286","num_nodes":"3","size_leaf_vector":"1"}},{"base_weights":[-1.5872339E-3,4.6796668E-1,-4.5747754E-1,-2.5484223E-2,5.8636934E-1,-5.629174E-1,-1.0943908E-3,6.601206E-1,-2.2506164E-2,3.5876394E-3,-2.8901085E-2,-4.3370196E-1,5.350961E-1,6.9386435E-1,-1.7462296E-2,1.0403362E-3,-2.5516456E-2,3.2815475E-2,-4.7636288E-4,1.4369249E-3,3.602766E-2],"categories":[],"categories_nodes":[],"categories_segments":[],"categories_sizes":[],"default_left":[0,0,0,0,0,0,0,0,0,0,0,0,0,0,0,0,0,0,0,0,0],"id":77,"left_children":[1,3,5,-1,7,9,11,13,-1,-1,-1,15,17,19,-1,-1,-1,-1,-1,-1,-1],"loss_changes":[2.4872932E1,6.9248295E0,2.8362436E0,0E0,4.2356243E0,5.0053024E-1,3.0308702E0,1.8943996E0,0E0,0E0,0E0,2.6243305E-1,3.914914E-1,8.184147E-1,0E0,0E0,0E0,0E0,0E0,0E0,0E0],"parents":[2147483647,0,0,1,1,2,2,4,4,5,5,6,6,7,7,11,11,12,12,13,13],"right_children":[2,4,6,-1,8,10,12,14,-1,-1,-1,16,18,20,-1,-1,-1,-1,-1,-1,-1],"split_conditions":[3.5834338E-3,1.4699138E-3,1E0,-2.5484223E-2,1E0,-2.9506002E-2,-1.6124103E-2,2.9313358E-2,-2.2506164E-2,3.5876394E-3,-2.8901085E-2,-3.2145544E-3,4.9553934E-2,-1.3823733E-2,-1.7462296E-2,1.0403362E-3,-2.5516456E-2,3.2815475E-2,-4.7636288E-4,1.4369249E-3,3.602766E-2],"split_indices":[814,997,513,0,514,272,85,533,0,0,0,929,125,536,0,0,0,0,0,0,0],"split_type":[0,0,0,0,0,0,0,0,0,0,0,0,0,0,0,0,0,0,0,0,0],"sum_hessian":[1.1419323E2,5.624057E1,5.795266E1,5.7184706E0,5.0522102E1,4.68868E1,1.1065863E1,4.7505016E1,3.0170832E0,1.0027235E0,4.5884075E1,6.230296E0,4.8355665E0,4.6270733E1,1.2342836E0,1.0039437E0,5.226352E0,3.7875295E0,1.0480369E0,1.8651514E0,4.4405582E1],"tree_param":{"num_deleted":"0","num_feature":"1286","num_nodes":"21","size_leaf_vector":"1"}},{"base_weights":[-2.1526888E-3,-2.8071303E-2,3.8022954E-2],"categories":[],"categories_nodes":[],"categories_segments":[],"categories_sizes":[],"default_left":[0,0,0],"id":78,"left_children":[1,-1,-1],"loss_changes":[4.3142326E1,0E0,0E0],"parents":[2147483647,0,0],"right_children":[2,-1,-1],"split_conditions":[1E0,-2.8071303E-2,3.8022954E-2],"split_indices":[514,0,0],"split_type":[0,0,0],"sum_hessian":[9.915132E1,5.7353813E1,4.1797512E1],"tree_param":{"num_deleted":"0","num_feature":"1286","num_nodes":"3","size_leaf_vector":"1"}},{"base_weights":[3.0737421E-3,-4.815921E-1,4.4091216E-1,-5.4731697E-1,3.3687752E-1,-3.458742E-1,6.285454E-1,-2.8249174E-2,6.788493E-3,2.8697858E-2,-4.2274515E-3,-2.6018757E-2,2.5457388E-2,7.0921165E-1,7.309341E-2,-1.5274579E-2,3.7233848E-2,2.6992856E-2,-2.2363616E-2],"categories":[],"categories_nodes":[],"categories_segments":[],"categories_sizes":[],"default_left":[0,0,0,0,0,0,0,0,0,0,0,0,0,0,0,0,0,0,0],"id":79,"left_children":[1,3,5,7,9,11,13,-1,-1,-1,-1,-1,-1,15,17,-1,-1,-1,-1],"loss_changes":[2.2819435E1,2.9300718E0,8.5573E0,6.514721E-1,4.8944157E-1,1.9842453E0,2.0078926E0,0E0,0E0,0E0,0E0,0E0,0E0,1.6678753E0,1.9281561E0,0E0,0E0,0E0,0E0],"parents":[2147483647,0,0,1,1,2,2,3,3,4,4,5,5,6,6,13,13,14,14],"right_children":[2,4,6,8,10,12,14,-1,-1,-1,-1,-1,-1,16,18,-1,-1,-1,-1],"split_conditions":[1E0,1.8008808E-2,3.3064764E-3,7.6426035E-3,5.785915E-2,1.3600903E-2,-8.7905506E-4,-2.8249174E-2,6.788493E-3,2.8697858E-2,-4.2274515E-3,-2.6018757E-2,2.5457388E-2,4.083987E-3,5.489421E-3,-1.5274579E-2,3.7233848E-2,2.6992856E-2,-2.2363616E-2],"split_indices":[516,755,1003,527,44,656,1000,0,0,0,0,0,0,760,1126,0,0,0,0],"split_type":[0,0,0,0,0,0,0,0,0,0,0,0,0,0,0,0,0,0,0],"sum_hessian":[1.0553406E2,5.004108E1,5.5492973E1,4.6628044E1,3.4130392E0,1.0523275E1,4.49697E1,4.562105E1,1.0069907E0,1.9526237E0,1.4604154E0,9.064663E0,1.4586123E0,3.9025368E1,5.9443297E0,1.0608003E0,3.796457E1,3.1138105E0,2.8305192E0],"tree_param":{"num_deleted":"0","num_feature":"1286","num_nodes":"19","size_leaf_vector":"1"}},{"base_weights":[1.1173E-3,4.119256E-2,-2.6160015E-2],"categories":[],"categories_nodes":[],"categories_segments":[],"categories_sizes":[],"default_left":[0,0,0],"id":80,"left_children":[1,-1,-1],"loss_changes":[2.8049587E1,0E0,0E0],"parents":[2147483647,0,0],"right_children":[2,-1,-1],"split_conditions":[6.0708774E-3,4.119256E-2,-2.6160015E-2],"split_indices":[881,0,0],"split_type":[0,0,0],"sum_hessian":[6.3024628E1,2.4308933E1,3.8715694E1],"tree_param":{"num_deleted":"0","num_feature":"1286","num_nodes":"3","size_leaf_vector":"1"}},{"base_weights":[-1.8072992E-3,4.5828086E-1,-4.5193627E-1,-2.51714E-2,5.7403123E-1,5.8598734E-2,-5.4486626E-1,6.461424E-1,-2.2169895E-2,5.089359E-1,-2.3740968E-2,1.6381133E-2,-2.8746828E-2,6.795397E-1,-1.72325E-2,-4.0551272E-4,3.1240085E-2,3.53066E-2,1.2822043E-3],"categories":[],"categories_nodes":[],"categories_segments":[],"categories_sizes":[],"default_left":[0,0,0,0,0,0,0,0,0,0,0,0,0,0,0,0,0,0,0],"id":81,"left_children":[1,3,5,-1,7,9,11,13,-1,15,-1,-1,-1,17,-1,-1,-1,-1,-1],"loss_changes":[2.3408066E1,6.511423E0,2.7424288E0,0E0,3.98131E0,2.571924E0,1.4589701E0,1.8037815E0,0E0,3.4909523E-1,0E0,0E0,0E0,7.8565407E-1,0E0,0E0,0E0,0E0,0E0],"parents":[2147483647,0,0,1,1,2,2,4,4,5,5,6,6,7,7,9,9,13,13],"right_children":[2,4,6,-1,8,10,12,14,-1,16,-1,-1,-1,18,-1,-1,-1,-1,-1],"split_conditions":[3.5834338E-3,1.4699138E-3,1.0619075E-3,-2.51714E-2,1E0,2.6360247E-2,4.976821E-3,2.9313358E-2,-2.2169895E-2,-6.2990755E-2,-2.3740968E-2,1.6381133E-2,-2.8746828E-2,4.9075015E-2,-1.72325E-2,-4.0551272E-4,3.1240085E-2,3.53066E-2,1.2822043E-3],"split_indices":[814,997,969,0,514,313,1155,533,0,33,0,0,0,327,0,0,0,0,0],"split_type":[0,0,0,0,0,0,0,0,0,0,0,0,0,0,0,0,0,0,0],"sum_hessian":[1.1102831E2,5.4897793E1,5.6130524E1,5.537809E0,4.935998E1,8.700652E0,4.742987E1,4.643387E1,2.9261131E0,4.7426095E0,3.9580426E0,1.2505317E0,4.6179337E1,4.522363E1,1.2102382E0,1.0384719E0,3.7041373E0,4.337961E1,1.8440218E0],"tree_param":{"num_deleted":"0","num_feature":"1286","num_nodes":"19","size_leaf_vector":"1"}},{"base_weights":[-2.1826609E-3,-2.7892916E-2,3.7155267E-2],"categories":[],"categories_nodes":[],"categories_segments":[],"categories_sizes":[],"default_left":[0,0,0],"id":82,"left_children":[1,-1,-1],"loss_changes":[4.0717327E1,0E0,0E0],"parents":[2147483647,0,0],"right_children":[2,-1,-1],"split_conditions":[1E0,-2.7892916E-2,3.7155267E-2],"split_indices":[514,0,0],"split_type":[0,0,0],"sum_hessian":[9.631718E1,5.532166E1,4.099552E1],"tree_param":{"num_deleted":"0","num_feature":"1286","num_nodes":"3","size_leaf_vector":"1"}},{"base_weights":[3.3129728E-3,-4.7652867E-1,4.3220022E-1,-5.42843E-1,3.2755142E-1,-3.4035793E-1,6.145294E-1,-2.8045768E-2,6.5953694E-3,2.804516E-2,-4.2993883E-3,-2.576153E-2,2.4807127E-2,6.74292E-1,-6.7865E-2,-1.4918893E-2,7.062971E-1,-2.06418E-2,2.1610832E-2,3.632674E-3,3.6651194E-2],"categories":[],"categories_nodes":[],"categories_segments":[],"categories_sizes":[],"default_left":[0,0,0,0,0,0,0,0,0,0,0,0,0,0,0,0,0,0,0,0,0],"id":83,"left_children":[1,3,5,7,9,11,13,-1,-1,-1,-1,-1,-1,15,17,-1,19,-1,-1,-1,-1],"loss_changes":[2.153426E1,2.811307E0,7.991457E0,6.349535E-1,4.715316E-1,1.8929348E0,1.8832092E0,0E0,0E0,0E0,0E0,0E0,0E0,1.5032425E0,9.6107584E-1,0E0,6.325073E-1,0E0,0E0,0E0,0E0],"parents":[2147483647,0,0,1,1,2,2,3,3,4,4,5,5,6,6,13,13,14,14,16,16],"right_children":[2,4,6,8,10,12,14,-1,-1,-1,-1,-1,-1,16,18,-1,20,-1,-1,-1,-1],"split_conditions":[1E0,1.8008808E-2,3.3064764E-3,7.6426035E-3,4.595948E-2,1.3600903E-2,1.3094403E-2,-2.8045768E-2,6.5953694E-3,2.804516E-2,-4.2993883E-3,-2.576153E-2,2.4807127E-2,3.3552742E-3,3.8244095E-2,-1.4918893E-2,-1.7172269E-3,-2.06418E-2,2.1610832E-2,3.632674E-3,3.6651194E-2],"split_indices":[516,755,1003,527,0,656,601,0,0,0,0,0,0,760,13,0,1076,0,0,0,0],"split_type":[0,0,0,0,0,0,0,0,0,0,0,0,0,0,0,0,0,0,0,0,0],"sum_hessian":[1.026371E2,4.838858E1,5.424852E1,4.500205E1,3.3865316E0,1.0192885E1,4.4055634E1,4.399247E1,1.0095774E0,1.9371108E0,1.4494208E0,8.74813E0,1.4447556E0,4.051894E1,3.5366921E0,1.0256429E0,3.9493298E1,2.1961713E0,1.3405206E0,1.7488818E0,3.7744415E1],"tree_param":{"num_deleted":"0","num_feature":"1286","num_nodes":"21","size_leaf_vector":"1"}},{"base_weights":[1.1257206E-3,4.0024836E-2,-2.605853E-2],"categories":[],"categories_nodes":[],"categories_segments":[],"categories_sizes":[],"default_left":[0,0,0],"id":84,"left_children":[1,-1,-1],"loss_changes":[2.6416632E1,0E0,0E0],"parents":[2147483647,0,0],"right_children":[2,-1,-1],"split_conditions":[6.0708774E-3,4.0024836E-2,-2.605853E-2],"split_indices":[881,0,0],"split_type":[0,0,0],"sum_hessian":[6.1272827E1,2.4003298E1,3.7269527E1],"tree_param":{"num_deleted":"0","num_feature":"1286","num_nodes":"3","size_leaf_vector":"1"}},{"base_weights":[-1.9691912E-3,5.2933526E-1,-3.7945527E-1,-2.3469912E-2,6.32656E-1,-5.553363E-1,1.15468636E-1,-1.8440923E-2,6.8217194E-1,3.1183294E-3,-2.8498271E-2,3.092417E-2,-2.3331514E-1,3.4488015E-2,1.0370202E-2,-2.6463801E-2,3.8244322E-1,2.5545744E-2,-4.5461804E-4],"categories":[],"categories_nodes":[],"categories_segments":[],"categories_sizes":[],"default_left":[0,0,0,0,0,0,0,0,0,0,0,0,0,0,0,0,0,0,0],"id":85,"left_children":[1,3,5,-1,7,9,11,-1,13,-1,-1,-1,15,-1,-1,-1,17,-1,-1],"loss_changes":[2.2032408E1,5.005725E0,5.6544113E0,0E0,2.3234158E0,4.65271E-1,3.2437212E0,0E0,1.6326904E-3,0E0,0E0,0E0,2.2359588E0,0E0,0E0,0E0,2.160514E-1,0E0,0E0],"parents":[2147483647,0,0,1,1,2,2,4,4,5,5,6,6,8,8,12,12,16,16],"right_children":[2,4,6,-1,8,10,12,-1,14,-1,-1,-1,16,-1,-1,-1,18,-1,-1],"split_conditions":[2.009502E-3,1.4699138E-3,1E0,-2.3469912E-2,-1.0077837E-2,-1.4720292E-2,-1.3210556E-3,-1.8440923E-2,8.497333E-2,3.1183294E-3,-2.8498271E-2,3.092417E-2,-1.6124103E-2,3.4488015E-2,1.0370202E-2,-2.6463801E-2,-1.1035356E-2,2.5545744E-2,-4.5461804E-4],"split_indices":[814,997,513,0,826,75,637,0,43,0,0,0,85,0,0,0,22,0,0],"split_type":[0,0,0,0,0,0,0,0,0,0,0,0,0,0,0,0,0,0,0],"sum_hessian":[1.0785293E2,4.463199E1,6.322094E1,3.852197E0,4.0779793E1,4.655473E1,1.666621E1,1.6174744E0,3.916232E1,1.0015552E0,4.5553173E1,6.5076475E0,1.0158564E1,3.8100513E1,1.0618036E0,6.955763E0,3.2028003E0,2.1819525E0,1.0208479E0],"tree_param":{"num_deleted":"0","num_feature":"1286","num_nodes":"19","size_leaf_vector":"1"}},{"base_weights":[-2.2998685E-3,-2.7721388E-2,3.6347706E-2],"categories":[],"categories_nodes":[],"categories_segments":[],"categories_sizes":[],"default_left":[0,0,0],"id":86,"left_children":[1,-1,-1],"loss_changes":[3.844414E1,0E0,0E0],"parents":[2147483647,0,0],"right_children":[2,-1,-1],"split_conditions":[1E0,-2.7721388E-2,3.6347706E-2],"split_indices":[514,0,0],"split_type":[0,0,0],"sum_hessian":[9.347883E1,5.3336662E1,4.0142166E1],"tree_param":{"num_deleted":"0","num_feature":"1286","num_nodes":"3","size_leaf_vector":"1"}},{"base_weights":[3.588209E-3,-4.716061E-1,4.2402095E-1,-5.385189E-1,3.1895342E-1,-3.349862E-1,6.0139644E-1,-2.78514E-2,6.497353E-3,-4.4084317E-3,2.7457044E-2,-2.5509937E-2,2.4185227E-2,6.7916816E-1,6.797362E-2,-1.4775197E-2,3.5673317E-2,-2.1820847E-2,2.5711795E-2],"categories":[],"categories_nodes":[],"categories_segments":[],"categories_sizes":[],"default_left":[0,0,0,0,0,0,0,0,0,0,0,0,0,0,0,0,0,0,0],"id":87,"left_children":[1,3,5,7,9,11,13,-1,-1,-1,-1,-1,-1,15,17,-1,-1,-1,-1],"loss_changes":[2.032994E1,2.6988125E0,7.469473E0,6.219263E-1,4.5662636E-1,1.8058168E0,1.7840347E0,0E0,0E0,0E0,0E0,0E0,0E0,1.494257E0,1.738129E0,0E0,0E0,0E0,0E0],"parents":[2147483647,0,0,1,1,2,2,3,3,4,4,5,5,6,6,13,13,14,14],"right_children":[2,4,6,8,10,12,14,-1,-1,-1,-1,-1,-1,16,18,-1,-1,-1,-1],"split_conditions":[1E0,1.8008808E-2,3.3064764E-3,7.6426035E-3,-2.2451162E-2,1.3600903E-2,-8.7905506E-4,-2.78514E-2,6.497353E-3,-4.4084317E-3,2.7457044E-2,-2.5509937E-2,2.4185227E-2,4.083987E-3,1.6400907E-2,-1.4775197E-2,3.5673317E-2,-2.1820847E-2,2.5711795E-2],"split_indices":[516,755,1003,527,7,656,1000,0,0,0,0,0,0,760,1041,0,0,0,0],"split_type":[0,0,0,0,0,0,0,0,0,0,0,0,0,0,0,0,0,0,0],"sum_hessian":[9.9757034E1,4.677164E1,5.298539E1,4.3415756E1,3.3558874E0,9.868507E0,4.3116882E1,4.2408222E1,1.0075315E0,1.4349418E0,1.9209455E0,8.439199E0,1.4293077E0,3.7391994E1,5.7248855E0,1.0121927E0,3.6379803E1,2.6977735E0,3.0271118E0],"tree_param":{"num_deleted":"0","num_feature":"1286","num_nodes":"19","size_leaf_vector":"1"}},{"base_weights":[1.1572533E-3,3.8958896E-2,-2.5959468E-2],"categories":[],"categories_nodes":[],"categories_segments":[],"categories_sizes":[],"default_left":[0,0,0],"id":88,"left_children":[1,-1,-1],"loss_changes":[2.4908035E1,0E0,0E0],"parents":[2147483647,0,0],"right_children":[2,-1,-1],"split_conditions":[6.0708774E-3,3.8958896E-2,-2.5959468E-2],"split_indices":[881,0,0],"split_type":[0,0,0],"sum_hessian":[5.9526306E1,2.3657003E1,3.58693E1],"tree_param":{"num_deleted":"0","num_feature":"1286","num_nodes":"3","size_leaf_vector":"1"}},{"base_weights":[-1.9394016E-3,4.4105542E-1,-4.413841E-1,-2.457024E-2,5.522475E-1,5.9486054E-2,-5.350657E-1,6.2159467E-1,-2.1521745E-2,4.8870856E-1,-2.3146464E-2,1.5745044E-2,-2.829862E-2,6.543701E-1,-1.6734077E-2,-5.811578E-4,3.0049285E-2,9.522276E-4,3.402684E-2],"categories":[],"categories_nodes":[],"categories_segments":[],"categories_sizes":[],"default_left":[0,0,0,0,0,0,0,0,0,0,0,0,0,0,0,0,0,0,0],"id":89,"left_children":[1,3,5,-1,7,9,11,13,-1,15,-1,-1,-1,17,-1,-1,-1,-1,-1],"loss_changes":[2.0769016E1,5.7801437E0,2.5448046E0,0E0,3.534584E0,2.3202558E0,1.3660746E0,1.6353817E0,0E0,3.223015E-1,0E0,0E0,0E0,7.190304E-1,0E0,0E0,0E0,0E0,0E0],"parents":[2147483647,0,0,1,1,2,2,4,4,5,5,6,6,7,7,9,9,13,13],"right_children":[2,4,6,-1,8,10,12,14,-1,16,-1,-1,-1,18,-1,-1,-1,-1,-1],"split_conditions":[3.5834338E-3,1.4699138E-3,1.0619075E-3,-2.457024E-2,1E0,2.6360247E-2,4.976821E-3,2.9313358E-2,-2.1521745E-2,-6.2990755E-2,-2.3146464E-2,1.5745044E-2,-2.829862E-2,3.6248323E-3,-1.6734077E-2,-5.811578E-4,3.0049285E-2,9.522276E-4,3.402684E-2],"split_indices":[814,997,969,0,514,313,1155,533,0,33,0,0,0,647,0,0,0,0,0],"split_type":[0,0,0,0,0,0,0,0,0,0,0,0,0,0,0,0,0,0,0],"sum_hessian":[1.04687355E2,5.213127E1,5.2556087E1,5.189824E0,4.694145E1,8.338607E0,4.421748E1,4.4190414E1,2.751032E0,4.6130185E0,3.7255883E0,1.2290329E0,4.2988445E1,4.303127E1,1.159148E0,1.0097644E0,3.603254E0,1.7705318E0,4.1260735E1],"tree_param":{"num_deleted":"0","num_feature":"1286","num_nodes":"19","size_leaf_vector":"1"}},{"base_weights":[-2.411593E-3,-2.7557138E-2,3.560288E-2],"categories":[],"categories_nodes":[],"categories_segments":[],"categories_sizes":[],"default_left":[0,0,0],"id":90,"left_children":[1,-1,-1],"loss_changes":[3.6328865E1,0E0,0E0],"parents":[2147483647,0,0],"right_children":[2,-1,-1],"split_conditions":[1E0,-2.7557138E-2,3.560288E-2],"split_indices":[514,0,0],"split_type":[0,0,0],"sum_hessian":[9.0662506E1,5.140823E1,3.9254276E1],"tree_param":{"num_deleted":"0","num_feature":"1286","num_nodes":"3","size_leaf_vector":"1"}},{"base_weights":[3.6374587E-3,-4.6683177E-1,4.1611943E-1,-5.343415E-1,3.1021333E-1,-2.3165083E-1,6.1712754E-1,-2.766397E-2,6.3582E-3,2.6881715E-2,-4.5223203E-3,-2.5575364E-2,4.0309456E-1,6.6637826E-1,-1.0520085E-2,2.6688278E-2,-1.627725E-3,1.4817691E-3,6.9700944E-1,1.0545193E-2,3.529736E-2],"categories":[],"categories_nodes":[],"categories_segments":[],"categories_sizes":[],"default_left":[0,0,0,0,0,0,0,0,0,0,0,0,0,0,0,0,0,0,0,0,0],"id":91,"left_children":[1,3,5,7,9,11,13,-1,-1,-1,-1,-1,15,17,-1,-1,-1,-1,19,-1,-1],"loss_changes":[1.9186106E1,2.58883E0,7.001651E0,6.073561E-1,4.4270942E-1,2.551296E0,1.7897644E0,0E0,0E0,0E0,0E0,0E0,2.791714E-1,7.290859E-1,0E0,0E0,0E0,0E0,1.0263443E-2,0E0,0E0],"parents":[2147483647,0,0,1,1,2,2,3,3,4,4,5,5,6,6,12,12,13,13,18,18],"right_children":[2,4,6,8,10,12,14,-1,-1,-1,-1,-1,16,18,-1,-1,-1,-1,20,-1,-1],"split_conditions":[1E0,1.8008808E-2,9.330241E-3,7.6426035E-3,5.785915E-2,6.1951303E-3,7.7113E-3,-2.766397E-2,6.3582E-3,2.6881715E-2,-4.5223203E-3,-2.5575364E-2,2.6785715E-2,1.9724306E-3,-1.0520085E-2,