{"learner":{"attributes":{"scikit_learn":"{\"_estimator_type\": \"classifier\"}"},"feature_names":[],"feature_types":[],"gradient_booster":{"model":{"cats":{"enc":[],"feature_segments":[],"sorted_idx":[]},"gbtree_model_param":{"num_parallel_tree":"1","num_trees":"1200"},"iteration_indptr":[0,4,8,12,16,20,24,28,32,36,40,44,48,52,56,60,64,68,72,76,80,84,88,92,96,100,104,108,112,116,120,124,128,132,136,140,144,148,152,156,160,164,168,172,176,180,184,188,192,196,200,204,208,212,216,220,224,228,232,236,240,244,248,252,256,260,264,268,272,276,280,284,288,292,296,300,304,308,312,316,320,324,328,332,336,340,344,348,352,356,360,364,368,372,376,380,384,388,392,396,400,404,408,412,416,420,424,428,432,436,440,444,448,452,456,460,464,468,472,476,480,484,488,492,496,500,504,508,512,516,520,524,528,532,536,540,544,548,552,556,560,564,568,572,576,580,584,588,592,596,600,604,608,612,616,620,624,628,632,636,640,644,648,652,656,660,664,668,672,676,680,684,688,692,696,700,704,708,712,716,720,724,728,732,736,740,744,748,752,756,760,764,768,772,776,780,784,788,792,796,800,804,808,812,816,820,824,828,832,836,840,844,848,852,856,860,864,868,872,876,880,884,888,892,896,900,904,908,912,916,920,924,928,932,936,940,944,948,952,956,960,964,968,972,976,980,984,988,992,996,1000,1004,1008,1012,1016,1020,1024,1028,1032,1036,1040,1044,1048,1052,1056,1060,1064,1068,1072,1076,1080,1084,1088,1092,1096,1100,1104,1108,1112,1116,1120,1124,1128,1132,1136,1140,1144,1148,1152,1156,1160,1164,1168,1172,1176,1180,1184,1188,1192,1196,1200],"tree_info":[0,1,2,3,0,1,2,3,0,1,2,3,0,1,2,3,0,1,2,3,0,1,2,3,0,1,2,3,0,1,2,3,0,1,2,3,0,1,2,3,0,1,2,3,0,1,2,3,0,1,2,3,0,1,2,3,0,1,2,3,0,1,2,3,0,1,2,3,0,1,2,3,0,1,2,3,0,1,2,3,0,1,2,3,0,1,2,3,0,1,2,3,0,1,2,3,0,1,2,3,0,1,2,3,0,1,2,3,0,1,2,3,0,1,2,3,0,1,2,3,0,1,2,3,0,1,2,3,0,1,2,3,0,1,2,3,0,1,2,3,0,1,2,3,0,1,2,3,0,1,2,3,0,1,2,3,0,1,2,3,0,1,2,3,0,1,2,3,0,1,2,3,0,1,2,3,0,1,2,3,0,1,2,3,0,1,2,3,0,1,2,3,0,1,2,3,0,1,2,3,0,1,2,3,0,1,2,3,0,1,2,3,0,1,2,3,0,1,2,3,0,1,2,3,0,1,2,3,0,1,2,3,0,1,2,3,0,1,2,3,0,1,2,3,0,1,2,3,0,1,2,3,0,1,2,3,0,1,2,3,0,1,2,3,0,1,2,3,0,1,2,3,0,1,2,3,0,1,2,3,0,1,2,3,0,1,2,3,0,1,2,3,0,1,2,3,0,1,2,3,0,1,2,3,0,1,2,3,0,1,2,3,0,1,2,3,0,1,2,3,0,1,2,3,0,1,2,3,0,1,2,3,0,1,2,3,0,1,2,3,0,1,2,3,0,1,2,3,0,1,2,3,0,1,2,3,0,1,2,3,0,1,2,3,0,1,2,3,0,1,2,3,0,1,2,3,0,1,2,3,0,1,2,3,0,1,2,3,0,1,2,3,0,1,2,3,0,1,2,3,0,1,2,3,0,1,2,3,0,1,2,3,0,1,2,3,0,1,2,3,0,1,2,3,0,1,2,3,0,1,2,3,0,1,2,3,0,1,2,3,0,1,2,3,0,1,2,3,0,1,2,3,0,1,2,3,0,1,2,3,0,1,2,3,0,1,2,3,0,1,2,3,0,1,2,3,0,1,2,3,0,1,2,3,0,1,2,3,0,1,2,3,0,1,2,3,0,1,2,3,0,1,2,3,0,1,2,3,0,1,2,3,0,1,2,3,0,1,2,3,0,1,2,3,0,1,2,3,0,1,2,3,0,1,2,3,0,1,2,3,0,1,2,3,0,1,2,3,0,1,2,3,0,1,2,3,0,1,2,3,0,1,2,3,0,1,2,3,0,1,2,3,0,1,2,3,0,1,2,3,0,1,2,3,0,1,2,3,0,1,2,3,0,1,2,3,0,1,2,3,0,1,2,3,0,1,2,3,0,1,2,3,0,1,2,3,0,1,2,3,0,1,2,3,0,1,2,3,0,1,2,3,0,1,2,3,0,1,2,3,0,1,2,3,0,1,2,3,0,1,2,3,0,1,2,3,0,1,2,3,0,1,2,3,0,1,2,3,0,1,2,3,0,1,2,3,0,1,2,3,0,1,2,3,0,1,2,3,0,1,2,3,0,1,2,3,0,1,2,3,0,1,2,3,0,1,2,3,0,1,2,3,0,1,2,3,0,1,2,3,0,1,2,3,0,1,2,3,0,1,2,3,0,1,2,3,0,1,2,3,0,1,2,3,0,1,2,3,0,1,2,3,0,1,2,3,0,1,2,3,0,1,2,3,0,1,2,3,0,1,2,3,0,1,2,3,0,1,2,3,0,1,2,3,0,1,2,3,0,1,2,3,0,1,2,3,0,1,2,3,0,1,2,3,0,1,2,3,0,1,2,3,0,1,2,3,0,1,2,3,0,1,2,3,0,1,2,3,0,1,2,3,0,1,2,3,0,1,2,3,0,1,2,3,0,1,2,3,0,1,2,3,0,1,2,3,0,1,2,3,0,1,2,3,0,1,2,3,0,1,2,3,0,1,2,3,0,1,2,3,0,1,2,3,0,1,2,3,0,1,2,3,0,1,2,3,0,1,2,3,0,1,2,3,0,1,2,3,0,1,2,3,0,1,2,3,0,1,2,3,0,1,2,3,0,1,2,3,0,1,2,3,0,1,2,3,0,1,2,3,0,1,2,3,0,1,2,3,0,1,2,3,0,1,2,3,0,1,2,3,0,1,2,3,0,1,2,3,0,1,2,3,0,1,2,3,0,1,2,3,0,1,2,3,0,1,2,3,0,1,2,3,0,1,2,3,0,1,2,3,0,1,2,3,0,1,2,3,0,1,2,3,0,1,2,3,0,1,2,3,0,1,2,3,0,1,2,3,0,1,2,3,0,1,2,3,0,1,2,3,0,1,2,3,0,1,2,3,0,1,2,3,0,1,2,3,0,1,2,3,0,1,2,3,0,1,2,3,0,1,2,3,0,1,2,3,0,1,2,3,0,1,2,3,0,1,2,3,0,1,2,3,0,1,2,3,0,1,2,3,0,1,2,3,0,1,2,3,0,1,2,3,0,1,2,3,0,1,2,3,0,1,2,3,0,1,2,3,0,1,2,3,0,1,2,3,0,1,2,3,0,1,2,3,0,1,2,3,0,1,2,3,0,1,2,3,0,1,2,3,0,1,2,3,0,1,2,3,0,1,2,3,0,1,2,3,0,1,2,3,0,1,2,3,0,1,2,3,0,1,2,3,0,1,2,3,0,1,2,3],"trees":[{"base_weights":[4.158537E-3,1.6834389E0,-6.445231E-1,1.9482617E0,4.9181738E-1,-3.3264913E-2,1.0457461E0,1.9777089E0,-2.1124713E-2,1.3904004E0,-2.3826785E-1,7.934491E-2,-2.0157872E-2,9.934387E-2,2.5620833E-2,1.7522392E0,-2.3621349E-2,1.0565424E0,-3.131835E-2,9.201565E-2,2.5620833E-2,7.544886E-2,-1.7225651E-2],"categories":[],"categories_nodes":[],"categories_segments":[],"categories_sizes":[],"default_left":[0,0,0,0,0,0,0,0,0,0,0,0,0,0,0,0,0,0,0,0,0,0,0],"id":0,"left_children":[1,3,5,7,9,-1,11,13,-1,15,17,-1,-1,-1,-1,19,-1,21,-1,-1,-1,-1,-1],"loss_changes":[7.440528E2,5.9103394E1,1.7997894E1,1.1683228E1,2.3912554E1,0E0,5.635386E0,1.0461426E0,0E0,1.17872715E1,1.1056528E1,0E0,0E0,0E0,0E0,5.668564E-1,0E0,3.7796268E0,0E0,0E0,0E0,0E0,0E0],"parents":[2147483647,0,0,1,1,2,2,3,3,4,4,6,6,7,7,9,9,10,10,15,15,17,17],"right_children":[2,4,6,8,10,-1,12,14,-1,16,18,-1,-1,-1,-1,20,-1,22,-1,-1,-1,-1,-1],"split_conditions":[-7.590783E-1,1.2492206E0,2.1143837E0,6.28902E-2,1.2013767E0,-3.3264913E-2,1.11624755E-1,1.6160831E0,-2.1124713E-2,6.0209006E-1,-3.0750875E0,7.934491E-2,-2.0157872E-2,9.934387E-2,2.5620833E-2,8.9819545E-1,-2.3621349E-2,3.1162957E-2,-3.131835E-2,9.201565E-2,2.5620833E-2,7.544886E-2,-1.7225651E-2],"split_indices":[1015,796,528,1141,1008,0,195,530,0,291,598,0,0,0,0,1,0,9,0,0,0,0,0],"split_type":[0,0,0,0,0,0,0,0,0,0,0,0,0,0,0,0,0,0,0,0,0,0,0],"sum_hessian":[6.810484E2,1.8932819E2,4.9172018E2,1.5438344E2,3.4944744E1,4.8634885E2,5.3713326E0,1.5265312E2,1.730315E0,1.5259294E1,1.9685452E1,3.8413742E0,1.5299585E0,1.5135014E2,1.3029788E0,1.2827102E1,2.4321926E0,4.142507E0,1.5542944E1,1.1524122E1,1.3029788E0,3.0730994E0,1.0694077E0],"tree_param":{"num_deleted":"0","num_feature":"1286","num_nodes":"23","size_leaf_vector":"1"}},{"base_weights":[-1.0505929E-2,1.8947177E0,-5.231812E-1,-8.71367E-2,9.9270895E-2,-6.4705557E-1,6.734067E-1,5.6930292E-2,-2.7693925E-2,7.568784E-2,-6.6154134E-1,-3.1358764E-1,1.3789182E0,7.2554894E-2,-2.9032702E-2,2.1983547E-2,-3.3262823E-2,-5.444283E-1,6.647363E-2,-2.7285052E-2,1.7464497E0,2.1983547E-2,-3.1548522E-2,9.48266E-2,-1.98389E-2],"categories":[],"categories_nodes":[],"categories_segments":[],"categories_sizes":[],"default_left":[0,0,0,0,0,0,0,0,0,0,0,0,0,0,0,0,0,0,0,0,0,0,0,0,0],"id":1,"left_children":[1,3,5,7,-1,9,11,-1,-1,13,15,17,19,-1,-1,-1,-1,21,-1,-1,23,-1,-1,-1,-1],"loss_changes":[6.6049286E2,2.5946167E1,7.941272E1,4.7684617E0,0E0,5.110382E0,3.5579193E1,0E0,0E0,1.022605E1,2.23143E0,9.012881E0,2.1904575E1,0E0,0E0,0E0,0E0,1.9698176E0,0E0,0E0,8.828827E0,0E0,0E0,0E0,0E0],"parents":[2147483647,0,0,1,1,2,2,3,3,5,5,6,6,9,9,10,10,11,11,12,12,17,17,20,20],"right_children":[2,4,6,8,-1,10,12,-1,-1,14,16,18,20,-1,-1,-1,-1,22,-1,-1,24,-1,-1,-1,-1],"split_conditions":[-1.3849217E0,-1.203592E0,3.7729166E0,-6.4170873E-1,9.9270895E-2,-3.3174303E0,-1.6165862E0,5.6930292E-2,-2.7693925E-2,2.3373208E0,-2.160117E0,1.8408672E0,9.2431957E-1,7.2554894E-2,-2.9032702E-2,2.1983547E-2,-3.3262823E-2,-1.7871691E0,6.647363E-2,-2.7285052E-2,5.840148E-3,2.1983547E-2,-3.1548522E-2,9.48266E-2,-1.98389E-2],"split_indices":[1126,1064,516,0,0,1134,1016,0,0,683,793,648,612,0,0,0,0,10,0,0,1206,0,0,0,0],"split_type":[0,0,0,0,0,0,0,0,0,0,0,0,0,0,0,0,0,0,0,0,0,0,0,0,0],"sum_hessian":[6.741924E2,1.423797E2,5.318127E2,6.232606E0,1.361471E2,4.8233878E2,4.9473892E1,1.3218164E0,4.9107895E0,9.394436E0,4.7294434E2,2.0854477E1,2.8619417E1,2.643633E0,6.7508035E0,1.1956129E0,4.7174872E2,1.8871752E1,1.9827247E0,4.5112085E0,2.4108208E1,1.1956129E0,1.7676138E1,2.2638054E1,1.4701546E0],"tree_param":{"num_deleted":"0","num_feature":"1286","num_nodes":"25","size_leaf_vector":"1"}},{"base_weights":[1.70783E-2,-6.580976E-1,9.940836E-2,2.2263482E-2,-6.6259724E-1,-3.3219784E-2,-2.4840803E-1,-9.204099E-4,-1.8976828E-2],"categories":[],"categories_nodes":[],"categories_segments":[],"categories_sizes":[],"default_left":[0,0,0,0,0,0,0,0,0],"id":2,"left_children":[1,3,-1,-1,5,-1,7,-1,-1],"loss_changes":[8.8244574E2,2.747223E0,0E0,0E0,2.0167542E-1,0E0,1.0537532E-1,0E0,0E0],"parents":[2147483647,0,0,1,1,4,4,6,6],"right_children":[2,4,-1,-1,6,-1,8,-1,-1],"split_conditions":[6.6491497E-1,-2.2717297E0,9.940836E-2,2.2263482E-2,3.9139836E0,-3.3219784E-2,2.9467756E-1,-9.204099E-4,-1.8976828E-2],"split_indices":[929,684,0,0,739,0,14,0,0],"split_type":[0,0,0,0,0,0,0,0,0],"sum_hessian":[6.610953E2,4.929176E2,1.6817766E2,1.6041521E0,4.9131345E2,4.8858786E2,2.7255843E0,1.4037626E0,1.3218216E0],"tree_param":{"num_deleted":"0","num_feature":"1286","num_nodes":"9","size_leaf_vector":"1"}},{"base_weights":[-1.0312315E-2,-5.5454516E-1,1.8458505E0,-6.1799306E-1,1.4294893E0,1.9718888E0,1.263686E-1,-6.31743E-1,7.277834E-2,9.091843E-2,-1.6585736E-1,1.2097977E-2,9.929947E-2,7.6237194E-2,-2.9374693E-2,-6.455465E-1,6.612328E-1,-2.2157839E-2,1.4319614E-2,-3.2557484E-2,3.1099278E-2,-2.2908362E-2,7.277834E-2],"categories":[],"categories_nodes":[],"categories_segments":[],"categories_sizes":[],"default_left":[0,0,0,0,0,0,0,0,0,0,0,0,0,0,0,0,0,0,0,0,0,0,0],"id":3,"left_children":[1,3,5,7,9,11,13,15,-1,-1,17,-1,-1,-1,-1,19,21,-1,-1,-1,-1,-1,-1],"loss_changes":[6.88944E2,6.7268555E1,3.326184E1,1.5509186E1,1.0627293E1,3.0321045E0,1.2504075E1,9.511963E0,0E0,0E0,6.509153E-1,0E0,0E0,0E0,0E0,3.985672E0,5.887233E0,0E0,0E0,0E0,0E0,0E0,0E0],"parents":[2147483647,0,0,1,1,2,2,3,3,4,4,5,5,6,6,7,7,10,10,15,15,16,16],"right_children":[2,4,6,8,10,12,14,16,-1,-1,18,-1,-1,-1,-1,20,22,-1,-1,-1,-1,-1,-1],"split_conditions":[7.789391E-1,1.6634318E0,-1.8293771E-1,3.258327E0,-1.7318697E0,-2.1537924E0,-8.913926E-1,3.6392293E0,7.277834E-2,9.091843E-2,-4.8941565E-1,1.2097977E-2,9.929947E-2,7.6237194E-2,-2.9374693E-2,1.3945106E0,-3.0566266E-1,-2.2157839E-2,1.4319614E-2,-3.2557484E-2,3.1099278E-2,-2.2908362E-2,7.277834E-2],"split_indices":[971,1170,814,1194,995,7,424,903,0,0,1,0,0,0,0,864,11,0,0,0,0,0,0],"split_type":[0,0,0,0,0,0,0,0,0,0,0,0,0,0,0,0,0,0,0,0,0,0,0],"sum_hessian":[6.7998474E2,5.2635657E2,1.5362817E2,5.107129E2,1.5643695E1,1.429995E2,1.06286745E1,5.0803937E2,2.6735191E0,1.2465363E1,3.1783328E0,1.3029788E0,1.4169652E2,3.208223E0,7.4204516E0,5.031684E2,4.870976E0,1.9827216E0,1.195611E0,5.0143808E2,1.730315E0,2.1974568E0,2.6735191E0],"tree_param":{"num_deleted":"0","num_feature":"1286","num_nodes":"23","size_leaf_vector":"1"}},{"base_weights":[-1.24487225E-2,1.5553007E0,-6.287386E-1,-7.650568E-2,1.7552221E0,-6.41161E-1,6.849804E-2,7.520656E-2,-5.127358E-1,1.7820746E0,-2.1664806E-2,5.970196E-2,-6.495124E-1,-3.114304E-2,2.440567E-2,1.7991525E0,-1.7865634E-2,4.3770432E-2,-3.2894544E-2,9.0329595E-2,2.469091E-2],"categories":[],"categories_nodes":[],"categories_segments":[],"categories_sizes":[],"default_left":[0,0,0,0,0,0,0,0,0,0,0,0,0,0,0,0,0,0,0,0,0],"id":4,"left_children":[1,3,5,7,9,11,-1,-1,13,15,-1,-1,17,-1,-1,19,-1,-1,-1,-1,-1],"loss_changes":[6.5807477E2,6.283484E1,1.3017059E1,1.5895971E1,1.083667E1,8.232742E0,0E0,0E0,2.2809663E0,6.83136E0,0E0,0E0,6.772537E0,0E0,0E0,7.41272E-1,0E0,0E0,0E0,0E0,0E0],"parents":[2147483647,0,0,1,1,2,2,3,3,4,4,5,5,8,8,9,9,12,12,15,15],"right_children":[2,4,6,8,10,12,-1,-1,14,16,-1,-1,18,-1,-1,20,-1,-1,-1,-1,-1],"split_conditions":[-7.590783E-1,-1.8277912E0,2.1188717E0,-1.9119295E0,1.6770303E0,-2.6342862E0,6.849804E-2,7.520656E-2,1.642326E0,-4.1937655E-1,-2.1664806E-2,5.970196E-2,-1.2642342E0,-3.114304E-2,2.440567E-2,1.7179137E0,-1.7865634E-2,4.3770432E-2,-3.2894544E-2,9.0329595E-2,2.469091E-2],"split_indices":[1015,867,928,947,1224,540,0,0,257,1188,0,0,773,0,0,12,0,0,0,0,0],"split_type":[0,0,0,0,0,0,0,0,0,0,0,0,0,0,0,0,0,0,0,0,0],"sum_hessian":[6.790921E2,1.9119554E2,4.8789658E2,2.0935144E1,1.7026039E2,4.855579E2,2.338661E0,3.9985974E0,1.6936546E1,1.6838014E2,1.8802606E0,1.5564439E0,4.8400146E2,1.5597948E1,1.3385992E0,1.6720444E2,1.175695E0,2.0792713E0,4.8192218E2,1.6587508E2,1.3293662E0],"tree_param":{"num_deleted":"0","num_feature":"1286","num_nodes":"21","size_leaf_vector":"1"}},{"base_weights":[-5.6878063E-3,1.6534019E0,-5.4648715E-1,-4.1252312E-1,1.7673455E0,1.1529554E0,-6.157718E-1,2.0910433E-2,-2.9213095E-2,-1.7795874E-2,1.7843817E0,-2.343779E-1,1.5755682E0,8.9356387E-1,-6.330834E-1,9.015813E-2,8.204924E-3,2.206672E-2,-2.565289E-2,8.4875606E-2,1.3881891E-2,-2.0163879E-2,7.197855E-2,7.6471984E-1,-6.4363223E-1,6.2034648E-2,-1.6726814E-2,-3.2715656E-2,1.7963285E-2],"categories":[],"categories_nodes":[],"categories_segments":[],"categories_sizes":[],"default_left":[0,0,0,0,0,0,0,0,0,0,0,0,0,0,0,0,0,0,0,0,0,0,0,0,0,0,0,0,0],"id":5,"left_children":[1,3,5,7,9,11,13,-1,-1,-1,15,17,19,21,23,-1,-1,-1,-1,-1,-1,-1,-1,25,27,-1,-1,-1,-1],"loss_changes":[6.1356445E2,4.030182E1,6.143387E1,1.6136779E0,6.4049683E0,1.2417871E1,1.3530273E1,0E0,0E0,0E0,4.5245056E0,1.2939134E0,2.0422974E0,4.8581705E0,7.7339783E0,0E0,0E0,0E0,0E0,0E0,0E0,0E0,0E0,2.5789073E0,5.4624023E0,0E0,0E0,0E0,0E0],"parents":[2147483647,0,0,1,1,2,2,3,3,4,4,5,5,6,6,10,10,11,11,12,12,13,13,14,14,23,23,24,24],"right_children":[2,4,6,8,10,12,14,-1,-1,-1,16,18,20,22,24,-1,-1,-1,-1,-1,-1,-1,-1,26,28,-1,-1,-1,-1],"split_conditions":[-9.150698E-1,-1.9324394E0,-1.1406219E0,-1.6001997E0,-1.9440992E0,-6.788523E-1,-1.0395843E0,2.0910433E-2,-2.9213095E-2,-1.7795874E-2,1.16557404E-1,1.9052714E-1,9.977252E-1,-1.2780902E-1,-1.5812098E0,9.015813E-2,8.204924E-3,2.206672E-2,-2.565289E-2,8.4875606E-2,1.3881891E-2,-2.0163879E-2,7.197855E-2,-8.3493394E-1,2.6635332E0,6.2034648E-2,-1.6726814E-2,-3.2715656E-2,1.7963285E-2],"split_indices":[1126,1016,737,35,1130,664,669,0,0,0,610,3,646,105,931,0,0,0,0,0,0,0,0,16,541,0,0,0,0],"split_type":[0,0,0,0,0,0,0,0,0,0,0,0,0,0,0,0,0,0,0,0,0,0,0,0,0,0,0,0,0],"sum_hessian":[6.818324E2,1.671093E2,5.147231E2,8.597989E0,1.5851132E2,1.9550053E1,4.9517303E2,1.227107E0,7.370882E0,1.10337E0,1.5740794E2,4.6688333E0,1.4881219E1,5.041121E0,4.901319E2,1.5549275E2,1.9151967E0,1.1928589E0,3.4759743E0,1.3321747E1,1.5594721E0,1.5710554E0,3.4700656E0,3.1356707E0,4.8699625E2,2.0984046E0,1.037266E0,4.8220828E2,4.787953E0],"tree_param":{"num_deleted":"0","num_feature":"1286","num_nodes":"29","size_leaf_vector":"1"}},{"base_weights":[-7.6684956E-3,9.019918E-2,-6.5181655E-1,-6.5441847E-1,3.6925804E-3,-1.1096121E-2,-6.570568E-1,-1.6838497E-2,1.6135726E-2,-1.0587429E-2,-3.2896843E-2],"categories":[],"categories_nodes":[],"categories_segments":[],"categories_sizes":[],"default_left":[0,0,0,0,0,0,0,0,0,0,0],"id":6,"left_children":[1,-1,3,5,-1,7,9,-1,-1,-1,-1],"loss_changes":[7.9879706E2,0E0,1.0017548E0,8.4687805E-1,0E0,4.427177E-1,5.709839E-2,0E0,0E0,0E0,0E0],"parents":[2147483647,0,0,2,2,3,3,5,5,6,6],"right_children":[2,-1,4,6,-1,8,10,-1,-1,-1,-1],"split_conditions":[-7.300951E-1,9.019918E-2,3.9139836E0,-3.2900486E0,3.6925804E-3,-1.2107383E0,-7.416684E-1,-1.6838497E-2,1.6135726E-2,-1.0587429E-2,-3.2896843E-2],"split_indices":[556,0,739,718,0,0,951,0,0,0,0],"split_type":[0,0,0,0,0,0,0,0,0,0,0],"sum_hessian":[6.824964E2,1.785442E2,5.039522E2,5.0224954E2,1.7026442E0,2.072641E0,5.001769E2,1.0446194E0,1.0280213E0,1.4631404E0,4.9871378E2],"tree_param":{"num_deleted":"0","num_feature":"1286","num_nodes":"11","size_leaf_vector":"1"}},{"base_weights":[-5.173499E-3,1.6684215E0,-5.530417E-1,-3.2241072E-4,1.7815244E0,-6.256688E-1,6.156456E-1,-2.9351428E-2,5.9437573E-2,-1.9211829E-2,9.017432E-2,6.922087E-1,-6.46021E-1,1.4413886E0,-3.328514E-1,-2.4576819E-2,7.479747E-2,-6.549466E-1,7.8339344E-1,1.62633E0,-1.9022653E-2,-3.0535383E-2,5.391282E-2,1.4654609E-2,-3.289758E-2,1.1921345E-2,5.0504368E-2,1.3702044E-2,8.6243175E-2],"categories":[],"categories_nodes":[],"categories_segments":[],"categories_sizes":[],"default_left":[0,0,0,0,0,0,0,0,0,0,0,0,0,0,0,0,0,0,0,0,0,0,0,0,0,0,0,0,0],"id":7,"left_children":[1,3,5,7,9,11,13,-1,-1,-1,-1,15,17,19,21,-1,-1,23,25,27,-1,-1,-1,-1,-1,-1,-1,-1,-1],"loss_changes":[6.218149E2,3.156781E1,4.374997E1,8.80173E0,8.1432495E0,1.3362076E1,2.428651E1,0E0,0E0,0E0,0E0,8.161821E0,6.569519E0,6.15699E0,6.523693E0,0E0,0E0,1.5383453E0,1.7934322E-1,1.5409203E0,0E0,0E0,0E0,0E0,0E0,0E0,0E0,0E0,0E0],"parents":[2147483647,0,0,1,1,2,2,3,3,4,4,5,5,6,6,11,11,12,12,13,13,14,14,17,17,18,18,19,19],"right_children":[2,4,6,8,10,12,14,-1,-1,-1,-1,16,18,20,22,-1,-1,24,26,28,-1,-1,-1,-1,-1,-1,-1,-1,-1],"split_conditions":[-9.864728E-1,-1.1664301E0,2.4111645E0,-6.4274573E-1,-2.84401E-1,-9.406262E-1,6.493727E-1,-2.9351428E-2,5.9437573E-2,-1.9211829E-2,9.017432E-2,-3.1809026E-1,1.5187116E0,8.290628E-1,1.9984621E0,-2.4576819E-2,7.479747E-2,-2.279707E0,1.0122015E-1,-1.519453E0,-1.9022653E-2,-3.0535383E-2,5.391282E-2,1.4654609E-2,-3.289758E-2,1.1921345E-2,5.0504368E-2,1.3702044E-2,8.6243175E-2],"split_indices":[814,883,1127,1146,545,559,786,0,0,0,0,61,1179,280,1253,0,0,1090,1,182,0,0,0,0,0,0,0,0,0],"split_type":[0,0,0,0,0,0,0,0,0,0,0,0,0,0,0,0,0,0,0,0,0,0,0,0,0,0,0,0,0],"sum_hessian":[6.761576E2,1.6625288E2,5.099047E2,1.0616211E1,1.5563667E2,4.805085E2,2.9396181E1,7.4477153E0,3.1684957E0,1.396801E0,1.5423988E2,6.8056765E0,4.7370285E2,1.54372E1,1.39589815E1,2.9093053E0,3.8963714E0,4.7130173E2,2.4011097E0,1.4111961E1,1.3252375E0,1.213645E1,1.8225313E0,1.1841279E0,4.701176E2,1.3081373E0,1.0929723E0,1.2152257E0,1.2896736E1],"tree_param":{"num_deleted":"0","num_feature":"1286","num_nodes":"29","size_leaf_vector":"1"}},{"base_weights":[-1.5136321E-2,1.4152935E0,-6.252943E-1,-2.4540244E-1,1.549969E0,-6.379385E-1,5.2843638E-2,6.063158E-2,-3.0580318E-2,-2.7927686E-2,1.6164407E0,-6.464258E-1,6.239803E-1,-2.280852E-2,1.6445485E0,-3.253664E-2,2.547325E-2,5.590852E-2,-1.651493E-2,1.0176833E-2,8.30238E-2],"categories":[],"categories_nodes":[],"categories_segments":[],"categories_sizes":[],"default_left":[0,0,0,0,0,0,0,0,0,0,0,0,0,0,0,0,0,0,0,0,0],"id":8,"left_children":[1,3,5,7,9,11,-1,-1,-1,-1,13,15,17,-1,19,-1,-1,-1,-1,-1,-1],"loss_changes":[5.9241016E2,4.57731E1,1.0793976E1,9.33152E0,2.7234283E1,5.4677887E0,0E0,0E0,0E0,0E0,1.1375397E1,2.6723328E0,2.0990872E0,0E0,3.7970886E0,0E0,0E0,0E0,0E0,0E0,0E0],"parents":[2147483647,0,0,1,1,2,2,3,3,4,4,5,5,10,10,11,11,12,12,14,14],"right_children":[2,4,6,8,10,12,-1,-1,-1,-1,14,16,18,-1,20,-1,-1,-1,-1,-1,-1],"split_conditions":[-7.590783E-1,1.3933855E-1,2.1508904E0,-2.0311947E0,-2.978901E0,3.823672E0,5.2843638E-2,6.063158E-2,-3.0580318E-2,-2.7927686E-2,-2.4484162E0,4.1083956E0,-6.386419E-1,-2.280852E-2,-2.4944324E0,-3.253664E-2,2.547325E-2,5.590852E-2,-1.651493E-2,1.0176833E-2,8.30238E-2],"split_indices":[1015,1182,1182,850,548,544,0,0,0,0,562,880,7,0,867,0,0,0,0,0,0],"split_type":[0,0,0,0,0,0,0,0,0,0,0,0,0,0,0,0,0,0,0,0,0],"sum_hessian":[6.7674194E2,2.0195865E2,4.747833E2,1.5087769E1,1.8687088E2,4.7185727E2,2.9260113E0,2.5647821E0,1.2522986E1,5.484866E0,1.8138602E2,4.691894E2,2.6678846E0,2.2231944E0,1.7916283E2,4.6788303E2,1.3063718E0,1.6445048E0,1.0233798E0,2.1092663E0,1.7705356E2],"tree_param":{"num_deleted":"0","num_feature":"1286","num_nodes":"21","size_leaf_vector":"1"}},{"base_weights":[1.8085977E-2,1.6160405E0,-4.9559477E-1,-2.3138361E-2,1.6491727E0,1.1812407E0,-5.935988E-1,8.283723E-2,1.9425688E-2,1.5321697E0,-8.118759E-2,-1.0628854E-1,-6.46667E-1,8.002037E-2,1.5864812E-2,5.038516E-2,-2.7003828E-2,-3.4802005E-1,1.2336471E0,2.2211736E-2,-3.253419E-2,-2.6972516E-2,3.4174904E-2,7.07385E-2,1.4692919E-2],"categories":[],"categories_nodes":[],"categories_segments":[],"categories_sizes":[],"default_left":[0,0,0,0,0,0,0,0,0,0,0,0,0,0,0,0,0,0,0,0,0,0,0,0,0],"id":9,"left_children":[1,3,5,-1,7,9,11,-1,-1,13,15,17,19,-1,-1,-1,-1,21,23,-1,-1,-1,-1,-1,-1],"loss_changes":[5.5250055E2,1.2040497E1,8.441127E1,0E0,8.968506E-1,1.2733601E1,1.2394043E1,0E0,0E0,1.3426285E0,4.112217E0,1.614647E1,2.1925507E0,0E0,0E0,0E0,0E0,8.640043E0,8.8405514E-1,0E0,0E0,0E0,0E0,0E0,0E0],"parents":[2147483647,0,0,1,1,2,2,4,4,5,5,6,6,9,9,10,10,11,11,12,12,17,17,18,18],"right_children":[2,4,6,-1,8,10,12,-1,-1,14,16,18,20,-1,-1,-1,-1,22,24,-1,-1,-1,-1,-1,-1],"split_conditions":[-5.2406603E-1,-9.487228E-1,-9.857984E-1,-2.3138361E-2,2.255038E0,1.1954166E0,-1.9660739E0,8.283723E-2,1.9425688E-2,8.043821E-1,-1.4878818E0,-4.9176875E-1,-3.4770112E0,8.002037E-2,1.5864812E-2,5.038516E-2,-2.7003828E-2,5.165981E-1,1.4600207E-1,2.2211736E-2,-3.253419E-2,-2.6972516E-2,3.4174904E-2,7.07385E-2,1.4692919E-2],"split_indices":[1011,1003,737,0,204,769,577,0,0,332,20,656,776,0,0,0,0,280,17,0,0,0,0,0,0],"split_type":[0,0,0,0,0,0,0,0,0,0,0,0,0,0,0,0,0,0,0,0,0,0,0,0,0],"sum_hessian":[6.711171E2,1.627353E2,5.0838187E2,2.3495584E0,1.6038574E2,2.7461765E1,4.809201E2,1.5911584E2,1.2699049E0,2.1321234E1,6.140531E0,4.752395E1,4.3339615E2,1.9886873E1,1.4343604E0,1.4659758E0,4.6745553E0,4.0887836E1,6.6361117E0,1.187898E0,4.3220825E2,3.4889954E1,5.997883E0,5.1400676E0,1.4960439E0],"tree_param":{"num_deleted":"0","num_feature":"1286","num_nodes":"25","size_leaf_vector":"1"}},{"base_weights":[7.176062E-3,-6.454595E-1,8.2664505E-2,4.1777764E-2,-6.490917E-1,-1.8387599E-2,2.2326611E-2,-3.2545924E-2,-1.595056E-1,-1.6780702E-2,4.5625246E-3],"categories":[],"categories_nodes":[],"categories_segments":[],"categories_sizes":[],"default_left":[0,0,0,0,0,0,0,0,0,0,0],"id":10,"left_children":[1,3,-1,5,7,-1,-1,-1,9,-1,-1],"loss_changes":[7.2406995E2,1.2319183E0,0E0,7.405651E-1,3.2562256E-1,0E0,0E0,0E0,1.6794243E-1,0E0,0E0],"parents":[2147483647,0,0,1,1,3,3,4,4,8,8],"right_children":[2,4,-1,6,8,-1,-1,-1,10,-1,-1],"split_conditions":[6.6491497E-1,-3.200337E0,8.2664505E-2,-4.3545145E-1,3.7185476E0,-1.8387599E-2,2.2326611E-2,-3.2545924E-2,4.096747E-1,-1.6780702E-2,4.5625246E-3],"split_indices":[929,579,0,3,648,0,0,0,6,0,0],"split_type":[0,0,0,0,0,0,0,0,0,0,0],"sum_hessian":[6.7199115E2,4.8164218E2,1.9034898E2,2.4770486E0,4.7916513E2,1.2767028E0,1.2003458E0,4.770556E2,2.1095262E0,1.0404204E0,1.0691057E0],"tree_param":{"num_deleted":"0","num_feature":"1286","num_nodes":"11","size_leaf_vector":"1"}},{"base_weights":[4.93716E-3,1.5540556E0,-5.385345E-1,1.6442178E0,1.3014337E-1,-6.3198256E-1,3.6376774E-1,8.2760416E-2,1.0066663E-2,9.9693096E-1,-2.8314961E-2,5.6442596E-2,-6.412841E-1,8.377315E-1,-5.343192E-1,6.443297E-2,7.47758E-3,3.0777318E-2,-6.4756244E-1,1.4043947E0,-3.4264764E-1,-3.0704686E-2,1.355991E-2,-3.2536615E-2,1.50411045E-2,-2.2478215E-2,8.142003E-2,-2.9579228E-2,4.7064494E-2],"categories":[],"categories_nodes":[],"categories_segments":[],"categories_sizes":[],"default_left":[0,0,0,0,0,0,0,0,0,0,0,0,0,0,0,0,0,0,0,0,0,0,0,0,0,0,0,0,0],"id":11,"left_children":[1,3,5,7,9,11,13,-1,-1,15,-1,-1,17,19,21,-1,-1,-1,23,25,27,-1,-1,-1,-1,-1,-1,-1,-1],"loss_changes":[5.639827E2,2.2121887E1,4.2044937E1,2.2600403E0,7.4743013E0,8.090057E0,2.0528194E1,0E0,0E0,1.1574469E0,0E0,0E0,3.9338531E0,2.1395859E1,1.2529678E0,0E0,0E0,0E0,1.5373535E0,9.587189E0,4.0553803E0,0E0,0E0,0E0,0E0,0E0,0E0,0E0,0E0],"parents":[2147483647,0,0,1,1,2,2,3,3,4,4,5,5,6,6,9,9,12,12,13,13,14,14,18,18,19,19,20,20],"right_children":[2,4,6,8,10,12,14,-1,-1,16,-1,-1,18,20,22,-1,-1,-1,24,26,28,-1,-1,-1,-1,-1,-1,-1,-1],"split_conditions":[-1.1009072E0,-1.335429E0,9.5863825E-1,2.3760483E0,-7.766727E-1,-1.314366E0,-1.3399891E0,8.2760416E-2,1.0066663E-2,5.0376457E-1,-2.8314961E-2,5.6442596E-2,-1.1382697E0,-1.4744428E0,1.0392656E0,6.443297E-2,7.47758E-3,3.0777318E-2,2.3081684E0,-2.8708103E0,5.96193E-1,-3.0704686E-2,1.355991E-2,-3.2536615E-2,1.50411045E-2,-2.2478215E-2,8.142003E-2,-2.9579228E-2,4.7064494E-2],"split_indices":[814,1049,534,13,1108,1218,1144,0,0,107,0,0,1111,1106,30,0,0,0,1122,691,0,0,0,0,0,0,0,0,0],"split_type":[0,0,0,0,0,0,0,0,0,0,0,0,0,0,0,0,0,0,0,0,0,0,0,0,0,0,0,0,0],"sum_hessian":[6.6789703E2,1.7297823E2,4.949188E2,1.6253197E2,1.0446261E1,4.487437E2,4.617509E1,1.6115729E2,1.3746772E0,4.461744E0,5.984517E0,1.7255518E0,4.4701816E2,3.0268272E1,1.5906818E1,2.9316893E0,1.5300547E0,1.7395768E0,4.4527856E2,2.0322357E1,9.945915E0,1.4689668E1,1.2171509E0,4.4410806E2,1.1705155E0,2.082213E0,1.8240145E1,8.78238E0,1.1635346E0],"tree_param":{"num_deleted":"0","num_feature":"1286","num_nodes":"29","size_leaf_vector":"1"}},{"base_weights":[1.5133325E-2,1.3274043E0,-5.891284E-1,-4.5264655E-1,1.4409238E0,-6.309729E-1,1.0130116E0,3.3879787E-2,-2.9801128E-2,1.4930193E0,-2.6609728E-1,4.4778213E-1,-3.220486E-2,7.0066966E-2,-2.28978E-2,1.5174389E0,-2.2622848E-2,-2.666441E-2,2.295664E-2,-2.2964502E-2,6.0297918E-2,-1.8797336E-2,7.662194E-2],"categories":[],"categories_nodes":[],"categories_segments":[],"categories_sizes":[],"default_left":[0,0,0,0,0,0,0,0,0,0,0,0,0,0,0,0,0,0,0,0,0,0,0],"id":12,"left_children":[1,3,5,7,9,11,13,-1,-1,15,17,19,-1,-1,-1,21,-1,-1,-1,-1,-1,-1,-1],"loss_changes":[5.393371E2,4.3985016E1,3.1862167E1,2.6104703E0,1.8345367E1,6.7230377E0,7.632372E0,0E0,0E0,9.998108E0,1.5675097E0,4.716543E0,0E0,0E0,0E0,6.0802307E0,0E0,0E0,0E0,0E0,0E0,0E0,0E0],"parents":[2147483647,0,0,1,1,2,2,3,3,4,4,5,5,6,6,9,9,10,10,11,11,15,15],"right_children":[2,4,6,8,10,12,14,-1,-1,16,18,20,-1,-1,-1,22,-1,-1,-1,-1,-1,-1,-1],"split_conditions":[-2.286335E-1,-1.3939466E0,4.8382435E0,-1.4060727E0,2.502514E0,-3.1412446E0,4.33991E-1,3.3879787E-2,-2.9801128E-2,1.5973427E0,2.2982113E-1,-2.3254648E-1,-3.220486E-2,7.0066966E-2,-2.28978E-2,-2.0814667E0,-2.2622848E-2,-2.666441E-2,2.295664E-2,-2.2964502E-2,6.0297918E-2,-1.8797336E-2,7.662194E-2],"split_indices":[1202,915,514,204,1008,1016,124,0,0,697,15,0,0,0,0,671,0,0,0,0,0,0,0],"split_type":[0,0,0,0,0,0,0,0,0,0,0,0,0,0,0,0,0,0,0,0,0,0,0],"sum_hessian":[6.7817474E2,2.1344374E2,4.6473102E2,1.2616866E1,2.0082687E2,4.534929E2,1.1238108E1,1.0008774E0,1.1615989E1,1.9500113E2,5.825754E0,5.0528345E0,4.4844006E2,8.928394E0,2.3097138E0,1.9280112E2,2.200008E0,4.450686E0,1.3750684E0,2.4800057E0,2.5728292E0,1.3262904E0,1.9147482E2],"tree_param":{"num_deleted":"0","num_feature":"1286","num_nodes":"23","size_leaf_vector":"1"}},{"base_weights":[9.12965E-3,1.3138775E0,-5.648833E-1,-1.8888974E-1,1.4644015E0,-6.3228023E-1,3.6187816E-1,-5.106602E-1,5.6966234E-2,-2.5105843E-1,1.5107118E0,-3.2200452E-2,6.0505074E-2,1.3867651E0,-1.11310765E-1,-3.0468492E-2,1.9216431E-2,-2.5731636E-2,1.9742401E-2,7.658335E-2,-2.0911923E-2,1.9056292E-2,7.426392E-2,8.8962287E-1,-5.1473653E-1,-1.9602388E-2,6.5585196E-2,-3.0534137E-2,1.9706551E-2],"categories":[],"categories_nodes":[],"categories_segments":[],"categories_sizes":[],"default_left":[0,0,0,0,0,0,0,0,0,0,0,0,0,0,0,0,0,0,0,0,0,0,0,0,0,0,0,0,0],"id":13,"left_children":[1,3,5,7,9,11,13,15,-1,17,19,-1,-1,21,23,-1,-1,-1,-1,-1,-1,-1,-1,25,27,-1,-1,-1,-1],"loss_changes":[5.1007968E2,4.7345398E1,2.9772385E1,9.05703E0,1.5414124E1,1.0315155E1,1.6013504E1,1.7054691E0,0E0,1.1961039E0,8.095123E0,0E0,0E0,4.6459198E-1,9.865725E0,0E0,0E0,0E0,0E0,0E0,0E0,0E0,0E0,4.3331003E0,1.7439499E0,0E0,0E0,0E0,0E0],"parents":[2147483647,0,0,1,1,2,2,3,3,4,4,5,5,6,6,7,7,9,9,10,10,13,13,14,14,23,23,24,24],"right_children":[2,4,6,8,10,12,14,16,-1,18,20,-1,-1,22,24,-1,-1,-1,-1,-1,-1,-1,-1,26,28,-1,-1,-1,-1],"split_conditions":[-1.1640751E0,-5.689578E-1,1.7241743E0,1.2877761E0,-1.8465601E0,2.485138E0,1.1553572E0,1.6301105E0,5.6966234E-2,9.537082E-1,7.5419225E-2,-3.2200452E-2,6.0505074E-2,-7.971506E-1,-1.6560751E0,-3.0468492E-2,1.9216431E-2,-2.5731636E-2,1.9742401E-2,7.658335E-2,-2.0911923E-2,1.9056292E-2,7.426392E-2,-7.4985274E-3,1.4570327E0,-1.9602388E-2,6.5585196E-2,-3.0534137E-2,1.9706551E-2],"split_indices":[1101,1003,1259,872,1016,754,856,568,0,46,1206,0,0,32,651,0,0,0,0,0,0,0,0,47,556,0,0,0,0],"split_type":[0,0,0,0,0,0,0,0,0,0,0,0,0,0,0,0,0,0,0,0,0,0,0,0,0,0,0,0,0],"sum_hessian":[6.7907587E2,2.070825E2,4.7199335E2,1.8830639E1,1.8825186E2,4.4029175E2,3.1701614E1,1.565389E1,3.1767502E0,4.832219E0,1.8341965E2,4.3815286E2,2.1388776E0,9.40358E0,2.2298035E1,1.4386332E1,1.267558E0,3.5761452E0,1.2560738E0,1.8165222E2,1.7674136E0,1.2733905E0,8.130189E0,6.0592785E0,1.6238756E1,1.5187305E0,4.540548E0,1.4984929E1,1.2538264E0],"tree_param":{"num_deleted":"0","num_feature":"1286","num_nodes":"29","size_leaf_vector":"1"}},{"base_weights":[-9.029352E-3,-6.3962185E-1,7.638248E-2,1.000116E-2,-6.432278E-1,2.2424256E-2,-1.9286187E-2,-3.2207217E-2,-9.598472E-3],"categories":[],"categories_nodes":[],"categories_segments":[],"categories_sizes":[],"default_left":[0,0,0,0,0,0,0,0,0],"id":14,"left_children":[1,3,-1,5,7,-1,-1,-1,-1],"loss_changes":[6.599669E2,1.137619E0,0E0,8.0639946E-1,7.496643E-2,0E0,0E0,0E0,0E0],"parents":[2147483647,0,0,1,1,3,3,4,4],"right_children":[2,4,-1,6,8,-1,-1,-1,-1],"split_conditions":[8.5810167E-1,-2.9712512E0,7.638248E-2,5.4132E-1,2.355779E0,2.2424256E-2,-1.9286187E-2,-3.2207217E-2,-9.598472E-3],"split_indices":[532,1067,0,2,281,0,0,0,0],"split_type":[0,0,0,0,0,0,0,0,0],"sum_hessian":[6.7905914E2,4.81893E2,1.9716615E2,2.650367E0,4.7924265E2,1.1940129E0,1.4563543E0,4.7784473E2,1.3979278E0],"tree_param":{"num_deleted":"0","num_feature":"1286","num_nodes":"9","size_leaf_vector":"1"}},{"base_weights":[-1.0299738E-2,1.412514E0,-5.408654E-1,-3.1879193E-1,1.5035431E0,-5.97364E-1,7.557949E-1,4.3576684E-2,-2.925523E-2,1.5234498E0,-1.9999858E-2,-6.1162806E-1,5.9645083E-2,-2.7638847E-2,1.2334375E0,7.656013E-2,1.249495E-2,5.4556787E-2,-6.203841E-1,7.492307E-2,-8.431803E-2,4.7508996E-2,-3.13146E-2,-1.8581295E-2,1.2706855E-2],"categories":[],"categories_nodes":[],"categories_segments":[],"categories_sizes":[],"default_left":[0,0,0,0,0,0,0,0,0,0,0,0,0,0,0,0,0,0,0,0,0,0,0,0,0],"id":15,"left_children":[1,3,5,7,9,11,13,-1,-1,15,-1,17,-1,-1,19,-1,-1,-1,21,-1,23,-1,-1,-1,-1],"loss_changes":[5.1190887E2,2.9507355E1,3.6635635E1,3.688055E0,7.2468567E0,1.2830109E1,1.3847475E1,0E0,0E0,1.3309631E0,0E0,7.6958313E0,0E0,0E0,5.623642E0,0E0,0E0,0E0,4.946808E0,0E0,4.4280097E-1,0E0,0E0,0E0,0E0],"parents":[2147483647,0,0,1,1,2,2,3,3,4,4,5,5,6,6,9,9,11,11,14,14,18,18,20,20],"right_children":[2,4,6,8,10,12,14,-1,-1,16,-1,18,-1,-1,20,-1,-1,-1,22,-1,24,-1,-1,-1,-1],"split_conditions":[-9.864728E-1,3.80404E-1,1.0773264E0,-1.4513946E0,-9.6978956E-1,2.1926825E0,7.6136434E-1,4.3576684E-2,-2.925523E-2,-1.80291E-1,-1.9999858E-2,-2.9467225E0,5.9645083E-2,-2.7638847E-2,7.8139997E-1,7.656013E-2,1.249495E-2,5.4556787E-2,-7.4369335E-1,7.492307E-2,-5.0120604E-1,4.7508996E-2,-3.13146E-2,-1.8581295E-2,1.2706855E-2],"split_indices":[814,632,1170,50,1049,838,798,0,0,636,0,820,0,0,355,0,0,0,763,0,0,0,0,0,0],"split_type":[0,0,0,0,0,0,0,0,0,0,0,0,0,0,0,0,0,0,0,0,0,0,0,0,0],"sum_hessian":[6.7610626E2,1.8318861E2,4.929177E2,9.025642E0,1.7416296E2,4.7285364E2,2.0064053E1,1.2346389E0,7.791004E0,1.7255807E2,1.6048838E0,4.6976907E2,3.084547E0,5.323164E0,1.474089E1,1.713129E2,1.2451801E0,1.770901E0,4.6799817E2,1.2158474E1,2.5824156E0,1.1548684E0,4.6684332E2,1.3437372E0,1.2386785E0],"tree_param":{"num_deleted":"0","num_feature":"1286","num_nodes":"25","size_leaf_vector":"1"}},{"base_weights":[-2.7678837E-4,1.2665335E0,-6.060141E-1,1.3740985E-1,1.3984816E0,5.849149E-1,-6.3267285E-1,8.489412E-1,-2.9835245E-2,-2.0680195E-2,1.4171306E0,6.753323E-2,-2.5756702E-2,3.221706E-2,-3.186061E-2,-2.4645483E-2,6.839854E-2,7.1430236E-2,5.089955E-1,4.6609465E-2,-1.6764192E-2],"categories":[],"categories_nodes":[],"categories_segments":[],"categories_sizes":[],"default_left":[0,0,0,0,0,0,0,0,0,0,0,0,0,0,0,0,0,0,0,0,0],"id":16,"left_children":[1,3,5,7,9,11,13,15,-1,-1,17,-1,-1,-1,-1,-1,-1,-1,19,-1,-1],"loss_changes":[5.0286417E2,3.1390686E1,1.4445419E1,1.2671681E1,6.9966125E0,9.3100605E0,2.927002E0,9.19852E0,0E0,0E0,1.23172E0,0E0,0E0,0E0,0E0,0E0,0E0,0E0,1.7056589E0,0E0,0E0],"parents":[2147483647,0,0,1,1,2,2,3,3,4,4,5,5,6,6,7,7,10,10,18,18],"right_children":[2,4,6,8,10,12,14,16,-1,-1,18,-1,-1,-1,-1,-1,-1,-1,20,-1,-1],"split_conditions":[-7.590783E-1,-1.8014277E0,-1.9119295E0,-3.013548E0,-2.826163E0,-1.6832683E0,-2.674351E0,-1.448952E0,-2.9835245E-2,-2.0680195E-2,2.1187048E0,6.753323E-2,-2.5756702E-2,3.221706E-2,-3.186061E-2,-2.4645483E-2,6.839854E-2,7.1430236E-2,4.8870057E-1,4.6609465E-2,-1.6764192E-2],"split_indices":[1015,867,947,780,1281,709,1207,643,0,0,1121,0,0,0,0,0,0,0,0,0,0],"split_type":[0,0,0,0,0,0,0,0,0,0,0,0,0,0,0,0,0,0,0,0,0],"sum_hessian":[6.533219E2,2.1098564E2,4.4233627E2,2.2289396E1,1.8869624E2,9.226346E0,4.3310992E2,1.12393675E1,1.1050028E1,1.7064348E0,1.869898E2,5.3054047E0,3.9209416E0,1.0348583E0,4.3207507E2,3.1488771E0,8.09049E0,1.8409074E2,2.8990629E0,1.8617427E0,1.03732E0],"tree_param":{"num_deleted":"0","num_feature":"1286","num_nodes":"21","size_leaf_vector":"1"}},{"base_weights":[3.9715045E-3,1.1813333E0,-5.803373E-1,-4.5268616E-1,1.3467929E0,-6.2921834E-1,3.5707876E-1,-3.0612582E-2,4.810367E-2,1.3806386E0,-2.4836563E-2,4.9258715E-1,-3.18682E-2,-2.8795555E-2,9.6412164E-1,-2.4746893E-2,1.4130825E0,-1.7485088E-2,5.280005E-2,1.3390222E0,-2.3522323E-2,7.129071E-2,-1.7753823E-2,1.824869E-2,7.134918E-2],"categories":[],"categories_nodes":[],"categories_segments":[],"categories_sizes":[],"default_left":[0,0,0,0,0,0,0,0,0,0,0,0,0,0,0,0,0,0,0,0,0,0,0,0,0],"id":17,"left_children":[1,3,5,7,9,11,13,-1,-1,15,-1,17,-1,-1,19,-1,21,-1,-1,23,-1,-1,-1,-1,-1],"loss_changes":[4.5655627E2,6.0121918E1,2.0548477E1,5.32702E0,1.3173096E1,4.169388E0,1.336632E1,0E0,0E0,1.2674072E1,0E0,2.080362E0,0E0,0E0,8.201161E0,0E0,4.866791E0,0E0,0E0,4.5771408E-1,0E0,0E0,0E0,0E0,0E0],"parents":[2147483647,0,0,1,1,2,2,3,3,4,4,5,5,6,6,9,9,11,11,14,14,16,16,19,19],"right_children":[2,4,6,8,10,12,14,-1,-1,16,-1,18,-1,-1,20,-1,22,-1,-1,24,-1,-1,-1,-1,-1],"split_conditions":[-3.6110353E-1,-1.8112085E0,1.8697045E0,1.4487191E0,4.8382435E0,-3.5032377E0,-6.883889E-1,-3.0612582E-2,4.810367E-2,-3.452994E0,-2.4836563E-2,-1.958811E-1,-3.18682E-2,-2.8795555E-2,-8.01189E-2,-2.4746893E-2,2.524374E0,-1.7485088E-2,5.280005E-2,-1.0630553E0,-2.3522323E-2,7.129071E-2,-1.7753823E-2,1.824869E-2,7.134918E-2],"split_indices":[1101,1016,1259,45,514,1043,607,0,0,1247,0,0,0,0,446,0,1127,0,0,70,0,0,0,0,0],"split_type":[0,0,0,0,0,0,0,0,0,0,0,0,0,0,0,0,0,0,0,0,0,0,0,0,0],"sum_hessian":[6.616578E2,2.1911896E2,4.4253885E2,1.9988062E1,1.991309E2,4.20919E2,2.161982E1,1.8471922E1,1.5161402E0,1.9578748E2,3.3434274E0,2.6056283E0,4.183134E2,8.542213E0,1.3077605E1,3.086755E0,1.9270071E2,1.196383E0,1.4092453E0,1.0420883E1,2.656722E0,1.9151532E2,1.1853961E0,1.2896037E0,9.13128E0],"tree_param":{"num_deleted":"0","num_feature":"1286","num_nodes":"25","size_leaf_vector":"1"}},{"base_weights":[3.3229052E-3,-6.3002604E-1,7.1112536E-2,2.9134495E-2,-6.356493E-1,-3.187639E-2,-3.1735337E-1,5.634827E-3,-2.3383703E-2],"categories":[],"categories_nodes":[],"categories_segments":[],"categories_sizes":[],"default_left":[0,0,0,0,0,0,0,0,0],"id":18,"left_children":[1,3,-1,-1,5,-1,7,-1,-1],"loss_changes":[6.046979E2,3.542923E0,0E0,0E0,7.484436E-2,0E0,3.5723996E-1,0E0,0E0],"parents":[2147483647,0,0,1,1,4,4,6,6],"right_children":[2,4,-1,-1,6,-1,8,-1,-1],"split_conditions":[8.5810167E-1,-3.200337E0,7.1112536E-2,2.9134495E-2,7.1192867E-1,-3.187639E-2,-4.0125373E-1,5.634827E-3,-2.3383703E-2],"split_indices":[532,579,0,0,1278,0,7,0,0],"split_type":[0,0,0,0,0,0,0,0,0],"sum_hessian":[6.70879E2,4.6422482E2,2.066542E2,1.668979E0,4.6255585E2,4.5884497E2,3.7108493E0,1.0259678E0,2.6848814E0],"tree_param":{"num_deleted":"0","num_feature":"1286","num_nodes":"9","size_leaf_vector":"1"}},{"base_weights":[2.6457107E-3,1.3433877E0,-5.286584E-1,1.4098299E0,-3.9002874E-1,-6.179631E-1,3.2894564E-1,7.132157E-2,-1.938626E-2,1.2658519E-2,-2.766796E-2,5.52405E-1,-6.275889E-1,-4.4762507E-1,7.7250177E-1,5.584031E-2,-1.804916E-2,-1.83206E-2,-3.1867247E-2,4.4124544E-2,-3.0274695E-2,1.123905E0,-2.4171092E-1,-2.678479E-2,5.7252225E-2,-2.312274E-2,6.782975E-2,-2.7591005E-2,4.128879E-2],"categories":[],"categories_nodes":[],"categories_segments":[],"categories_sizes":[],"default_left":[0,0,0,0,0,0,0,0,0,0,0,0,0,0,0,0,0,0,0,0,0,0,0,0,0,0,0,0,0],"id":19,"left_children":[1,3,5,7,9,11,13,-1,-1,-1,-1,15,17,19,21,-1,-1,23,-1,-1,-1,25,27,-1,-1,-1,-1,-1,-1],"loss_changes":[4.715589E2,2.2187988E1,3.6514435E1,5.9591675E0,9.5098555E-1,5.1881256E0,1.5972509E1,0E0,0E0,0E0,0E0,2.48456E0,2.5246735E0,4.130411E0,1.0693203E1,0E0,0E0,5.2808723E0,0E0,0E0,0E0,8.709066E0,3.218998E0,0E0,0E0,0E0,0E0,0E0,0E0],"parents":[2147483647,0,0,1,1,2,2,3,3,4,4,5,5,6,6,11,11,12,12,13,13,14,14,17,17,21,21,22,22],"right_children":[2,4,6,8,10,12,14,-1,-1,-1,-1,16,18,20,22,-1,-1,24,-1,-1,-1,26,28,-1,-1,-1,-1,-1,-1],"split_conditions":[-1.1009072E0,2.1817763E-1,9.5863825E-1,-1.5380874E-1,-4.419868E-1,-2.2910385E0,1.6561894E0,7.132157E-2,-1.938626E-2,1.2658519E-2,-2.766796E-2,2.6828802E-1,-2.1982899E0,-1.3077885E0,9.425277E-1,5.584031E-2,-1.804916E-2,2.8773922E-1,-3.1867247E-2,4.4124544E-2,-3.0274695E-2,3.41086E-1,5.7498145E-1,-2.678479E-2,5.7252225E-2,-2.312274E-2,6.782975E-2,-2.7591005E-2,4.128879E-2],"split_indices":[814,525,534,636,89,1141,1285,0,0,0,0,5,976,457,169,0,0,70,0,0,0,565,14,0,0,0,0,0,0],"split_type":[0,0,0,0,0,0,0,0,0,0,0,0,0,0,0,0,0,0,0,0,0,0,0,0,0,0,0,0,0],"sum_hessian":[6.5998706E2,1.8687668E2,4.7311038E2,1.8015787E2,6.7188044E0,4.287436E2,4.4366806E1,1.787138E2,1.444062E0,1.2492359E0,5.4695687E0,3.0375204E0,4.2570605E2,1.6125454E1,2.824135E1,1.7397726E0,1.2977479E0,6.754621E0,4.1895145E2,1.2238598E0,1.4901594E1,2.0893902E1,7.347449E0,5.048823E0,1.7057984E0,2.5464058E0,1.8347496E1,6.0677958E0,1.2796531E0],"tree_param":{"num_deleted":"0","num_feature":"1286","num_nodes":"29","size_leaf_vector":"1"}},{"base_weights":[9.6408725E-3,1.1693113E0,-5.9592265E-1,-2.4650604E-1,1.2683831E0,5.40274E-1,-6.1755794E-1,-2.9953405E-2,5.292176E-2,1.3107618E0,-2.6710683E-2,6.5395065E-2,-2.5019882E-2,6.1167645E-1,-3.1543694E-2,-2.0214135E-2,1.3259422E0,5.6382854E-2,-1.9122269E-2,6.6860594E-2,7.864844E-3],"categories":[],"categories_nodes":[],"categories_segments":[],"categories_sizes":[],"default_left":[0,0,0,0,0,0,0,0,0,0,0,0,0,0,0,0,0,0,0,0,0],"id":20,"left_children":[1,3,5,7,9,11,13,-1,-1,15,-1,-1,-1,17,-1,-1,19,-1,-1,-1,-1],"loss_changes":[4.7799017E2,3.3064392E1,1.1325836E1,8.044711E0,1.738321E1,7.7555165E0,7.576111E0,0E0,0E0,6.098694E0,0E0,0E0,0E0,3.106424E0,0E0,0E0,2.5820312E0,0E0,0E0,0E0,0E0],"parents":[2147483647,0,0,1,1,2,2,3,3,4,4,5,5,6,6,9,9,13,13,16,16],"right_children":[2,4,6,8,10,12,14,-1,-1,16,-1,-1,-1,18,-1,-1,20,-1,-1,-1,-1],"split_conditions":[-7.590783E-1,1.3933855E-1,-1.98251E0,1.9186695E0,2.4199493E0,-1.6832683E0,-1.6857874E0,-2.9953405E-2,5.292176E-2,-2.7927332E0,-2.6710683E-2,6.5395065E-2,-2.5019882E-2,5.199377E-1,-3.1543694E-2,-2.0214135E-2,3.4157073E0,5.6382854E-2,-1.9122269E-2,6.6860594E-2,7.864844E-3],"split_indices":[1015,1182,947,704,1008,709,1255,0,0,905,0,0,0,11,0,0,735,0,0,0,0],"split_type":[0,0,0,0,0,0,0,0,0,0,0,0,0,0,0,0,0,0,0,0,0],"sum_hessian":[6.78659E2,2.3249463E2,4.461644E2,1.510753E1,2.173871E2,7.889109E0,4.3827527E2,1.2319922E1,2.7876072E0,2.1266034E2,4.7267523E0,4.392384E0,3.496725E0,4.2152643E0,4.3406003E2,1.6409231E0,2.1101942E2,2.6865406E0,1.5287241E0,2.0886105E2,2.158372E0],"tree_param":{"num_deleted":"0","num_feature":"1286","num_nodes":"21","size_leaf_vector":"1"}},{"base_weights":[-1.8578049E-2,1.3123127E0,-4.9614486E-1,-2.0018099E-2,1.3300416E0,-6.0796237E-1,4.3685028E-1,6.681461E-2,1.5709696E-2,-3.1550255E-2,9.313012E-2,-1.7060424E-1,1.1705836E0,-2.8360903E-2,9.664452E-1,-4.7874442E-1,1.0582346E0,-2.0626908E-2,6.5650694E-2,6.4429455E-2,-1.6992839E-2,2.888057E-2,-3.0663682E-2,5.9163984E-2,1.6877351E-2],"categories":[],"categories_nodes":[],"categories_segments":[],"categories_sizes":[],"default_left":[0,0,0,0,0,0,0,0,0,0,0,0,0,0,0,0,0,0,0,0,0,0,0,0,0],"id":21,"left_children":[1,3,5,-1,7,9,11,-1,-1,-1,13,15,17,-1,19,21,23,-1,-1,-1,-1,-1,-1,-1,-1],"loss_changes":[4.1965143E2,5.826721E0,5.0954185E1,0E0,6.773987E-1,7.0747375E0,2.3635384E1,0E0,0E0,0E0,9.020316E0,1.1729356E1,5.940243E0,0E0,3.2554307E0,3.8195896E0,1.6414547E-1,0E0,0E0,0E0,0E0,0E0,0E0,0E0,0E0],"parents":[2147483647,0,0,1,1,2,2,4,4,5,5,6,6,10,10,11,11,12,12,14,14,15,15,16,16],"right_children":[2,4,6,-1,8,10,12,-1,-1,-1,14,16,18,-1,20,22,24,-1,-1,-1,-1,-1,-1,-1,-1],"split_conditions":[-5.2406603E-1,-1.694428E0,3.7729166E0,-2.0018099E-2,1.9822098E0,1.1171188E0,-7.604171E-1,6.681461E-2,1.5709696E-2,-3.1550255E-2,1.0343773E0,7.781195E-1,-1.9324394E0,-2.8360903E-2,-4.4618475E-1,-2.3203037E0,8.3545053E-1,-2.0626908E-2,6.5650694E-2,6.4429455E-2,-1.6992839E-2,2.888057E-2,-3.0663682E-2,5.9163984E-2,1.6877351E-2],"split_indices":[1011,800,516,0,336,816,656,0,0,0,549,816,1016,0,293,562,3,0,0,0,0,0,0,0,0],"split_type":[0,0,0,0,0,0,0,0,0,0,0,0,0,0,0,0,0,0,0,0,0,0,0,0,0],"sum_hessian":[6.5823126E2,1.7336024E2,4.8487103E2,1.5550431E0,1.718052E2,4.3329044E2,5.1580585E1,1.7044104E2,1.3641634E0,4.1959952E2,1.3690909E1,2.8638437E1,2.2942148E1,7.9956107E0,5.695298E0,2.3384912E1,5.2535257E0,1.7371516E0,2.1204996E1,4.5795155E0,1.1157832E0,2.2696326E0,2.111528E1,3.9297981E0,1.3237275E0],"tree_param":{"num_deleted":"0","num_feature":"1286","num_nodes":"25","size_leaf_vector":"1"}},{"base_weights":[5.005745E-3,-6.253738E-1,6.661595E-2,1.488355E-2,-6.302091E-1,-1.2575455E-2,-3.1559628E-2],"categories":[],"categories_nodes":[],"categories_segments":[],"categories_sizes":[],"default_left":[0,0,0,0,0,0,0],"id":22,"left_children":[1,3,-1,-1,5,-1,-1],"loss_changes":[5.506813E2,2.1792297E0,0E0,0E0,6.6833496E-3,0E0,0E0],"parents":[2147483647,0,0,1,1,4,4],"right_children":[2,4,-1,-1,6,-1,-1],"split_conditions":[6.7234206E-1,-3.200337E0,6.661595E-2,1.488355E-2,-2.3949428E0,-1.2575455E-2,-3.1559628E-2],"split_indices":[830,579,0,0,699,0,0],"split_type":[0,0,0,0,0,0,0],"sum_hessian":[6.561541E2,4.4523022E2,2.109239E2,2.0045674E0,4.4322565E2,1.8130825E0,4.4141257E2],"tree_param":{"num_deleted":"0","num_feature":"1286","num_nodes":"7","size_leaf_vector":"1"}},{"base_weights":[-8.1350526E-4,-5.406279E-1,1.1990921E0,-6.145281E-1,2.4916331E-1,1.3117504E0,-2.568055E-1,5.4173845E-1,-6.243272E-1,-1.7548962E-1,1.1014568E0,-2.2424135E-2,1.336257E0,5.342711E-2,-2.979106E-2,-1.7810103E-2,5.4103877E-2,1.7685488E-1,-3.15485E-2,-5.3836286E-1,6.7475206E-1,-1.938049E-2,6.501494E-2,1.3842046E-2,6.706273E-2,4.667128E-2,-2.1175643E-2,-3.0354008E-2,1.5310019E-2,-2.2898452E-2,6.05244E-2],"categories":[],"categories_nodes":[],"categories_segments":[],"categories_sizes":[],"default_left":[0,0,0,0,0,0,0,0,0,0,0,0,0,0,0,0,0,0,0,0,0,0,0,0,0,0,0,0,0,0,0],"id":23,"left_children":[1,3,5,7,9,11,13,15,17,19,21,-1,23,-1,-1,-1,-1,25,-1,27,29,-1,-1,-1,-1,-1,-1,-1,-1,-1,-1],"loss_changes":[4.30198E2,2.6889404E1,3.4138428E1,5.0876465E0,1.4636608E1,8.857697E0,7.6629286E0,2.354342E0,2.3262177E0,8.847224E0,4.4741096E0,0E0,6.296997E-1,0E0,0E0,0E0,0E0,2.304328E0,0E0,1.3366795E0,5.81514E0,0E0,0E0,0E0,0E0,0E0,0E0,0E0,0E0,0E0,0E0],"parents":[2147483647,0,0,1,1,2,2,3,3,4,4,5,5,6,6,7,7,8,8,9,9,10,10,12,12,17,17,19,19,20,20],"right_children":[2,4,6,8,10,12,14,16,18,20,22,-1,24,-1,-1,-1,-1,26,-1,28,30,-1,-1,-1,-1,-1,-1,-1,-1,-1,-1],"split_conditions":[1.1979339E0,9.5863825E-1,-1.2155268E0,-1.8828069E0,-3.7749714E-1,-7.303129E-1,-1.8572291E0,-7.899535E-1,-2.2910385E0,1.9174562E0,-7.2107345E-1,-2.2424135E-2,-1.7055011E0,5.342711E-2,-2.979106E-2,-1.7810103E-2,5.4103877E-2,6.800337E-2,-3.15485E-2,1.6564673E0,1.1088439E0,-1.938049E-2,6.501494E-2,1.3842046E-2,6.706273E-2,4.667128E-2,-2.1175643E-2,-3.0354008E-2,1.5310019E-2,-2.2898452E-2,6.05244E-2],"split_indices":[647,534,915,1090,650,1200,801,1,1141,707,54,0,602,0,0,0,0,5,0,21,565,0,0,0,0,0,0,0,0,0,0],"split_type":[0,0,0,0,0,0,0,0,0,0,0,0,0,0,0,0,0,0,0,0,0,0,0,0,0,0,0,0,0,0,0],"sum_hessian":[6.6216547E2,4.5708237E2,2.050831E2,4.1817587E2,3.890649E1,1.9044533E2,1.4637778E1,3.0579853E0,4.151179E2,2.649802E1,1.240847E1,2.3774788E0,1.8806784E2,2.5432606E0,1.2094518E1,1.2768631E0,1.7811223E0,3.202826E0,4.1191504E2,1.8828884E1,7.669136E0,1.3499296E0,1.105854E1,1.1477727E0,1.8692007E2,1.1716197E0,2.0312066E0,1.767219E1,1.1566952E0,2.5091438E0,5.159992E0],"tree_param":{"num_deleted":"0","num_feature":"1286","num_nodes":"31","size_leaf_vector":"1"}},{"base_weights":[-4.870853E-3,1.0932486E0,-5.89005E-1,-3.328584E-2,1.2129209E0,7.914294E-1,-6.11177E-1,-4.7907603E-1,8.7843674E-1,-2.4544394E-2,1.2406499E0,6.2100407E-2,-2.0267902E-2,-6.2012357E-1,4.623E-2,2.091514E-2,-2.9694572E-2,-1.8681725E-2,5.8206853E-2,-1.8036466E-2,1.2522417E0,-3.1234879E-2,3.0970698E-2,6.313449E-2,8.040306E-3],"categories":[],"categories_nodes":[],"categories_segments":[],"categories_sizes":[],"default_left":[0,0,0,0,0,0,0,0,0,0,0,0,0,0,0,0,0,0,0,0,0,0,0,0,0],"id":24,"left_children":[1,3,5,7,9,11,13,15,17,-1,19,-1,-1,21,-1,-1,-1,-1,-1,-1,23,-1,-1,-1,-1],"loss_changes":[4.247851E2,3.1040955E1,1.3714325E1,9.791289E0,1.0430939E1,4.423257E0,6.4266205E0,1.9104705E0,3.269483E0,0E0,4.254303E0,0E0,0E0,2.7916718E0,0E0,0E0,0E0,0E0,0E0,0E0,2.1186829E0,0E0,0E0,0E0,0E0],"parents":[2147483647,0,0,1,1,2,2,3,3,4,4,5,5,6,6,7,7,8,8,10,10,13,13,20,20],"right_children":[2,4,6,8,10,12,14,16,18,-1,20,-1,-1,22,-1,-1,-1,-1,-1,-1,24,-1,-1,-1,-1],"split_conditions":[-7.590783E-1,-1.8277912E0,-1.98251E0,1.8692905E0,4.218764E-1,-1.6832683E0,3.4622283E0,-1.2412164E0,-7.254698E-1,-2.4544394E-2,-3.2176008E0,6.2100407E-2,-2.0267902E-2,1.9969832E0,4.623E-2,2.091514E-2,-2.9694572E-2,-1.8681725E-2,5.8206853E-2,-1.8036466E-2,1.8133559E0,-3.1234879E-2,3.0970698E-2,6.313449E-2,8.040306E-3],"split_indices":[1015,867,947,951,1156,709,1126,214,10,0,846,0,0,910,0,0,0,0,0,0,111,0,0,0,0],"split_type":[0,0,0,0,0,0,0,0,0,0,0,0,0,0,0,0,0,0,0,0,0,0,0,0,0],"sum_hessian":[6.6022345E2,2.289488E2,4.3127463E2,2.2055117E1,2.0689369E2,6.269025E0,4.250056E2,1.5131198E1,6.9239182E0,3.0457299E0,2.0384796E2,4.526905E0,1.7421199E0,4.231369E2,1.8687258E0,1.416534E0,1.37146635E1,1.2292013E0,5.694717E0,1.248522E0,2.0259944E2,4.220754E2,1.0614789E0,2.0052298E2,2.076461E0],"tree_param":{"num_deleted":"0","num_feature":"1286","num_nodes":"25","size_leaf_vector":"1"}},{"base_weights":[-1.1896886E-2,-5.793856E-1,1.0229688E0,7.425864E-1,-6.0545254E-1,-1.1130622E-1,1.1997391E0,-2.0801125E-2,5.608077E-2,-6.210293E-1,6.398724E-1,-4.7513154E-1,9.7960335E-1,1.2419561E0,3.6251977E-2,-3.12539E-2,1.672788E-2,5.3480454E-2,-1.8650122E-2,3.285421E-2,-3.028806E-2,5.7198536E-2,9.799167E-3,-1.9137226E-2,1.2556651E0,4.6425696E-2,-2.6380325E-2,6.325598E-2,8.159596E-3],"categories":[],"categories_nodes":[],"categories_segments":[],"categories_sizes":[],"default_left":[0,0,0,0,0,0,0,0,0,0,0,0,0,0,0,0,0,0,0,0,0,0,0,0,0,0,0,0,0],"id":25,"left_children":[1,3,5,7,9,11,13,-1,-1,15,17,19,21,23,25,-1,-1,-1,-1,-1,-1,-1,-1,-1,27,-1,-1,-1,-1],"loss_changes":[3.872726E2,1.5125336E1,4.696196E1,4.2803226E0,8.509598E0,1.33270645E1,9.884186E0,0E0,0E0,1.8090363E0,2.8620663E0,4.0917296E0,8.617344E-1,4.824646E0,4.5691466E0,0E0,0E0,0E0,0E0,0E0,0E0,0E0,0E0,0E0,1.7936096E0,0E0,0E0,0E0,0E0],"parents":[2147483647,0,0,1,1,2,2,3,3,4,4,5,5,6,6,9,9,10,10,11,11,12,12,13,13,14,14,24,24],"right_children":[2,4,6,8,10,12,14,-1,-1,16,18,20,22,24,26,-1,-1,-1,-1,-1,-1,-1,-1,-1,28,-1,-1,-1,-1],"split_conditions":[1.0817084E0,-1.1406219E0,-2.3822272E-1,4.6238983E-1,2.8029888E0,-1.6091237E0,2.013004E0,-2.0801125E-2,5.608077E-2,2.453215E0,1.05431E-2,-2.5582042E0,5.041509E-1,-1.721589E0,3.5410115E-1,-3.12539E-2,1.672788E-2,5.3480454E-2,-1.8650122E-2,3.285421E-2,-3.028806E-2,5.7198536E-2,9.799167E-3,-1.9137226E-2,3.1447935E0,4.6425696E-2,-2.6380325E-2,6.325598E-2,8.159596E-3],"split_indices":[549,737,1003,556,1227,984,1133,0,0,1011,17,652,223,720,240,0,0,0,0,0,0,0,0,0,1221,0,0,0,0],"split_type":[0,0,0,0,0,0,0,0,0,0,0,0,0,0,0,0,0,0,0,0,0,0,0,0,0,0,0,0,0],"sum_hessian":[6.574313E2,4.2488013E2,2.3255113E2,7.6843596E0,4.1719577E2,3.1405159E1,2.0114597E2,1.8701425E0,5.814217E0,4.12537E2,4.658792E0,2.3974106E1,7.431055E0,1.9403787E2,7.1080914E0,4.1114093E2,1.3960649E0,3.231666E0,1.4271259E0,2.0630188E0,2.1911087E1,5.762495E0,1.6685599E0,1.39832E0,1.9263956E2,2.5020611E0,4.6060305E0,1.9083005E2,1.8095105E0],"tree_param":{"num_deleted":"0","num_feature":"1286","num_nodes":"29","size_leaf_vector":"1"}},{"base_weights":[-8.597012E-3,6.27152E-2,-6.185684E-1,1.2510084E-1,-6.2336123E-1,2.6294297E-2,-1.802151E-2,-3.126362E-2,-2.6747918E-1,3.6982377E-4,-2.0167107E-2],"categories":[],"categories_nodes":[],"categories_segments":[],"categories_sizes":[],"default_left":[0,0,0,0,0,0,0,0,0,0,0],"id":26,"left_children":[1,-1,3,5,7,-1,-1,-1,9,-1,-1],"loss_changes":[5.0405063E2,0E0,1.650589E0,9.0140444E-1,1.3104248E-1,0E0,0E0,0E0,1.557298E-1,0E0,0E0],"parents":[2147483647,0,0,2,2,3,3,4,4,8,8],"right_children":[2,-1,4,6,8,-1,-1,-1,10,-1,-1],"split_conditions":[-4.824613E-1,6.27152E-2,-3.200337E0,8.912653E-1,3.9139836E0,2.6294297E-2,-1.802151E-2,-3.126362E-2,-7.128562E-1,3.6982377E-4,-2.0167107E-2],"split_indices":[968,0,579,6,739,0,0,0,7,0,0],"split_type":[0,0,0,0,0,0,0,0,0,0,0],"sum_hessian":[6.523206E2,2.1210872E2,4.4021188E2,2.6581845E0,4.3755368E2,1.4106437E0,1.247541E0,4.344636E2,3.0900993E0,1.3349038E0,1.7551956E0],"tree_param":{"num_deleted":"0","num_feature":"1286","num_nodes":"11","size_leaf_vector":"1"}},{"base_weights":[1.2584967E-2,-5.824416E-1,1.0860178E0,7.8781015E-1,-6.0947734E-1,1.2124257E0,-1.45278E-1,5.8513504E-2,-2.069843E-2,6.8674034E-1,-6.1877817E-1,-1.57327E-1,1.2515601E0,-4.6766043E-1,5.7843555E-2,4.1855585E-2,1.1480816E-2,-3.1253602E-2,4.0481497E-2,3.9483648E-2,-2.5934154E-2,6.3016616E-2,4.2135646E-3,-3.0124385E-2,3.9057072E-2],"categories":[],"categories_nodes":[],"categories_segments":[],"categories_sizes":[],"default_left":[0,0,0,0,0,0,0,0,0,0,0,0,0,0,0,0,0,0,0,0,0,0,0,0,0],"id":27,"left_children":[1,3,5,7,9,11,13,-1,-1,15,17,19,21,23,-1,-1,-1,-1,-1,-1,-1,-1,-1,-1,-1],"loss_changes":[4.3005392E2,1.6528229E1,3.754947E1,4.5374837E0,5.553253E0,1.187561E1,1.0300718E1,0E0,0E0,4.8676252E-2,4.307831E0,2.7844987E0,2.0639038E0,3.7282066E0,0E0,0E0,0E0,0E0,0E0,0E0,0E0,0E0,0E0,0E0,0E0],"parents":[2147483647,0,0,1,1,2,2,3,3,4,4,5,5,6,6,9,9,10,10,11,11,12,12,13,13],"right_children":[2,4,6,8,10,12,14,-1,-1,16,18,20,22,24,-1,-1,-1,-1,-1,-1,-1,-1,-1,-1,-1],"split_conditions":[8.885694E-1,-1.4240329E0,-1.095185E0,5.470551E-1,-1.6984786E0,-2.9329202E-1,9.6237105E-1,5.8513504E-2,-2.069843E-2,-2.3864985E-1,2.6047971E0,-5.738416E-1,1.8783967E0,1.787301E-1,5.7843555E-2,4.1855585E-2,1.1480816E-2,-3.1253602E-2,4.0481497E-2,3.9483648E-2,-2.5934154E-2,6.3016616E-2,4.2135646E-3,-3.0124385E-2,3.9057072E-2],"split_indices":[647,711,915,214,1014,840,363,0,0,8,665,13,906,650,0,0,0,0,0,0,0,0,0,0,0],"split_type":[0,0,0,0,0,0,0,0,0,0,0,0,0,0,0,0,0,0,0,0,0,0,0,0,0],"sum_hessian":[6.713144E2,4.3219626E2,2.3911812E2,7.8179827E0,4.2437827E2,2.1686913E2,2.2248997E1,5.9504886E0,1.8674945E0,2.5044606E0,4.218738E2,5.9400344E0,2.109291E2,1.8347443E1,3.9015536E0,1.2590406E0,1.24542E0,4.20583E2,1.2907865E0,1.3132133E0,4.626821E0,2.0927666E2,1.6524329E0,1.7026697E1,1.3207451E0],"tree_param":{"num_deleted":"0","num_feature":"1286","num_nodes":"25","size_leaf_vector":"1"}},{"base_weights":[1.2378467E-4,1.0627079E0,-5.621631E-1,-4.085381E-1,1.1394955E0,-6.0521257E-1,1.0311881E0,-2.835918E-2,3.0415982E-2,-3.6777467E-2,1.1748494E0,4.827255E-2,-6.146005E-1,1.6345954E-2,5.538298E-2,4.0472087E-2,-2.5935799E-2,-1.9056475E-2,1.1869917E0,-3.0961046E-2,2.840501E-2,3.948921E-3,5.9977937E-2],"categories":[],"categories_nodes":[],"categories_segments":[],"categories_sizes":[],"default_left":[0,0,0,0,0,0,0,0,0,0,0,0,0,0,0,0,0,0,0,0,0,0,0],"id":28,"left_children":[1,3,5,7,9,11,13,-1,-1,15,17,-1,19,-1,-1,-1,-1,-1,21,-1,-1,-1,-1],"loss_changes":[3.8401355E2,2.5592499E1,2.9454361E1,2.2435393E0,8.844727E0,6.637207E0,2.533083E-1,0E0,0E0,3.3338866E0,4.334961E0,0E0,2.581665E0,0E0,0E0,0E0,0E0,0E0,2.7480164E0,0E0,0E0,0E0,0E0],"parents":[2147483647,0,0,1,1,2,2,3,3,4,4,5,5,6,6,9,9,10,10,12,12,18,18],"right_children":[2,4,6,8,10,12,14,-1,-1,16,18,-1,20,-1,-1,-1,-1,-1,22,-1,-1,-1,-1],"split_conditions":[4.5791678E-2,-1.3192561E0,4.8382435E0,1.3312486E0,-3.3201773E0,-3.4678144E0,-2.2142885E0,-2.835918E-2,3.0415982E-2,-2.005771E0,-2.0814667E0,4.827255E-2,2.2740705E0,1.6345954E-2,5.538298E-2,4.0472087E-2,-2.5935799E-2,-1.9056475E-2,-1.4141748E0,-3.0961046E-2,2.840501E-2,3.948921E-3,5.9977937E-2],"split_indices":[1202,915,514,1,1169,807,25,0,0,10,671,0,1182,0,0,0,0,0,171,0,0,0,0],"split_type":[0,0,0,0,0,0,0,0,0,0,0,0,0,0,0,0,0,0,0,0,0,0,0],"sum_hessian":[6.4072516E2,2.2141507E2,4.193101E2,1.0768603E1,2.1064645E2,4.08883E2,1.0427111E1,9.697813E0,1.0707895E0,6.14525E0,2.045012E2,1.824308E0,4.070587E2,1.5379839E0,8.889127E0,1.9832957E0,4.161954E0,1.3481951E0,2.0315302E2,4.059492E2,1.1094806E0,2.3600159E0,2.00793E2],"tree_param":{"num_deleted":"0","num_feature":"1286","num_nodes":"23","size_leaf_vector":"1"}},{"base_weights":[7.128935E-3,1.0183269E0,-5.499695E-1,1.1241463E0,-4.8789382E-1,-5.9461933E-1,5.192178E-1,1.1735642E0,1.2600859E-1,-2.9402569E-2,1.5311881E-2,-3.0942857E-2,5.9940793E-2,5.858627E-2,-3.4844035E-1,1.185993E0,-1.849986E-2,-2.6962725E-2,8.81299E-1,-2.8299272E-2,1.0251776E0,-2.6958048E-2,2.06219E-2,5.9754994E-2,1.892919E-2,1.5255967E-2,4.948477E-2,6.0442276E-2,1.2920181E-2],"categories":[],"categories_nodes":[],"categories_segments":[],"categories_sizes":[],"default_left":[0,0,0,0,0,0,0,0,0,0,0,0,0,0,0,0,0,0,0,0,0,0,0,0,0,0,0,0,0],"id":29,"left_children":[1,3,5,7,9,11,13,15,17,-1,-1,-1,19,-1,21,23,-1,-1,25,-1,27,-1,-1,-1,-1,-1,-1,-1,-1],"loss_changes":[3.6754825E2,3.748874E1,2.039209E1,1.0548553E1,1.4456222E0,6.451248E0,1.0258133E1,4.400421E0,6.1783395E0,0E0,0E0,0E0,9.8528595E0,0E0,1.4179084E0,1.055603E0,0E0,0E0,5.371332E-2,0E0,5.879898E-1,0E0,0E0,0E0,0E0,0E0,0E0,0E0,0E0],"parents":[2147483647,0,0,1,1,2,2,3,3,4,4,5,5,6,6,7,7,8,8,12,12,14,14,15,15,18,18,20,20],"right_children":[2,4,6,8,10,12,14,16,18,-1,-1,-1,20,-1,22,24,-1,-1,26,-1,28,-1,-1,-1,-1,-1,-1,-1,-1],"split_conditions":[-7.0206475E-1,4.8382435E0,3.7729166E0,1.6143415E0,-1.8317947E-1,1.1171188E0,2.013004E0,2.524374E0,5.8834857E-1,-2.9402569E-2,1.5311881E-2,-3.0942857E-2,6.308624E-1,5.858627E-2,4.6203473E-1,3.693913E0,-1.849986E-2,-2.6962725E-2,-4.4237053E-1,-2.8299272E-2,-1.6630395E-1,-2.6958048E-2,2.06219E-2,5.9754994E-2,1.892919E-2,1.5255967E-2,4.948477E-2,6.0442276E-2,1.2920181E-2],"split_indices":[1101,514,516,646,547,816,1133,1127,1003,0,0,0,380,0,20,1039,0,0,2,0,1,0,0,0,0,0,0,0,0],"split_type":[0,0,0,0,0,0,0,0,0,0,0,0,0,0,0,0,0,0,0,0,0,0,0,0,0,0,0,0,0],"sum_hessian":[6.504544E2,2.3076373E2,4.1969067E2,2.1585266E2,1.4911069E1,4.0329282E2,1.6397854E1,2.0550247E2,1.0350192E1,1.3471517E1,1.4395525E0,3.8894504E2,1.4347781E1,9.159307E0,7.2385464E0,2.0409079E2,1.4116786E0,5.655145E0,4.6950464E0,8.9546175E0,5.3931627E0,6.020783E0,1.2177634E0,2.0133968E2,2.7511187E0,1.3474643E0,3.347582E0,3.8858404E0,1.5073225E0],"tree_param":{"num_deleted":"0","num_feature":"1286","num_nodes":"29","size_leaf_vector":"1"}},{"base_weights":[-3.2547633E-3,5.9343215E-2,-6.115737E-1,2.5618497E-2,-6.1645126E-1,-6.18402E-1,-6.232737E-3,-7.384044E-3,-3.0970851E-2],"categories":[],"categories_nodes":[],"categories_segments":[],"categories_sizes":[],"default_left":[0,0,0,0,0,0,0,0,0],"id":30,"left_children":[1,-1,3,-1,5,7,-1,-1,-1],"loss_changes":[4.7701254E2,0E0,2.7061157E0,0E0,3.398285E-1,1.15219116E-1,0E0,0E0,0E0],"parents":[2147483647,0,0,2,2,4,4,5,5],"right_children":[2,-1,4,-1,6,8,-1,-1,-1],"split_conditions":[-5.2454865E-1,5.9343215E-2,-3.200337E0,2.5618497E-2,4.2221093E0,-4.0266285E0,-6.232737E-3,-7.384044E-3,-3.0970851E-2],"split_indices":[518,0,579,0,896,948,0,0,0],"split_type":[0,0,0,0,0,0,0,0,0],"sum_hessian":[6.5688E2,2.2186699E2,4.3501303E2,1.4300857E0,4.3358295E2,4.3161353E2,1.9694209E0,1.243917E0,4.303696E2],"tree_param":{"num_deleted":"0","num_feature":"1286","num_nodes":"9","size_leaf_vector":"1"}},{"base_weights":[-4.7158925E-3,-5.7500964E-1,9.9719894E-1,5.647888E-1,-6.0935307E-1,1.1175872E0,-2.3568574E-1,-2.4948189E-2,1.0599536E0,3.7729897E-2,-6.157834E-1,1.1735939E0,-8.616243E-2,-4.6536884E-1,5.5127073E-2,8.163639E-3,6.0170483E-2,-3.0956084E-2,1.3645276E-2,-1.9816095E-2,1.1869789E0,-2.8286656E-2,4.7527105E-2,3.539795E-2,-2.9743338E-2,-1.7417958E-2,5.990411E-2],"categories":[],"categories_nodes":[],"categories_segments":[],"categories_sizes":[],"default_left":[0,0,0,0,0,0,0,0,0,0,0,0,0,0,0,0,0,0,0,0,0,0,0,0,0,0,0],"id":31,"left_children":[1,3,5,7,9,11,13,-1,15,-1,17,19,21,23,-1,-1,-1,-1,-1,-1,25,-1,-1,-1,-1,-1,-1],"loss_changes":[3.7201917E2,1.6585526E1,3.5317123E1,7.1946483E0,4.0014343E0,1.4618591E1,7.224736E0,0E0,9.554825E-1,0E0,1.3612976E0,4.795685E0,5.760587E0,3.3597775E0,0E0,0E0,0E0,0E0,0E0,0E0,3.9007874E0,0E0,0E0,0E0,0E0,0E0,0E0],"parents":[2147483647,0,0,1,1,2,2,3,3,4,4,5,5,6,6,8,8,10,10,11,11,12,12,13,13,20,20],"right_children":[2,4,6,8,10,12,14,-1,16,-1,18,20,22,24,-1,-1,-1,-1,-1,-1,26,-1,-1,-1,-1,-1,-1],"split_conditions":[8.40098E-1,-1.2005183E0,-2.809533E-1,1.8038417E-1,-1.1019071E0,1.078212E0,7.90143E-1,-2.4948189E-2,-7.443978E-1,3.7729897E-2,2.944531E0,-2.280786E0,-1.4416776E0,-7.757439E-1,5.5127073E-2,8.163639E-3,6.0170483E-2,-3.0956084E-2,1.3645276E-2,-1.9816095E-2,-9.220163E-1,-2.8286656E-2,4.7527105E-2,3.539795E-2,-2.9743338E-2,-1.7417958E-2,5.990411E-2],"split_indices":[647,711,607,840,1097,704,453,0,36,0,768,540,1213,6,0,0,0,0,0,0,853,0,0,0,0,0,0],"split_type":[0,0,0,0,0,0,0,0,0,0,0,0,0,0,0,0,0,0,0,0,0,0,0,0,0,0,0],"sum_hessian":[6.4907874E2,4.1390723E2,2.351715E2,1.1654936E1,4.022523E2,2.1433563E2,2.0835861E1,3.6995637E0,7.955372E0,1.3415467E0,4.0091077E2,2.0483058E2,9.505062E0,1.8340319E1,2.4955425E0,1.3921006E0,6.5632715E0,3.9971262E2,1.1981492E0,1.489757E0,2.0334082E2,6.8093915E0,2.6956701E0,1.3789811E0,1.6961338E1,1.2418704E0,2.0209895E2],"tree_param":{"num_deleted":"0","num_feature":"1286","num_nodes":"27","size_leaf_vector":"1"}},{"base_weights":[-7.835743E-3,9.919798E-1,-5.56048E-1,-3.576126E-1,1.0925014E0,-5.949129E-1,8.583002E-1,4.2165127E-2,-2.898114E-2,1.1139094E0,-2.2964204E-2,-6.0882205E-1,4.190611E-2,5.252346E-2,-1.8350257E-2,-2.0458551E-2,1.1287212E0,2.047885E-2,-3.0677525E-2,5.705386E-2,4.1472404E-3],"categories":[],"categories_nodes":[],"categories_segments":[],"categories_sizes":[],"default_left":[0,0,0,0,0,0,0,0,0,0,0,0,0,0,0,0,0,0,0,0,0],"id":32,"left_children":[1,3,5,7,9,11,13,-1,-1,15,-1,17,-1,-1,-1,-1,19,-1,-1,-1,-1],"loss_changes":[3.456216E2,3.0685623E1,2.2896652E1,4.8168154E0,7.4240265E0,8.422455E0,3.0465212E0,0E0,0E0,5.098694E0,0E0,2.1472015E0,0E0,0E0,0E0,0E0,2.539093E0,0E0,0E0,0E0,0E0],"parents":[2147483647,0,0,1,1,2,2,3,3,4,4,5,5,6,6,9,9,11,11,16,16],"right_children":[2,4,6,8,10,12,14,-1,-1,16,-1,18,-1,-1,-1,-1,20,-1,-1,-1,-1],"split_conditions":[-3.3310454E-2,-1.2155268E0,4.8382435E0,5.0274616E-1,2.8330367E0,1.9969832E0,5.313771E-1,4.2165127E-2,-2.898114E-2,-1.3931365E0,-2.2964204E-2,-2.1422193E0,4.190611E-2,5.252346E-2,-1.8350257E-2,-2.0458551E-2,1.5973427E0,2.047885E-2,-3.0677525E-2,5.705386E-2,4.1472404E-3],"split_indices":[1202,915,514,727,1008,910,31,0,0,1087,0,1139,0,0,0,0,697,0,0,0,0],"split_type":[0,0,0,0,0,0,0,0,0,0,0,0,0,0,0,0,0,0,0,0,0],"sum_hessian":[6.2856226E2,2.2230981E2,4.0625244E2,1.5233187E1,2.0707663E2,3.9595148E2,1.030098E1,1.9401094E0,1.32930765E1,2.0453706E2,2.539552E0,3.9271487E2,3.2365835E0,9.027804E0,1.2731745E0,1.7135258E0,2.0282355E2,1.4192448E0,3.9129562E2,2.0036508E2,2.4584618E0],"tree_param":{"num_deleted":"0","num_feature":"1286","num_nodes":"21","size_leaf_vector":"1"}},{"base_weights":[-3.9233086E-3,-5.773008E-1,8.933182E-1,-6.0508484E-1,4.1758412E-1,-6.978573E-2,1.0757045E0,2.7886301E-2,-3.0668622E-2,-2.5579957E-2,5.4525938E-2,-3.4771752E-1,7.292973E-1,-2.5629824E-2,1.1105373E0,4.7183603E-2,-4.9300984E-1,-1.9981643E-2,9.9635655E-1,1.121945E0,-1.8155292E-2,1.7169273E-2,-3.0138526E-2,5.3701606E-2,1.525589E-2,7.896127E-3,5.647857E-2],"categories":[],"categories_nodes":[],"categories_segments":[],"categories_sizes":[],"default_left":[0,0,0,0,0,0,0,0,0,0,0,0,0,0,0,0,0,0,0,0,0,0,0,0,0,0,0],"id":33,"left_children":[1,3,5,7,9,11,13,-1,-1,-1,-1,15,17,-1,19,-1,21,-1,23,25,-1,-1,-1,-1,-1,-1,-1],"loss_changes":[3.3160547E2,1.1123047E1,4.4219955E1,4.032837E0,7.6083965E0,9.348965E0,1.2262741E1,0E0,0E0,0E0,0E0,6.293418E0,3.681778E0,0E0,3.8896027E0,0E0,2.8305154E0,0E0,1.6056824E-1,1.3345947E0,0E0,0E0,0E0,0E0,0E0,0E0,0E0],"parents":[2147483647,0,0,1,1,2,2,3,3,4,4,5,5,6,6,11,11,12,12,14,14,16,16,18,18,19,19],"right_children":[2,4,6,8,10,12,14,-1,-1,-1,-1,16,18,-1,20,-1,22,-1,24,26,-1,-1,-1,-1,-1,-1,-1],"split_conditions":[4.634195E-1,1.8471606E0,-1.2054529E0,-1.3665379E0,1.9312323E0,6.318877E-1,-4.0089542E-1,2.7886301E-2,-3.0668622E-2,-2.5579957E-2,5.4525938E-2,-1.240677E0,9.357767E-1,-2.5629824E-2,4.8382435E0,4.7183603E-2,-1.5597293E0,-1.9981643E-2,4.2299804E-1,-1.6402414E0,-1.8155292E-2,1.7169273E-2,-3.0138526E-2,5.3701606E-2,1.525589E-2,7.896127E-3,5.647857E-2],"split_indices":[586,1259,1016,770,1142,868,1156,0,0,0,0,205,733,0,514,0,151,0,89,1090,0,0,0,0,0,0,0],"split_type":[0,0,0,0,0,0,0,0,0,0,0,0,0,0,0,0,0,0,0,0,0,0,0,0,0,0,0],"sum_hessian":[6.4257E2,3.9225687E2,2.5031313E2,3.819811E2,1.0275739E1,3.9953453E1,2.1035968E2,2.2340264E0,3.797471E2,4.416801E0,5.8589377E0,3.0062252E1,9.8912E0,4.220018E0,2.0613966E2,2.4844992E0,2.7577753E1,1.7972649E0,8.093935E0,2.0479297E2,1.346689E0,2.9522913E0,2.4625462E1,6.778452E0,1.3154832E0,1.7777741E0,2.030152E2],"tree_param":{"num_deleted":"0","num_feature":"1286","num_nodes":"27","size_leaf_vector":"1"}},{"base_weights":[4.624161E-3,-6.0578257E-1,5.6347292E-2,1.6524963E-1,-6.119614E-1,-2.0684257E-2,4.574415E-2,-3.0700246E-2,-6.2166434E-3],"categories":[],"categories_nodes":[],"categories_segments":[],"categories_sizes":[],"default_left":[0,0,0,0,0,0,0,0,0],"id":34,"left_children":[1,3,-1,5,7,-1,-1,-1,-1],"loss_changes":[4.376456E2,2.0724487E0,0E0,2.147851E0,3.3291626E-1,0E0,0E0,0E0,0E0],"parents":[2147483647,0,0,1,1,3,3,4,4],"right_children":[2,4,-1,6,8,-1,-1,-1,-1],"split_conditions":[8.5810167E-1,-3.2900486E0,5.6347292E-2,1.3038427E0,3.9139836E0,-2.0684257E-2,4.574415E-2,-3.0700246E-2,-6.2166434E-3],"split_indices":[532,718,0,539,739,0,0,0,0],"split_type":[0,0,0,0,0,0,0,0,0],"sum_hessian":[6.3683435E2,4.1278802E2,2.2404631E2,3.077011E0,4.0971103E2,1.9890425E0,1.0879686E0,4.0774313E2,1.9678775E0],"tree_param":{"num_deleted":"0","num_feature":"1286","num_nodes":"9","size_leaf_vector":"1"}},{"base_weights":[-5.390697E-4,1.0764098E0,-5.007183E-1,-2.0969866E-1,1.1195508E0,-5.9384346E-1,3.227377E-1,3.81083E-2,-2.6804304E-2,5.652798E-2,-1.7352855E-2,4.903055E-1,-6.035857E-1,-6.214659E-2,1.0066509E0,-1.7508702E-2,4.8529066E-2,4.0241327E-2,-6.101583E-1,-4.8508748E-1,9.789119E-1,5.7701208E-2,-1.8280916E-2,-3.0676056E-2,1.2588608E-2,3.6547225E-2,-2.9904205E-2,5.5392463E-2,7.350705E-3],"categories":[],"categories_nodes":[],"categories_segments":[],"categories_sizes":[],"default_left":[0,0,0,0,0,0,0,0,0,0,0,0,0,0,0,0,0,0,0,0,0,0,0,0,0,0,0,0,0],"id":35,"left_children":[1,3,5,7,9,11,13,-1,-1,-1,-1,15,17,19,21,-1,-1,-1,23,25,27,-1,-1,-1,-1,-1,-1,-1,-1],"loss_changes":[3.553842E2,1.1843994E1,3.473877E1,2.829816E0,3.663498E0,4.574539E0,1.2281569E1,0E0,0E0,0E0,0E0,2.0189219E0,4.211731E0,1.396828E1,3.8143196E0,0E0,0E0,0E0,1.3156891E0,3.52346E0,8.2230186E-1,0E0,0E0,0E0,0E0,0E0,0E0,0E0,0E0],"parents":[2147483647,0,0,1,1,2,2,3,3,4,4,5,5,6,6,11,11,12,12,13,13,14,14,18,18,19,19,20,20],"right_children":[2,4,6,8,10,12,14,-1,-1,-1,-1,16,18,20,22,-1,-1,-1,24,26,28,-1,-1,-1,-1,-1,-1,-1,-1],"split_conditions":[-9.864728E-1,3.80404E-1,9.5863825E-1,-6.0512537E-1,3.6597378E0,-1.8828069E0,6.0441166E-1,3.81083E-2,-2.6804304E-2,5.652798E-2,-1.7352855E-2,-7.899535E-1,-7.5900036E-1,-7.8327365E-2,-5.6370914E-1,-1.7508702E-2,4.8529066E-2,4.0241327E-2,3.1801744E0,-9.797072E-1,1.0176669E0,5.7701208E-2,-1.8280916E-2,-3.0676056E-2,1.2588608E-2,3.6547225E-2,-2.9904205E-2,5.5392463E-2,7.350705E-3],"split_indices":[814,632,534,35,745,1090,1096,0,0,0,0,1,848,789,731,0,0,0,944,5,6,0,0,0,0,0,0,0,0],"split_type":[0,0,0,0,0,0,0,0,0,0,0,0,0,0,0,0,0,0,0,0,0,0,0,0,0,0,0,0,0],"sum_hessian":[6.577462E2,2.0823595E2,4.4951025E2,6.633026E0,2.0160292E2,4.040903E2,4.5419968E1,1.3319123E0,5.301114E0,2.0032834E2,1.2745829E0,3.159544E0,4.0093076E2,2.9645542E1,1.5774425E1,1.2474334E0,1.9121107E0,1.2981775E0,3.9963257E2,2.146088E1,8.184663E0,1.4388255E1,1.3861699E0,3.9836658E2,1.2660005E0,1.3596845E0,2.0101194E1,6.7991385E0,1.3855243E0],"tree_param":{"num_deleted":"0","num_feature":"1286","num_nodes":"29","size_leaf_vector":"1"}},{"base_weights":[7.4883685E-3,9.508644E-1,-5.888085E-1,1.00763E0,-2.8238138E-2,3.90347E-2,-6.032324E-1,1.0378296E0,-2.5701543E-2,-3.0404061E-2,2.768889E-2,1.9166653E-1,1.0766917E0,-2.7501965E-2,4.691105E-2,2.121017E-2,5.4188747E-2],"categories":[],"categories_nodes":[],"categories_segments":[],"categories_sizes":[],"default_left":[0,0,0,0,0,0,0,0,0,0,0,0,0,0,0,0,0],"id":36,"left_children":[1,3,5,7,-1,-1,9,11,-1,-1,-1,13,15,-1,-1,-1,-1],"loss_changes":[3.5562857E2,2.1633804E1,8.122665E0,1.1394943E1,0E0,0E0,2.4904022E0,7.425598E0,0E0,0E0,0E0,6.832822E0,5.6481934E-1,0E0,0E0,0E0,0E0],"parents":[2147483647,0,0,1,1,2,2,3,3,6,6,7,7,11,11,12,12],"right_children":[2,4,6,8,-1,-1,10,12,-1,-1,-1,14,16,-1,-1,-1,-1],"split_conditions":[-7.590783E-1,1.3738989E0,-2.359909E0,2.003349E0,-2.8238138E-2,3.90347E-2,2.1508904E0,5.4441255E-1,-2.5701543E-2,-3.0404061E-2,2.768889E-2,-5.0271446E-1,-4.9086206E-2,-2.7501965E-2,4.691105E-2,2.121017E-2,5.4188747E-2],"split_indices":[1015,697,952,597,0,0,1182,759,0,0,0,573,906,0,0,0,0],"split_type":[0,0,0,0,0,0,0,0,0,0,0,0,0,0,0,0,0],"sum_hessian":[6.301972E2,2.4383754E2,3.8635965E2,2.3535773E2,8.479813E0,3.4731207E0,3.8288654E2,2.3108939E2,4.268346E0,3.8176108E2,1.1254687E0,1.0407789E1,2.206816E2,5.352892E0,5.054897E0,3.0238268E0,2.1765776E2],"tree_param":{"num_deleted":"0","num_feature":"1286","num_nodes":"17","size_leaf_vector":"1"}},{"base_weights":[-2.2064418E-2,-5.7978106E-1,8.5120356E-1,-5.9559894E-1,4.4720713E-2,1.014551E0,-1.8775783E-1,3.951302E-2,-6.038572E-1,-3.2521886E-1,1.0567694E0,8.6242104E-1,-4.8078442E-1,1.839044E-2,-3.0407667E-2,-2.6529536E-2,2.3697635E-2,1.0688369E0,-1.897516E-2,5.170318E-2,7.880268E-3,4.054828E-2,-2.983043E-2,-1.6251266E-2,5.386777E-2],"categories":[],"categories_nodes":[],"categories_segments":[],"categories_sizes":[],"default_left":[0,0,0,0,0,0,0,0,0,0,0,0,0,0,0,0,0,0,0,0,0,0,0,0,0],"id":37,"left_children":[1,3,5,7,-1,9,11,-1,13,15,17,19,21,-1,-1,-1,-1,23,-1,-1,-1,-1,-1,-1,-1],"loss_changes":[3.0487454E2,9.440033E0,4.1596985E1,4.809433E0,0E0,1.2277893E1,1.0874859E1,0E0,1.796814E0,1.4348667E0,3.9549255E0,7.774167E-1,4.5560985E0,0E0,0E0,0E0,0E0,2.7644958E0,0E0,0E0,0E0,0E0,0E0,0E0,0E0],"parents":[2147483647,0,0,1,1,2,2,3,3,5,5,6,6,8,8,9,9,10,10,11,11,12,12,17,17],"right_children":[2,4,6,8,-1,10,12,-1,14,16,18,20,22,-1,-1,-1,-1,24,-1,-1,-1,-1,-1,-1,-1],"split_conditions":[4.634195E-1,2.02747E0,1.0802479E0,-1.9978025E0,4.4720713E-2,-1.1009072E0,-1.0395843E0,3.951302E-2,-1.8716758E0,6.7763454E-1,4.2955627E0,-3.4232292E-1,-1.3067104E0,1.839044E-2,-3.0407667E-2,-2.6529536E-2,2.3697635E-2,-6.1613613E-1,-1.897516E-2,5.170318E-2,7.880268E-3,4.054828E-2,-2.983043E-2,-1.6251266E-2,5.386777E-2],"split_indices":[586,1184,769,828,0,814,669,0,1195,203,1259,531,59,0,0,0,0,909,0,0,0,0,0,0,0],"split_type":[0,0,0,0,0,0,0,0,0,0,0,0,0,0,0,0,0,0,0,0,0,0,0,0,0],"sum_hessian":[6.23966E2,3.8098456E2,2.4298148E2,3.7752972E2,3.4548366E0,2.0998996E2,3.2991516E1,1.6754315E0,3.7585428E2,6.2102056E0,2.0377975E2,6.773347E0,2.6218168E1,1.2820256E0,3.7457227E2,5.2079387E0,1.0022669E0,2.0233556E2,1.444202E0,5.0712214E0,1.7021257E0,1.6635396E0,2.4554628E1,1.0033458E0,2.013322E2],"tree_param":{"num_deleted":"0","num_feature":"1286","num_nodes":"25","size_leaf_vector":"1"}},{"base_weights":[-3.377387E-3,-6.0034746E-1,5.374807E-2,1.4051256E-2,-6.054713E-1,-4.5300135E-3,-6.075896E-1,-5.2875094E-3,-3.0434141E-2],"categories":[],"categories_nodes":[],"categories_segments":[],"categories_sizes":[],"default_left":[0,0,0,0,0,0,0,0,0],"id":38,"left_children":[1,3,-1,-1,5,-1,7,-1,-1],"loss_changes":[4.0665796E2,2.0064087E0,0E0,0E0,3.8619995E-1,0E0,1.565857E-1,0E0,0E0],"parents":[2147483647,0,0,1,1,4,4,6,6],"right_children":[2,4,-1,-1,6,-1,8,-1,-1],"split_conditions":[6.6491497E-1,-3.200337E0,5.374807E-2,1.4051256E-2,-3.2900486E0,-4.5300135E-3,-2.1696687E0,-5.2875094E-3,-3.0434141E-2],"split_indices":[929,579,0,0,718,0,932,0,0],"split_type":[0,0,0,0,0,0,0,0,0],"sum_hessian":[6.297129E2,4.0560986E2,2.2410301E2,2.0331504E0,4.0357672E2,1.832925E0,4.017438E2,1.0856969E0,4.006581E2],"tree_param":{"num_deleted":"0","num_feature":"1286","num_nodes":"9","size_leaf_vector":"1"}},{"base_weights":[3.4782877E-3,-5.552726E-1,9.240502E-1,-5.84322E-1,5.780245E-1,1.0191731E0,-2.3869173E-1,1.947107E-1,-6.012234E-1,-2.2809124E-2,5.1815894E-2,-2.4578383E-2,1.0474524E0,4.7156904E-2,-5.0495285E-1,-2.5014177E-2,4.908801E-2,2.8397393E-1,-3.0413255E-2,1.0667442E0,-2.2449696E-2,1.1282585E-2,-2.9134601E-2,3.7142E-2,-1.6631959E-2,-6.5743215E-3,5.412502E-2],"categories":[],"categories_nodes":[],"categories_segments":[],"categories_sizes":[],"default_left":[0,0,0,0,0,0,0,0,0,0,0,0,0,0,0,0,0,0,0,0,0,0,0,0,0,0,0],"id":39,"left_children":[1,3,5,7,9,11,13,15,17,-1,-1,-1,19,-1,21,-1,-1,23,-1,25,-1,-1,-1,-1,-1,-1,-1],"loss_changes":[3.137675E2,1.283493E1,2.5726456E1,4.9968567E0,5.207615E0,9.621948E0,6.213958E0,5.2091317E0,2.4353485E0,0E0,0E0,0E0,6.5290375E0,0E0,1.0136735E0,0E0,0E0,1.2505548E0,0E0,4.0541534E0,0E0,0E0,0E0,0E0,0E0,0E0,0E0],"parents":[2147483647,0,0,1,1,2,2,3,3,4,4,5,5,6,6,7,7,8,8,12,12,14,14,17,17,19,19],"right_children":[2,4,6,8,10,12,14,16,18,-1,-1,-1,20,-1,22,-1,-1,24,-1,26,-1,-1,-1,-1,-1,-1,-1],"split_conditions":[8.885694E-1,1.2774085E0,6.970229E-1,-2.6769679E0,-1.19588405E-1,-3.2132638E-1,-2.3679843E0,-3.906368E-1,-2.7345052E0,-2.2809124E-2,5.1815894E-2,-2.4578383E-2,2.250101E0,4.7156904E-2,-2.1790514E0,-2.5014177E-2,4.908801E-2,-5.146209E-1,-3.0413255E-2,-3.0288773E0,-2.2449696E-2,1.1282585E-2,-2.9134601E-2,3.7142E-2,-1.6631959E-2,-6.5743215E-3,5.412502E-2],"split_indices":[647,1170,1120,1252,14,1200,885,417,820,0,0,0,528,0,812,0,0,3,0,1163,0,0,0,0,0,0,0],"split_type":[0,0,0,0,0,0,0,0,0,0,0,0,0,0,0,0,0,0,0,0,0,0,0,0,0,0,0],"sum_hessian":[6.080055E2,3.7860437E2,2.2940112E2,3.696146E2,8.989795E0,2.1216736E2,1.723377E1,7.6252613E0,3.6198932E2,2.761858E0,6.2279363E0,3.5975108E0,2.0856984E2,2.701354E0,1.4532416E1,4.2429404E0,3.3823204E0,2.5465014E0,3.5944284E2,2.0619875E2,2.3711019E0,1.2146138E0,1.3317802E1,1.342638E0,1.2038634E0,2.5808945E0,2.0361784E2],"tree_param":{"num_deleted":"0","num_feature":"1286","num_nodes":"27","size_leaf_vector":"1"}},{"base_weights":[-2.077537E-2,8.9626914E-1,-5.595371E-1,-8.332326E-2,9.9185824E-1,-5.880712E-1,5.658783E-1,7.208414E-1,-2.9126069E-2,2.271816E-1,1.0220764E0,3.1592607E-2,-5.979428E-1,5.464833E-2,-2.3483053E-2,4.8594553E-2,-1.7601712E-2,-2.616833E-2,4.6286304E-2,-1.7137818E-2,1.0317625E0,2.5913838E-2,-3.014394E-2,1.4808801E-2,5.1800143E-2],"categories":[],"categories_nodes":[],"categories_segments":[],"categories_sizes":[],"default_left":[0,0,0,0,0,0,0,0,0,0,0,0,0,0,0,0,0,0,0,0,0,0,0,0,0],"id":40,"left_children":[1,3,5,7,9,11,13,15,-1,17,19,-1,21,-1,-1,-1,-1,-1,-1,-1,23,-1,-1,-1,-1],"loss_changes":[2.9699387E2,2.0914322E1,1.2491745E1,8.73013E0,4.4532013E0,4.830719E0,5.9017954E0,2.5980787E0,0E0,5.2000113E0,2.928543E0,0E0,2.3361816E0,0E0,0E0,0E0,0E0,0E0,0E0,0E0,2.9719543E-1,0E0,0E0,0E0,0E0],"parents":[2147483647,0,0,1,1,2,2,3,3,4,4,5,5,6,6,7,7,9,9,10,10,12,12,20,20],"right_children":[2,4,6,8,10,12,14,16,-1,18,20,-1,22,-1,-1,-1,-1,-1,-1,-1,24,-1,-1,-1,-1],"split_conditions":[-7.590783E-1,-1.8775609E0,2.08408E0,-1.4355998E-1,1.3933855E-1,-2.434167E0,9.2519766E-1,8.7981117E-1,-2.9126069E-2,-1.3640893E-1,-2.4484162E0,3.1592607E-2,-3.0130825E0,5.464833E-2,-2.3483053E-2,4.8594553E-2,-1.7601712E-2,-2.616833E-2,4.6286304E-2,-1.7137818E-2,-2.0034897E0,2.5913838E-2,-3.014394E-2,1.4808801E-2,5.1800143E-2],"split_indices":[1015,867,528,1152,1182,540,568,6,0,188,562,0,738,0,0,0,0,0,0,0,220,0,0,0,0],"split_type":[0,0,0,0,0,0,0,0,0,0,0,0,0,0,0,0,0,0,0,0,0,0,0,0,0],"sum_hessian":[5.9910376E2,2.214695E2,3.7763425E2,1.9701172E1,2.0176833E2,3.6876202E2,8.872239E0,7.3756475E0,1.2325524E1,7.994079E0,1.9377425E2,2.4543056E0,3.663077E2,5.842803E0,3.0294359E0,6.0533147E0,1.3223325E0,3.9744854E0,4.019594E0,1.1231949E0,1.9265105E2,1.1548206E0,3.651529E2,1.5102614E0,1.911408E2],"tree_param":{"num_deleted":"0","num_feature":"1286","num_nodes":"25","size_leaf_vector":"1"}},{"base_weights":[-1.5043643E-2,-5.5575264E-1,8.524555E-1,4.6804886E-2,-5.8306795E-1,1.0194236E0,8.099868E-2,-5.913373E-1,3.731877E-2,-1.740484E-2,1.0296952E0,9.6729577E-1,-2.6188508E-1,-2.2712499E-2,-3.0185083E-2,5.178609E-2,8.955905E-3,6.9820243E-3,5.462081E-2,-4.793451E-1,4.4274833E-2,-2.5589725E-2,4.2145986E-2,3.8146917E-2,-2.9593224E-2],"categories":[],"categories_nodes":[],"categories_segments":[],"categories_sizes":[],"default_left":[0,0,0,0,0,0,0,0,0,0,0,0,0,0,0,0,0,0,0,0,0,0,0,0,0],"id":41,"left_children":[1,3,5,-1,7,9,11,13,-1,-1,15,17,19,21,-1,-1,-1,-1,-1,23,-1,-1,-1,-1,-1],"loss_changes":[2.8531094E2,1.5814438E1,3.0001785E1,0E0,4.4932556E0,3.054184E0,1.3212057E1,2.565445E0,0E0,0E0,7.922363E-1,1.1013327E0,8.292433E0,4.17654E0,0E0,0E0,0E0,0E0,0E0,4.2477646E0,0E0,0E0,0E0,0E0,0E0],"parents":[2147483647,0,0,1,1,2,2,4,4,5,5,6,6,7,7,10,10,11,11,12,12,13,13,19,19],"right_children":[2,4,6,-1,8,10,12,14,-1,-1,16,18,20,22,-1,-1,-1,-1,-1,24,-1,-1,-1,-1,-1],"split_conditions":[1.0817084E0,-1.765931E0,3.446188E-1,4.6804886E-2,2.0602162E0,-1.9207412E0,-1.7919369E-1,-3.017343E0,3.731877E-2,-1.740484E-2,2.1870744E0,-2.6950676E0,2.2448304E0,5.488186E-1,-3.0185083E-2,5.178609E-2,8.955905E-3,6.9820243E-3,5.462081E-2,-2.2730284E0,4.4274833E-2,-2.5589725E-2,4.2145986E-2,3.8146917E-2,-2.9593224E-2],"split_indices":[549,737,1127,0,660,1158,1007,823,0,0,916,685,926,239,0,0,0,0,0,494,0,0,0,0,0],"split_type":[0,0,0,0,0,0,0,0,0,0,0,0,0,0,0,0,0,0,0,0,0,0,0,0,0],"sum_hessian":[6.062452E2,3.7368686E2,2.3255829E2,6.120857E0,3.67566E2,1.909164E2,4.164189E1,3.6584558E2,1.7204194E0,1.178102E0,1.897383E2,1.1108143E1,3.0533749E1,7.8461185E0,3.5799948E2,1.8818726E2,1.5510433E0,1.7366275E0,9.371515E0,2.6158272E1,4.375477E0,5.274685E0,2.5714335E0,1.6924176E0,2.4465853E1],"tree_param":{"num_deleted":"0","num_feature":"1286","num_nodes":"25","size_leaf_vector":"1"}},{"base_weights":[1.1038992E-3,5.142417E-2,-5.9489775E-1,1.4767869E-2,-6.002882E-1,-3.0173732E-2,-1.5400475E-1,1.6457217E-2,-2.0932417E-2],"categories":[],"categories_nodes":[],"categories_segments":[],"categories_sizes":[],"default_left":[0,0,0,0,0,0,0,0,0],"id":42,"left_children":[1,-1,3,-1,5,-1,7,-1,-1],"loss_changes":[3.774578E2,0E0,2.0494537E0,0E0,4.5896912E-1,0E0,6.6126657E-1,0E0,0E0],"parents":[2147483647,0,0,2,2,4,4,6,6],"right_children":[2,-1,4,-1,6,-1,8,-1,-1],"split_conditions":[-7.300951E-1,5.142417E-2,-1.7055011E0,1.4767869E-2,3.9139836E0,-3.0173732E-2,-7.5825804E-1,1.6457217E-2,-2.0932417E-2],"split_indices":[556,0,602,0,739,0,21,0,0],"split_type":[0,0,0,0,0,0,0,0,0],"sum_hessian":[6.1443964E2,2.253165E2,3.8912314E2,2.0181863E0,3.8710495E2,3.8401096E2,3.0940204E0,1.0087179E0,2.0853024E0],"tree_param":{"num_deleted":"0","num_feature":"1286","num_nodes":"9","size_leaf_vector":"1"}},{"base_weights":[-7.528133E-3,9.6709824E-1,-5.0646794E-1,1.0129491E0,-3.784689E-1,-5.6333923E-1,6.203289E-1,1.2131155E-1,5.167638E-2,-2.6589338E-2,1.5843391E-2,-5.8156985E-1,5.8302563E-1,1.0096141E0,-2.5577059E-2,3.999686E-2,-2.3805253E-2,-5.907232E-1,3.7291016E-2,4.6839252E-2,-1.8402442E-2,5.398136E-2,7.5858757E-3,-2.9859414E-2,2.935604E-3],"categories":[],"categories_nodes":[],"categories_segments":[],"categories_sizes":[],"default_left":[0,0,0,0,0,0,0,0,0,0,0,0,0,0,0,0,0,0,0,0,0,0,0,0,0],"id":43,"left_children":[1,3,5,7,9,11,13,15,-1,-1,-1,17,19,21,-1,-1,-1,23,-1,-1,-1,-1,-1,-1,-1],"loss_changes":[3.0623166E2,1.3538696E1,2.7040207E1,3.6631317E0,9.9519217E-1,8.636322E0,9.543751E0,2.728578E0,0E0,0E0,0E0,5.194977E0,2.603822E0,7.7205276E-1,0E0,0E0,0E0,1.6690979E0,0E0,0E0,0E0,0E0,0E0,0E0,0E0],"parents":[2147483647,0,0,1,1,2,2,3,3,4,4,5,5,6,6,7,7,11,11,12,12,13,13,17,17],"right_children":[2,4,6,8,10,12,14,16,-1,-1,-1,18,20,22,-1,-1,-1,24,-1,-1,-1,-1,-1,-1,-1],"split_conditions":[-9.864728E-1,2.1817763E-1,1.0773264E0,5.3688943E-2,5.9823304E-1,2.4076605E0,-1.6399428E0,-2.503658E-1,5.167638E-2,-2.6589338E-2,1.5843391E-2,3.258327E0,-1.3049057E-4,1.0870264E0,-2.5577059E-2,3.999686E-2,-2.3805253E-2,2.3081684E0,3.7291016E-2,4.6839252E-2,-1.8402442E-2,5.398136E-2,7.5858757E-3,-2.9859414E-2,2.935604E-3],"split_indices":[814,525,1170,632,195,1128,984,171,0,0,0,1194,4,312,0,0,0,1122,0,0,0,0,0,0,0],"split_type":[0,0,0,0,0,0,0,0,0,0,0,0,0,0,0,0,0,0,0,0,0,0,0,0,0],"sum_hessian":[6.2773645E2,2.1222972E2,4.155067E2,2.0547523E2,6.754481E0,3.96019E2,1.948769E1,4.790811E0,2.0068443E2,5.726934E0,1.0275471E0,3.9030472E2,5.7143087E0,1.4580884E1,4.9068055E0,2.0842488E0,2.7065623E0,3.8818286E2,2.1218464E0,4.1760283E0,1.5382808E0,1.3241762E1,1.339122E0,3.8443628E2,3.7465827E0],"tree_param":{"num_deleted":"0","num_feature":"1286","num_nodes":"25","size_leaf_vector":"1"}},{"base_weights":[-2.25217E-3,8.6693734E-1,-5.4365927E-1,-4.238547E-1,9.416101E-1,-5.8381516E-1,7.076022E-1,-2.7882067E-2,2.141152E-2,9.703633E-1,-2.4878213E-2,2.7139774E-1,-2.9933E-2,-2.0563362E-2,4.6934057E-2,9.8661697E-1,-6.492958E-2,4.4320952E-2,-2.2203127E-2,4.979267E-2,-1.731645E-2,-2.2468768E-2,2.9530251E-2],"categories":[],"categories_nodes":[],"categories_segments":[],"categories_sizes":[],"default_left":[0,0,0,0,0,0,0,0,0,0,0,0,0,0,0,0,0,0,0,0,0,0,0],"id":44,"left_children":[1,3,5,7,9,11,13,-1,-1,15,-1,17,-1,-1,-1,19,21,-1,-1,-1,-1,-1,-1],"loss_changes":[2.8192456E2,2.25625E1,1.896125E1,1.7509017E0,9.490494E0,4.7102356E0,3.4706693E0,0E0,0E0,3.6609192E0,0E0,3.3857727E0,0E0,0E0,0E0,2.9366302E0,1.334513E0,0E0,0E0,0E0,0E0,0E0,0E0],"parents":[2147483647,0,0,1,1,2,2,3,3,4,4,5,5,6,6,9,9,11,11,15,15,16,16],"right_children":[2,4,6,8,10,12,14,-1,-1,16,-1,18,-1,-1,-1,20,22,-1,-1,-1,-1,-1,-1],"split_conditions":[-3.3310454E-2,-1.3939466E0,4.8382435E0,8.5133153E-1,2.502514E0,-3.1412446E0,1.3833773E0,-2.7882067E-2,2.141152E-2,1.5973427E0,-2.4878213E-2,-1.028795E0,-2.9933E-2,-2.0563362E-2,4.6934057E-2,7.451571E-1,-2.1683079E-1,4.4320952E-2,-2.2203127E-2,4.979267E-2,-1.731645E-2,-2.2468768E-2,2.9530251E-2],"split_indices":[1202,915,514,207,1008,1016,747,0,0,697,0,39,0,0,0,526,2,0,0,0,0,0,0],"split_type":[0,0,0,0,0,0,0,0,0,0,0,0,0,0,0,0,0,0,0,0,0,0,0],"sum_hessian":[5.970918E2,2.2894157E2,3.681502E2,1.226434E1,2.1667723E2,3.572196E2,1.0930589E1,1.0898685E1,1.365655E0,2.1275241E2,3.9248202E0,5.7999744E0,3.5141965E2,1.7375779E0,9.19301E0,2.0951021E2,3.2422037E0,2.9904153E0,2.809559E0,2.0831958E2,1.190619E0,2.2419038E0,1.0002999E0],"tree_param":{"num_deleted":"0","num_feature":"1286","num_nodes":"23","size_leaf_vector":"1"}},{"base_weights":[-2.0946221E-2,-5.6797844E-1,7.71321E-1,4.127876E-2,-5.8439845E-1,9.2061925E-1,-2.8876168E-1,-5.9343755E-1,3.1140152E-2,-2.6326362E-2,9.620316E-1,-4.7409332E-1,4.5848947E-2,1.9944403E-2,-2.9902238E-2,9.806388E-1,-2.1898517E-2,3.9756652E-2,-2.9434068E-2,4.9512822E-2,1.7533636E-3],"categories":[],"categories_nodes":[],"categories_segments":[],"categories_sizes":[],"default_left":[0,0,0,0,0,0,0,0,0,0,0,0,0,0,0,0,0,0,0,0,0],"id":45,"left_children":[1,3,5,-1,7,9,11,13,-1,-1,15,17,-1,-1,-1,19,-1,-1,-1,-1,-1],"loss_changes":[2.5728613E2,8.517632E0,3.8643784E1,0E0,4.16317E0,1.3258987E1,7.2941647E0,1.8185043E0,0E0,0E0,5.827713E0,4.433561E0,0E0,0E0,0E0,1.8278809E0,0E0,0E0,0E0,0E0,0E0],"parents":[2147483647,0,0,1,1,2,2,4,4,5,5,6,6,7,7,10,10,11,11,15,15],"right_children":[2,4,6,-1,8,10,12,14,-1,-1,16,18,-1,-1,-1,20,-1,-1,-1,-1,-1],"split_conditions":[4.634195E-1,-2.6844358E0,1.0802479E0,4.127876E-2,1.0437819E0,-1.1009072E0,2.583649E0,-2.4938858E0,3.1140152E-2,-2.6326362E-2,2.524374E0,1.5417202E-1,4.5848947E-2,1.9944403E-2,-2.9902238E-2,2.1214902E0,-2.1898517E-2,3.9756652E-2,-2.9434068E-2,4.9512822E-2,1.7533636E-3],"split_indices":[586,698,769,0,987,814,826,494,0,0,1127,1061,0,0,0,1261,0,0,0,0,0],"split_type":[0,0,0,0,0,0,0,0,0,0,0,0,0,0,0,0,0,0,0,0,0],"sum_hessian":[5.91641E2,3.5015472E2,2.4148625E2,3.503881E0,3.4665085E2,2.1179005E2,2.9696201E1,3.445792E2,2.071678E0,5.5661955E0,2.0622386E2,2.6265755E1,3.4304461E0,1.1969382E0,3.4338223E2,2.0381454E2,2.40932E0,1.6831706E0,2.4582584E1,2.0171559E2,2.0989544E0],"tree_param":{"num_deleted":"0","num_feature":"1286","num_nodes":"21","size_leaf_vector":"1"}},{"base_weights":[-1.4472314E-2,-5.89208E-1,4.9320605E-2,1.4260137E-2,-5.945367E-1,-5.9673065E-1,-9.094958E-4,-7.799429E-3,-5.978661E-1,-1.06272055E-2,-2.9947704E-2],"categories":[],"categories_nodes":[],"categories_segments":[],"categories_sizes":[],"default_left":[0,0,0,0,0,0,0,0,0,0,0],"id":46,"left_children":[1,3,-1,-1,5,7,-1,-1,9,-1,-1],"loss_changes":[3.5024103E2,1.9716034E0,0E0,0E0,4.7561646E-1,9.854126E-2,0E0,0E0,3.2791138E-2,0E0,0E0],"parents":[2147483647,0,0,1,1,4,4,5,5,8,8],"right_children":[2,4,-1,-1,6,8,-1,-1,10,-1,-1],"split_conditions":[8.5810167E-1,-3.200337E0,4.9320605E-2,1.4260137E-2,1.2922738E0,-1.391438E0,-9.094958E-4,-7.799429E-3,-3.2900486E0,-1.06272055E-2,-2.9947704E-2],"split_indices":[532,579,0,0,892,1047,0,0,718,0,0],"split_type":[0,0,0,0,0,0,0,0,0,0,0],"sum_hessian":[6.0684607E2,3.857494E2,2.2109671E2,2.0184035E0,3.83731E2,3.8224057E2,1.4904157E0,1.3377961E0,3.8090277E2,1.6253202E0,3.7927744E2],"tree_param":{"num_deleted":"0","num_feature":"1286","num_nodes":"11","size_leaf_vector":"1"}},{"base_weights":[1.8343562E-2,-5.60534E-1,8.565262E-1,5.812988E-1,-5.90951E-1,9.521994E-1,-3.2377735E-1,4.9462106E-2,-2.2161735E-2,-2.9902203E-2,3.475369E-2,9.736136E-1,-7.1341254E-2,4.276979E-2,-5.1306254E-1,-3.7511397E-2,9.929733E-1,3.417453E-2,-2.4102537E-2,1.07255E-2,-2.9030813E-2,3.2581024E-2,-2.337072E-2,-1.670179E-2,5.0081857E-2],"categories":[],"categories_nodes":[],"categories_segments":[],"categories_sizes":[],"default_left":[0,0,0,0,0,0,0,0,0,0,0,0,0,0,0,0,0,0,0,0,0,0,0,0,0],"id":47,"left_children":[1,3,5,7,9,11,13,-1,-1,-1,-1,15,17,-1,19,21,23,-1,-1,-1,-1,-1,-1,-1,-1],"loss_changes":[2.9331393E2,1.2762909E1,2.8193542E1,4.5271254E0,3.597412E0,5.0816803E0,4.738118E0,0E0,0E0,0E0,0E0,4.4232483E0,2.071152E0,0E0,9.7104406E-1,1.8371325E0,2.8625793E0,0E0,0E0,0E0,0E0,0E0,0E0,0E0,0E0],"parents":[2147483647,0,0,1,1,2,2,3,3,4,4,5,5,6,6,11,11,12,12,14,14,15,15,16,16],"right_children":[2,4,6,8,10,12,14,-1,-1,-1,-1,16,18,-1,20,22,24,-1,-1,-1,-1,-1,-1,-1,-1],"split_conditions":[7.890478E-1,-2.7727797E0,8.9245796E-1,-5.498891E-1,5.055287E0,2.7292018E0,-1.4121096E0,4.9462106E-2,-2.2161735E-2,-2.9902203E-2,3.475369E-2,-2.1880276E0,5.0121393E-2,4.276979E-2,-1.669291E0,1.615947E-1,-2.824722E-1,3.417453E-2,-2.4102537E-2,1.07255E-2,-2.9030813E-2,3.2581024E-2,-2.337072E-2,-1.670179E-2,5.0081857E-2],"split_indices":[647,984,1120,584,1177,763,584,0,0,0,0,876,6,0,65,24,619,0,0,0,0,0,0,0,0],"split_type":[0,0,0,0,0,0,0,0,0,0,0,0,0,0,0,0,0,0,0,0,0,0,0,0,0],"sum_hessian":[6.025258E2,3.5658633E2,2.4593945E2,8.782616E0,3.4780374E2,2.2767758E2,1.8261856E1,6.3061237E0,2.4764924E0,3.4642798E2,1.3757405E0,2.2305959E2,4.618005E0,2.0392203E0,1.6222637E1,4.1730113E0,2.1888657E2,1.3932385E0,3.2247663E0,1.193449E0,1.5029187E1,1.4050257E0,2.7679856E0,1.1761894E0,2.1771039E2],"tree_param":{"num_deleted":"0","num_feature":"1286","num_nodes":"25","size_leaf_vector":"1"}},{"base_weights":[1.1700285E-2,8.4661454E-1,-5.5869335E-1,-3.1623307E-1,9.057768E-1,7.712682E-1,-5.783492E-1,-2.8375998E-2,3.274187E-2,-2.6378536E-1,9.3418944E-1,1.3556409E-2,4.5687515E-2,-5.8852684E-1,3.0906287E-1,2.5568305E-2,-2.5565317E-2,9.463427E-1,-2.0157238E-2,2.6847905E-2,-2.9668424E-2,-1.8892601E-2,4.1361142E-2,-1.8393036E-2,4.7809932E-2],"categories":[],"categories_nodes":[],"categories_segments":[],"categories_sizes":[],"default_left":[0,0,0,0,0,0,0,0,0,0,0,0,0,0,0,0,0,0,0,0,0,0,0,0,0],"id":48,"left_children":[1,3,5,7,9,11,13,-1,-1,15,17,-1,-1,19,21,-1,-1,23,-1,-1,-1,-1,-1,-1,-1],"loss_changes":[2.8655704E2,1.7088226E1,9.791718E0,3.4377198E0,7.9777374E0,1.5382671E-1,3.3689346E0,0E0,0E0,1.4698045E0,4.0768127E0,0E0,0E0,2.221527E0,1.9700748E0,0E0,0E0,3.2740173E0,0E0,0E0,0E0,0E0,0E0,0E0,0E0],"parents":[2147483647,0,0,1,1,2,2,3,3,4,4,5,5,6,6,9,9,10,10,13,13,14,14,17,17],"right_children":[2,4,6,8,10,12,14,-1,-1,16,18,-1,-1,20,22,-1,-1,24,-1,-1,-1,-1,-1,-1,-1],"split_conditions":[-7.590783E-1,-2.88147E-1,-2.1574848E0,1.3531201E0,-2.8517942E0,-6.49962E-1,4.8937635E0,-2.8375998E-2,3.274187E-2,-1.1121478E0,1.8183501E0,1.3556409E-2,4.5687515E-2,-1.0543059E0,7.269819E-1,2.5568305E-2,-2.5565317E-2,2.1341147E-1,-2.0157238E-2,2.6847905E-2,-2.9668424E-2,-1.8892601E-2,4.1361142E-2,-1.8393036E-2,4.7809932E-2],"split_indices":[1015,553,898,24,548,24,713,0,0,2,1226,0,0,672,1,0,0,1156,0,0,0,0,0,0,0],"split_type":[0,0,0,0,0,0,0,0,0,0,0,0,0,0,0,0,0,0,0,0,0,0,0,0,0],"sum_hessian":[5.9972687E2,2.432237E2,3.565032E2,1.1565037E1,2.3165865E2,4.6352024E0,3.51868E2,9.517688E0,2.047349E0,5.297824E0,2.2636082E2,1.6713454E0,2.963857E0,3.4821118E2,3.6568112E0,1.024255E0,4.273569E0,2.24612E2,1.7488351E0,1.0207714E0,3.4719043E2,1.6887922E0,1.9680189E0,1.4015638E0,2.2321043E2],"tree_param":{"num_deleted":"0","num_feature":"1286","num_nodes":"25","size_leaf_vector":"1"}},{"base_weights":[-1.6166478E-2,-5.485536E-1,7.947789E-1,-5.810078E-1,4.876293E-1,8.9857507E-1,-3.0488265E-1,-5.8962977E-1,3.143351E-1,8.537289E-1,-2.2526665E-2,-7.3019825E-2,9.407465E-1,3.9986514E-2,-2.8801424E-2,-2.9683907E-2,1.3821706E-2,-1.6505932E-2,3.6175027E-2,4.6656728E-2,1.2400109E-2,4.245769E-2,-2.6119217E-2,-1.8001227E-2,9.518248E-1,4.259566E-3,4.79551E-2],"categories":[],"categories_nodes":[],"categories_segments":[],"categories_sizes":[],"default_left":[0,0,0,0,0,0,0,0,0,0,0,0,0,0,0,0,0,0,0,0,0,0,0,0,0,0,0],"id":49,"left_children":[1,3,5,7,9,11,13,15,17,19,-1,21,23,-1,-1,-1,-1,-1,-1,-1,-1,-1,-1,-1,25,-1,-1],"loss_changes":[2.5262965E2,1.2161736E1,2.6744629E1,2.8328094E0,4.255791E0,8.761795E0,6.6751432E0,1.356308E0,1.2733808E0,1.7514133E-1,0E0,4.4854565E0,3.2739105E0,0E0,0E0,0E0,0E0,0E0,0E0,0E0,0E0,0E0,0E0,0E0,1.1920166E0,0E0,0E0],"parents":[2147483647,0,0,1,1,2,2,3,3,4,4,5,5,6,6,7,7,8,8,9,9,11,11,12,12,24,24],"right_children":[2,4,6,8,10,12,14,16,18,20,-1,22,24,-1,-1,-1,-1,-1,-1,-1,-1,-1,-1,-1,26,-1,-1],"split_conditions":[1.0817084E0,2.4640067E0,2.144307E0,2.2984505E0,8.4260523E-1,-2.0086207E0,-1.5944958E0,1.7281388E0,-8.562685E-2,1.0838945E0,-2.2526665E-2,-1.4496475E0,-5.724606E-1,3.9986514E-2,-2.8801424E-2,-2.9683907E-2,1.3821706E-2,-1.6505932E-2,3.6175027E-2,4.6656728E-2,1.2400109E-2,4.245769E-2,-2.6119217E-2,-1.8001227E-2,-1.9942207E0,4.259566E-3,4.79551E-2],"split_indices":[549,541,1133,1021,753,1016,1095,750,7,24,0,436,989,0,0,0,0,0,0,0,0,0,0,0,884,0,0],"split_type":[0,0,0,0,0,0,0,0,0,0,0,0,0,0,0,0,0,0,0,0,0,0,0,0,0,0,0],"sum_hessian":[5.831375E2,3.5222482E2,2.3091267E2,3.419538E2,1.02710285E1,2.1116394E2,1.9748726E1,3.3903046E2,2.9233446E0,7.452741E0,2.8182874E0,8.7537365E0,2.024102E2,3.508028E0,1.6240698E1,3.377661E2,1.2643478E0,1.210284E0,1.7130606E0,6.1111054E0,1.3416353E0,2.5765448E0,6.1771917E0,1.4433186E0,2.0096689E2,1.7792853E0,1.991876E2],"tree_param":{"num_deleted":"0","num_feature":"1286","num_nodes":"27","size_leaf_vector":"1"}},{"base_weights":[-6.222662E-4,4.7487766E-2,-5.8621943E-1,-5.90778E-1,1.141085E-2,3.0232694E-3,-5.9307575E-1,-5.0477018E-3,-2.971164E-2],"categories":[],"categories_nodes":[],"categories_segments":[],"categories_sizes":[],"default_left":[0,0,0,0,0,0,0,0,0],"id":50,"left_children":[1,-1,3,5,-1,-1,7,-1,-1],"loss_changes":[3.292767E2,0E0,1.4939346E0,5.810318E-1,0E0,0E0,1.4678955E-1,0E0,0E0],"parents":[2147483647,0,0,2,2,3,3,6,6],"right_children":[2,-1,4,6,-1,-1,8,-1,-1],"split_conditions":[-3.3775637E-1,4.7487766E-2,3.9139836E0,-3.2900486E0,1.141085E-2,3.0232694E-3,-5.1726496E-1,-5.0477018E-3,-2.971164E-2],"split_indices":[1045,0,739,718,0,0,951,0,0],"split_type":[0,0,0,0,0,0,0,0,0],"sum_hessian":[5.896509E2,2.2456992E2,3.6508093E2,3.63322E2,1.7589504E0,1.1883806E0,3.621336E2,1.0564697E0,3.6107715E2],"tree_param":{"num_deleted":"0","num_feature":"1286","num_nodes":"9","size_leaf_vector":"1"}},{"base_weights":[-1.2452947E-2,-5.654011E-1,7.7011204E-1,-5.894256E-1,2.7580944E-1,8.947553E-1,-3.0385035E-1,1.612196E-2,-2.9668573E-2,-2.4194162E-2,8.151543E-1,9.209753E-1,-2.4491725E-2,4.4392265E-2,-4.820239E-1,9.605287E-3,4.6140727E-2,-1.0644344E-1,9.453882E-1,-2.9103836E-2,2.1109993E-2,-2.5053719E-2,3.4647968E-2,4.8258074E-2,-8.81181E-3],"categories":[],"categories_nodes":[],"categories_segments":[],"categories_sizes":[],"default_left":[0,0,0,0,0,0,0,0,0,0,0,0,0,0,0,0,0,0,0,0,0,0,0,0,0],"id":51,"left_children":[1,3,5,7,9,11,13,-1,-1,-1,15,17,-1,-1,19,-1,-1,21,23,-1,-1,-1,-1,-1,-1],"loss_changes":[2.5624982E2,7.175102E0,3.3093857E1,1.4062805E0,4.62123E0,8.436111E0,6.0003357E0,0E0,0E0,0E0,2.5237656E-1,5.5236053E0,0E0,0E0,2.3698802E0,0E0,0E0,2.213841E0,4.8561554E0,0E0,0E0,0E0,0E0,0E0,0E0],"parents":[2147483647,0,0,1,1,2,2,3,3,4,4,5,5,6,6,10,10,11,11,14,14,17,17,18,18],"right_children":[2,4,6,8,10,12,14,-1,-1,-1,16,18,-1,-1,20,-1,-1,22,24,-1,-1,-1,-1,-1,-1],"split_conditions":[5.7752305E-1,7.9789907E-1,8.9245796E-1,-2.5693324E0,1.0097983E0,-2.7994457E-1,-1.4121096E0,1.612196E-2,-2.9668573E-2,-2.4194162E-2,-4.8702157E-1,-2.183264E0,-2.4491725E-2,4.4392265E-2,2.2774806E0,9.605287E-3,4.6140727E-2,1.099919E0,3.352824E-1,-2.9103836E-2,2.1109993E-2,-2.5053719E-2,3.4647968E-2,4.8258074E-2,-8.81181E-3],"split_indices":[647,862,1120,314,1128,948,584,0,0,0,26,1213,0,0,1100,0,0,32,1031,0,0,0,0,0,0],"split_type":[0,0,0,0,0,0,0,0,0,0,0,0,0,0,0,0,0,0,0,0,0,0,0,0,0],"sum_hessian":[5.901806E2,3.4598825E2,2.4419235E2,3.3667236E2,9.31588E0,2.1894826E2,2.5244099E1,1.1028078E0,3.3556958E2,3.9105365E0,5.4053435E0,2.152077E2,3.7405531E0,2.7653432E0,2.2478754E1,1.2066453E0,4.198698E0,4.9169564E0,2.1029074E2,2.0560043E1,1.9187113E0,3.54174E0,1.3752162E0,2.067848E2,3.505942E0],"tree_param":{"num_deleted":"0","num_feature":"1286","num_nodes":"25","size_leaf_vector":"1"}},{"base_weights":[-7.112993E-3,8.098045E-1,-5.536509E-1,8.5776407E-1,-2.7336273E-2,-5.735576E-1,3.9641716E-2,1.6611773E-1,9.112994E-1,-2.944908E-2,2.7857813E-1,4.3299895E-2,-4.0561453E-1,-1.7438013E-2,9.2003876E-1,-2.2173163E-2,4.4882085E-2,2.488259E-2,-2.7970731E-2,4.619299E-2,1.22417575E-2],"categories":[],"categories_nodes":[],"categories_segments":[],"categories_sizes":[],"default_left":[0,0,0,0,0,0,0,0,0,0,0,0,0,0,0,0,0,0,0,0,0],"id":52,"left_children":[1,3,5,7,-1,9,-1,11,13,-1,15,-1,17,-1,19,-1,-1,-1,-1,-1,-1],"loss_changes":[2.5970157E2,1.563829E1,9.795967E0,8.201706E0,0E0,4.685417E0,0E0,7.3257236E0,2.624176E0,0E0,3.4352684E0,0E0,1.7057136E0,0E0,3.104248E-1,0E0,0E0,0E0,0E0,0E0,0E0],"parents":[2147483647,0,0,1,1,2,2,3,3,5,5,7,7,8,8,10,10,12,12,14,14],"right_children":[2,4,6,8,-1,10,-1,12,14,-1,16,-1,18,-1,20,-1,-1,-1,-1,-1,-1],"split_conditions":[-7.590783E-1,1.3738989E0,2.1508904E0,-2.7478706E-2,-2.7336273E-2,3.981592E0,3.9641716E-2,1.5058826E-1,-2.4465156E0,-2.944908E-2,5.641619E-1,4.3299895E-2,-1.7053248E0,-1.7438013E-2,2.4949226E0,-2.2173163E-2,4.4882085E-2,2.488259E-2,-2.7970731E-2,4.619299E-2,1.22417575E-2],"split_indices":[1015,697,1182,893,0,1221,0,1064,996,0,24,0,0,0,34,0,0,0,0,0,0],"split_type":[0,0,0,0,0,0,0,0,0,0,0,0,0,0,0,0,0,0,0,0,0],"sum_hessian":[5.7966504E2,2.3216429E2,3.4750076E2,2.2459163E2,7.5726676E0,3.4300375E2,4.496997E0,1.642988E1,2.0816174E2,3.3720898E2,5.7947845E0,7.1556606E0,9.2742195E0,1.1658078E0,2.0699594E2,2.805851E0,2.9889338E0,1.0240835E0,8.250135E0,2.0546494E2,1.5310094E0],"tree_param":{"num_deleted":"0","num_feature":"1286","num_nodes":"21","size_leaf_vector":"1"}},{"base_weights":[4.7596637E-3,8.1101775E-1,-5.056808E-1,-2.7513736E-1,8.837537E-1,-5.844584E-1,1.2650998E-1,-2.790661E-2,3.8723525E-2,9.171853E-1,-1.5912741E-1,2.0056572E-2,-2.9442891E-2,-2.2258557E-1,6.7488235E-1,7.087002E-3,4.6141133E-2,-2.5544737E-2,3.149498E-2,5.8103794E-1,-2.8614972E-2,4.7565356E-2,-2.2152131E-2,4.9518272E-2,-2.0507576E-2],"categories":[],"categories_nodes":[],"categories_segments":[],"categories_sizes":[],"default_left":[0,0,0,0,0,0,0,0,0,0,0,0,0,0,0,0,0,0,0,0,0,0,0,0,0],"id":53,"left_children":[1,3,5,7,9,11,13,-1,-1,15,17,-1,-1,19,21,-1,-1,-1,-1,23,-1,-1,-1,-1,-1],"loss_changes":[2.4233385E2,1.827707E1,1.8031204E1,4.9143753E0,7.613388E0,1.6272049E0,7.9558363E0,0E0,0E0,7.770386E-1,2.4048176E0,0E0,0E0,7.54566E0,5.3993106E0,0E0,0E0,0E0,0E0,3.7650168E0,0E0,0E0,0E0,0E0,0E0],"parents":[2147483647,0,0,1,1,2,2,3,3,4,4,5,5,6,6,9,9,10,10,13,13,14,14,19,19],"right_children":[2,4,6,8,10,12,14,-1,-1,16,18,-1,-1,20,22,-1,-1,-1,-1,24,-1,-1,-1,-1,-1],"split_conditions":[-1.1640751E0,-1.8112085E0,1.3190436E0,1.5058826E-1,1.4393246E0,-4.057073E0,-1.3017973E0,-2.790661E-2,3.8723525E-2,-1.721589E0,-3.489112E-2,2.0056572E-2,-2.9442891E-2,-1.1102026E0,2.013004E0,7.087002E-3,4.6141133E-2,-2.5544737E-2,3.149498E-2,4.193837E-1,-2.8614972E-2,4.7565356E-2,-2.2152131E-2,4.9518272E-2,-2.0507576E-2],"split_indices":[1101,1016,1259,1064,1127,1267,1016,0,0,720,15,0,0,1199,1133,0,0,0,0,309,0,0,0,0,0],"split_type":[0,0,0,0,0,0,0,0,0,0,0,0,0,0,0,0,0,0,0,0,0,0,0,0,0],"sum_hessian":[5.868402E2,2.2727025E2,3.5956995E2,1.40896015E1,2.1318065E2,3.197956E2,3.9774376E1,1.1466308E1,2.6232939E0,2.0667578E2,6.5048685E0,1.0204017E0,3.1877518E2,2.4666014E1,1.5108364E1,1.6803443E0,2.0499544E2,4.742879E0,1.7619896E0,7.2786355E0,1.7387379E1,1.223268E1,2.875683E0,5.151905E0,2.1267302E0],"tree_param":{"num_deleted":"0","num_feature":"1286","num_nodes":"25","size_leaf_vector":"1"}},{"base_weights":[6.566873E-3,-5.79467E-1,4.5820076E-2,1.896598E-1,-5.864743E-1,4.2686272E-2,-1.9392869E-2,-2.9496754E-2,-7.228619E-2,-1.8168842E-2,1.6003368E-2],"categories":[],"categories_nodes":[],"categories_segments":[],"categories_sizes":[],"default_left":[0,0,0,0,0,0,0,0,0,0,0],"id":54,"left_children":[1,3,-1,5,7,-1,-1,-1,9,-1,-1],"loss_changes":[3.0960617E2,2.0147095E0,0E0,1.8438144E0,5.806122E-1,0E0,0E0,0E0,5.1389533E-1,0E0,0E0],"parents":[2147483647,0,0,1,1,3,3,4,4,8,8],"right_children":[2,4,-1,6,8,-1,-1,-1,10,-1,-1],"split_conditions":[4.8152047E-1,-3.2900486E0,4.5820076E-2,-2.5415245E-1,3.9139836E0,4.2686272E-2,-1.9392869E-2,-2.9496754E-2,-7.370529E-2,-1.8168842E-2,1.6003368E-2],"split_indices":[674,718,0,353,739,0,0,0,5,0,0],"split_type":[0,0,0,0,0,0,0,0,0,0,0],"sum_hessian":[5.7866736E2,3.5218466E2,2.2648268E2,2.9443386E0,3.4924033E2,1.1470823E0,1.7972562E0,3.4675912E2,2.4812078E0,1.4668168E0,1.0143911E0],"tree_param":{"num_deleted":"0","num_feature":"1286","num_nodes":"11","size_leaf_vector":"1"}},{"base_weights":[-1.1318034E-2,-5.599649E-1,7.4232525E-1,-5.8103734E-1,6.237641E-1,8.494118E-1,-2.705335E-1,-2.9440764E-2,2.1820446E-2,2.5444624E-3,4.113361E-2,-5.9839495E-2,8.967575E-1,-5.020005E-1,5.317544E-1,-2.694796E-2,6.745047E-1,9.1099E-1,-2.037693E-2,1.25069795E-2,-2.8268937E-2,-1.8000169E-2,4.2773265E-2,3.9786533E-2,8.201304E-3,1.9928874E-3,4.6302564E-2],"categories":[],"categories_nodes":[],"categories_segments":[],"categories_sizes":[],"default_left":[0,0,0,0,0,0,0,0,0,0,0,0,0,0,0,0,0,0,0,0,0,0,0,0,0,0,0],"id":55,"left_children":[1,3,5,7,9,11,13,-1,-1,-1,-1,15,17,19,21,-1,23,25,-1,-1,-1,-1,-1,-1,-1,-1,-1],"loss_changes":[2.3455502E2,8.550774E0,2.6151688E1,2.8134155E0,6.6733384E-1,9.368698E0,4.651444E0,0E0,0E0,0E0,0E0,4.4613943E0,4.190399E0,1.0394225E0,1.9742298E0,0E0,1.8154478E-1,2.6372986E0,0E0,0E0,0E0,0E0,0E0,0E0,0E0,0E0,0E0],"parents":[2147483647,0,0,1,1,2,2,3,3,4,4,5,5,6,6,11,11,12,12,13,13,14,14,16,16,17,17],"right_children":[2,4,6,8,10,12,14,-1,-1,-1,-1,16,18,20,22,-1,24,26,-1,-1,-1,-1,-1,-1,-1,-1,-1],"split_conditions":[5.7752305E-1,1.0773264E0,8.9245796E-1,8.487396E-1,-2.9067346E-1,-4.2710716E-1,1.9098315E0,-2.9440764E-2,2.1820446E-2,2.5444624E-3,4.113361E-2,5.11461E-1,2.496891E-1,-1.0936078E0,-3.235273E-1,-2.694796E-2,8.034836E-1,5.3688943E-2,-2.037693E-2,1.25069795E-2,-2.8268937E-2,-1.8000169E-2,4.2773265E-2,3.9786533E-2,8.201304E-3,1.9928874E-3,4.6302564E-2],"split_indices":[647,1170,1120,971,4,635,565,0,0,0,0,215,636,151,0,0,17,632,0,0,0,0,0,0,0,0,0],"split_type":[0,0,0,0,0,0,0,0,0,0,0,0,0,0,0,0,0,0,0,0,0,0,0,0,0,0,0],"sum_hessian":[5.6525977E2,3.27268E2,2.3799174E2,3.2204422E2,5.2238064E0,2.1538147E2,2.2610271E1,3.2001907E2,2.0251315E0,1.6699702E0,3.5538363E0,1.0646995E1,2.0473448E2,1.783811E1,4.7721605E0,6.604188E0,4.0428066E0,2.0282281E2,1.9116651E0,1.1572839E0,1.6680826E1,1.2410915E0,3.5310688E0,2.8154209E0,1.2273856E0,3.5090315E0,1.9931378E2],"tree_param":{"num_deleted":"0","num_feature":"1286","num_nodes":"27","size_leaf_vector":"1"}},{"base_weights":[1.2391488E-2,-5.1066023E-1,8.029182E-1,2.9184377E-1,-5.747965E-1,8.6270946E-1,-1.9842823E-1,-3.9454484E-1,8.025713E-1,-2.9242752E-2,2.6059488E-2,-2.277582E-2,8.8192475E-1,3.745907E-2,-2.7153118E-2,2.9283538E-2,-2.7025377E-2,4.5223575E-2,-1.5722627E-2,8.9206046E-1,-1.806339E-2,1.1186094E-2,4.4792894E-2],"categories":[],"categories_nodes":[],"categories_segments":[],"categories_sizes":[],"default_left":[0,0,0,0,0,0,0,0,0,0,0,0,0,0,0,0,0,0,0,0,0,0,0],"id":56,"left_children":[1,3,5,7,9,11,13,15,17,-1,-1,-1,19,-1,-1,-1,-1,-1,-1,21,-1,-1,-1],"loss_changes":[2.349297E2,1.776751E1,1.371608E1,9.420302E0,3.7991638E0,5.814041E0,4.8353705E0,1.9976386E0,2.0167627E0,0E0,0E0,0E0,2.9802704E0,0E0,0E0,0E0,0E0,0E0,0E0,3.313446E-1,0E0,0E0,0E0],"parents":[2147483647,0,0,1,1,2,2,3,3,4,4,5,5,6,6,7,7,8,8,12,12,19,19],"right_children":[2,4,6,8,10,12,14,16,18,-1,-1,-1,20,-1,-1,-1,-1,-1,-1,22,-1,-1,-1],"split_conditions":[1.3899739E0,-2.4189148E0,1.9636937E0,-1.2791364E0,4.722597E0,-2.2603312E0,-9.7029544E-2,-2.1537924E0,1.791226E0,-2.9242752E-2,2.6059488E-2,-2.277582E-2,2.6925244E0,3.745907E-2,-2.7153118E-2,2.9283538E-2,-2.7025377E-2,4.5223575E-2,-1.5722627E-2,-2.0771365E0,-1.806339E-2,1.1186094E-2,4.4792894E-2],"split_indices":[588,1016,760,915,710,1281,672,7,248,0,0,0,1250,0,0,0,0,0,0,16,0,0,0],"split_type":[0,0,0,0,0,0,0,0,0,0,0,0,0,0,0,0,0,0,0,0,0,0,0],"sum_hessian":[5.6617633E2,3.4094455E2,2.252318E2,2.496906E1,3.1597546E2,2.1267145E2,1.2560346E1,1.0749642E1,1.42194195E1,3.1356406E2,2.4114041E0,2.729267E0,2.0994218E2,3.0367153E0,9.52363E0,1.0028067E0,9.746836E0,1.3205074E1,1.014345E0,2.0852454E2,1.4176542E0,1.5166159E0,2.0700792E2],"tree_param":{"num_deleted":"0","num_feature":"1286","num_nodes":"23","size_leaf_vector":"1"}},{"base_weights":[7.821449E-3,-5.2224547E-1,7.669771E-1,4.4064975E-1,-5.664805E-1,8.5136443E-1,-3.301875E-1,-2.4951546E-2,4.4408914E-2,5.02643E-1,-5.8043975E-1,8.698456E-1,-2.1744136E-2,3.5204183E-2,-2.8140455E-2,4.1162025E-2,-1.5255428E-2,-2.9233411E-2,1.8214503E-2,8.795979E-1,-1.7675467E-2,-4.4320174E-3,4.466848E-2],"categories":[],"categories_nodes":[],"categories_segments":[],"categories_sizes":[],"default_left":[0,0,0,0,0,0,0,0,0,0,0,0,0,0,0,0,0,0,0,0,0,0,0],"id":57,"left_children":[1,3,5,7,9,11,13,-1,-1,15,17,19,-1,-1,-1,-1,-1,-1,-1,21,-1,-1,-1],"loss_changes":[2.2768236E2,1.4441086E1,2.1819443E1,6.833857E0,5.0523605E0,5.519867E0,4.5669703E0,0E0,0E0,1.4546179E0,1.4726868E0,2.8588562E0,0E0,0E0,0E0,0E0,0E0,0E0,0E0,2.9082184E0,0E0,0E0,0E0],"parents":[2147483647,0,0,1,1,2,2,3,3,4,4,5,5,6,6,9,9,10,10,11,11,19,19],"right_children":[2,4,6,8,10,12,14,-1,-1,16,18,20,-1,-1,-1,-1,-1,-1,-1,22,-1,-1,-1],"split_conditions":[1.0817084E0,-1.3952444E0,2.013004E0,-1.7765076E0,-3.3118007E0,2.7197857E0,-3.916198E-1,-2.4951546E-2,4.4408914E-2,2.851797E-1,3.3848686E0,-8.6707723E-1,-2.1744136E-2,3.5204183E-2,-2.8140455E-2,4.1162025E-2,-1.5255428E-2,-2.9233411E-2,1.8214503E-2,-2.9641047E0,-1.7675467E-2,-4.4320174E-3,4.466848E-2],"split_indices":[549,1086,1133,984,776,1182,248,0,0,8,959,633,0,0,0,0,0,0,0,1009,0,0,0],"split_type":[0,0,0,0,0,0,0,0,0,0,0,0,0,0,0,0,0,0,0,0,0,0,0],"sum_hessian":[5.63811E2,3.321825E2,2.3162846E2,1.4196463E1,3.1798605E2,2.1529341E2,1.6335052E1,4.5428047E0,9.653659E0,3.6471488E0,3.143389E2,2.1256297E2,2.7304356E0,2.6272345E0,1.3707818E1,2.5971582E0,1.0499907E0,3.1331766E2,1.0212306E0,2.1116064E2,1.402328E0,2.8850787E0,2.0827557E2],"tree_param":{"num_deleted":"0","num_feature":"1286","num_nodes":"23","size_leaf_vector":"1"}},{"base_weights":[-5.1872265E-3,-5.7585025E-1,4.429196E-2,2.1662235E-1,-5.818342E-1,-6.5999175E-3,2.3349991E-2,-1.6182578E-1,-2.9273022E-2,1.6812965E-2,-2.0834444E-2],"categories":[],"categories_nodes":[],"categories_segments":[],"categories_sizes":[],"default_left":[0,0,0,0,0,0,0,0,0,0,0],"id":58,"left_children":[1,3,-1,5,7,-1,-1,9,-1,-1,-1],"loss_changes":[2.8652536E2,1.754921E0,0E0,3.4995145E-1,4.249115E-1,0E0,0E0,6.8629587E-1,0E0,0E0,0E0],"parents":[2147483647,0,0,1,1,3,3,4,4,7,7],"right_children":[2,4,-1,6,8,-1,-1,10,-1,-1,-1],"split_conditions":[6.6491497E-1,-3.2900486E0,4.429196E-2,-8.190222E-1,-1.8442085E0,-6.5999175E-3,2.3349991E-2,-1.8240066E-1,-2.9273022E-2,1.6812965E-2,-2.0834444E-2],"split_indices":[929,718,